<?xml version="1.0"?>
<MethodSetup Method="MLP::MLPBNN">
  <GeneralInfo>
    <Info name="TMVA Release" value="4.1.4 [262404]"/>
    <Info name="ROOT Release" value="5.34/05 [336389]"/>
    <Info name="Creator" value="jbochenek"/>
    <Info name="Date" value="Mon Apr 15 11:30:04 2013"/>
    <Info name="Host" value="Linux ubuntu 3.2.0-39-generic #62-Ubuntu SMP Wed Feb 27 22:05:17 UTC 2013 i686 i686 i386 GNU/Linux"/>
    <Info name="Dir" value="/mnt/hgfs/work/HZZ4l_2013/scripts"/>
    <Info name="Training events" value="10000"/>
    <Info name="TrainingTime" value="6.59080275e+02"/>
    <Info name="AnalysisType" value="Classification"/>
  </GeneralInfo>
  <Options>
    <Option name="NCycles" modified="Yes">600</Option>
    <Option name="HiddenLayers" modified="Yes">N+5</Option>
    <Option name="NeuronType" modified="Yes">tanh</Option>
    <Option name="RandomSeed" modified="No">1</Option>
    <Option name="EstimatorType" modified="No">MSE</Option>
    <Option name="NeuronInputType" modified="No">sum</Option>
    <Option name="V" modified="Yes">False</Option>
    <Option name="VerbosityLevel" modified="No">Default</Option>
    <Option name="VarTransform" modified="Yes">N</Option>
    <Option name="H" modified="Yes">True</Option>
    <Option name="CreateMVAPdfs" modified="No">False</Option>
    <Option name="IgnoreNegWeightsInTraining" modified="No">False</Option>
    <Option name="TrainingMethod" modified="Yes">BFGS</Option>
    <Option name="LearningRate" modified="No">2.000000e-02</Option>
    <Option name="DecayRate" modified="No">1.000000e-02</Option>
    <Option name="TestRate" modified="Yes">5</Option>
    <Option name="EpochMonitoring" modified="No">False</Option>
    <Option name="Sampling" modified="No">1.000000e+00</Option>
    <Option name="SamplingEpoch" modified="No">1.000000e+00</Option>
    <Option name="SamplingImportance" modified="No">1.000000e+00</Option>
    <Option name="SamplingTraining" modified="No">True</Option>
    <Option name="SamplingTesting" modified="No">False</Option>
    <Option name="ResetStep" modified="No">50</Option>
    <Option name="Tau" modified="No">3.000000e+00</Option>
    <Option name="BPMode" modified="No">sequential</Option>
    <Option name="BatchSize" modified="No">-1</Option>
    <Option name="ConvergenceImprove" modified="No">1.000000e-30</Option>
    <Option name="ConvergenceTests" modified="No">-1</Option>
    <Option name="UseRegulator" modified="Yes">True</Option>
    <Option name="UpdateLimit" modified="No">10000</Option>
    <Option name="CalculateErrors" modified="No">False</Option>
    <Option name="WeightRange" modified="No">1.000000e+00</Option>
  </Options>
  <Variables NVar="7">
    <Variable VarIndex="0" Expression="f_angle_costhetastar" Label="f_angle_costhetastar" Title="f_angle_costhetastar" Unit="" Internal="f_angle_costhetastar" Type="F" Min="-9.90000000e+01" Max="9.99695241e-01"/>
    <Variable VarIndex="1" Expression="f_angle_costheta1" Label="f_angle_costheta1" Title="f_angle_costheta1" Unit="" Internal="f_angle_costheta1" Type="F" Min="-9.90000000e+01" Max="9.99956787e-01"/>
    <Variable VarIndex="2" Expression="f_angle_costheta2" Label="f_angle_costheta2" Title="f_angle_costheta2" Unit="" Internal="f_angle_costheta2" Type="F" Min="-9.90000000e+01" Max="9.99614596e-01"/>
    <Variable VarIndex="3" Expression="f_angle_phi" Label="f_angle_phi" Title="f_angle_phi" Unit="" Internal="f_angle_phi" Type="F" Min="-9.90000000e+01" Max="3.14143348e+00"/>
    <Variable VarIndex="4" Expression="f_angle_phistar1" Label="f_angle_phistar1" Title="f_angle_phistar1" Unit="" Internal="f_angle_phistar1" Type="F" Min="-9.90000000e+01" Max="3.14026070e+00"/>
    <Variable VarIndex="5" Expression="f_Z1mass" Label="f_Z1mass" Title="f_Z1mass" Unit="" Internal="f_Z1mass" Type="F" Min="4.03993835e+01" Max="1.17858093e+02"/>
    <Variable VarIndex="6" Expression="f_Z2mass" Label="f_Z2mass" Title="f_Z2mass" Unit="" Internal="f_Z2mass" Type="F" Min="1.20253534e+01" Max="1.14000206e+02"/>
  </Variables>
  <Spectators NSpec="0"/>
  <Classes NClass="2">
    <Class Name="Signal" Index="0"/>
    <Class Name="Background" Index="1"/>
  </Classes>
  <Transformations NTransformations="1">
    <Transform Name="Normalize">
      <Selection>
        <Input NInputs="7">
          <Input Type="Variable" Label="f_angle_costhetastar" Expression="f_angle_costhetastar"/>
          <Input Type="Variable" Label="f_angle_costheta1" Expression="f_angle_costheta1"/>
          <Input Type="Variable" Label="f_angle_costheta2" Expression="f_angle_costheta2"/>
          <Input Type="Variable" Label="f_angle_phi" Expression="f_angle_phi"/>
          <Input Type="Variable" Label="f_angle_phistar1" Expression="f_angle_phistar1"/>
          <Input Type="Variable" Label="f_Z1mass" Expression="f_Z1mass"/>
          <Input Type="Variable" Label="f_Z2mass" Expression="f_Z2mass"/>
        </Input>
        <Output NOutputs="7">
          <Output Type="Variable" Label="f_angle_costhetastar" Expression="f_angle_costhetastar"/>
          <Output Type="Variable" Label="f_angle_costheta1" Expression="f_angle_costheta1"/>
          <Output Type="Variable" Label="f_angle_costheta2" Expression="f_angle_costheta2"/>
          <Output Type="Variable" Label="f_angle_phi" Expression="f_angle_phi"/>
          <Output Type="Variable" Label="f_angle_phistar1" Expression="f_angle_phistar1"/>
          <Output Type="Variable" Label="f_Z1mass" Expression="f_Z1mass"/>
          <Output Type="Variable" Label="f_Z2mass" Expression="f_Z2mass"/>
        </Output>
      </Selection>
      <Class ClassIndex="0">
        <Ranges>
          <Range Index="0" Min="-9.9000000000000000e+01" Max="9.9896472692489624e-01"/>
          <Range Index="1" Min="-9.9000000000000000e+01" Max="9.9995678663253784e-01"/>
          <Range Index="2" Min="-9.9000000000000000e+01" Max="9.9956071376800537e-01"/>
          <Range Index="3" Min="-9.9000000000000000e+01" Max="3.1413598060607910e+00"/>
          <Range Index="4" Min="-9.9000000000000000e+01" Max="3.1402606964111328e+00"/>
          <Range Index="5" Min="4.0805000305175781e+01" Max="1.1785809326171875e+02"/>
          <Range Index="6" Min="1.2025353431701660e+01" Max="1.1400020599365234e+02"/>
        </Ranges>
      </Class>
      <Class ClassIndex="1">
        <Ranges>
          <Range Index="0" Min="-9.9000000000000000e+01" Max="9.9969524145126343e-01"/>
          <Range Index="1" Min="-9.9000000000000000e+01" Max="9.9988216161727905e-01"/>
          <Range Index="2" Min="-9.9000000000000000e+01" Max="9.9961459636688232e-01"/>
          <Range Index="3" Min="-9.9000000000000000e+01" Max="3.1414334774017334e+00"/>
          <Range Index="4" Min="-9.9000000000000000e+01" Max="3.1383242607116699e+00"/>
          <Range Index="5" Min="4.0399383544921875e+01" Max="1.1386201477050781e+02"/>
          <Range Index="6" Min="1.2030696868896484e+01" Max="1.0881298828125000e+02"/>
        </Ranges>
      </Class>
      <Class ClassIndex="2">
        <Ranges>
          <Range Index="0" Min="-9.9000000000000000e+01" Max="9.9969524145126343e-01"/>
          <Range Index="1" Min="-9.9000000000000000e+01" Max="9.9995678663253784e-01"/>
          <Range Index="2" Min="-9.9000000000000000e+01" Max="9.9961459636688232e-01"/>
          <Range Index="3" Min="-9.9000000000000000e+01" Max="3.1414334774017334e+00"/>
          <Range Index="4" Min="-9.9000000000000000e+01" Max="3.1402606964111328e+00"/>
          <Range Index="5" Min="4.0399383544921875e+01" Max="1.1785809326171875e+02"/>
          <Range Index="6" Min="1.2025353431701660e+01" Max="1.1400020599365234e+02"/>
        </Ranges>
      </Class>
    </Transform>
  </Transformations>
  <MVAPdfs/>
  <Weights>
    <Layout NLayers="3">
      <Layer Index="0" NNeurons="8">
        <Neuron NSynapses="12">
          -1.7817712674989097e-01 1.5743711911975518e+00 1.5240566569302751e+00 1.5228320437801697e+00 -1.4981844070390766e+00 -1.0510773554076716e+00 -8.3224613646802770e-01 1.6073212690825893e+00 -1.1533731364944901e+00 -8.8920669997499968e-01 -1.6955289277986021e+00 -4.8300876857181668e-01 
        </Neuron>
        <Neuron NSynapses="12">
          -8.6504748691306832e-01 -1.4831362350931445e+00 -8.7537134308278630e-01 5.8180267144588604e-01 -1.9139259551333968e-01 2.1089274745465261e+00 2.1594851194593037e-01 9.7325335516097222e-01 1.8943919296427605e-01 -5.6022657995552749e-01 1.9083523873010474e-01 -2.3421048118327011e-03 
        </Neuron>
        <Neuron NSynapses="12">
          -7.3749829089354946e-01 -1.1481138117157730e+00 6.7796704088051762e-01 -6.4939661253116687e-01 -1.1875181638456203e+00 1.8938911357548580e-01 2.4812845146293064e-01 1.1069970084964280e+00 2.9595401899069640e-01 -1.3660789428023484e-01 -1.2755222169153271e-01 -4.1281928687680609e-02 
        </Neuron>
        <Neuron NSynapses="12">
          -9.9643490002037249e-01 1.1455263801811437e+00 -1.7845639045351753e+00 9.1525706998900846e-01 1.0122158857695716e+00 5.6802600887843080e-01 1.0185611233157748e+00 8.5736307710216830e-01 -5.7070668438225947e-01 -1.2312123708163007e+00 2.9682124478685801e-01 -2.0007809029171639e-01 
        </Neuron>
        <Neuron NSynapses="12">
          1.1683028456324482e+00 4.9741605089179586e-01 8.7368658763366236e-01 1.0615004161931794e+00 -1.0963565300069704e+00 3.6384492045182826e-01 -1.5131027250024787e+00 -7.0824324236587632e-01 -7.3613060255485663e-01 -1.3338626970167724e+00 7.7264346898656300e-01 6.3821994509906610e-01 
        </Neuron>
        <Neuron NSynapses="12">
          -1.4755249331517584e+00 -2.8594846132116086e-01 5.7839999250781005e-01 3.4514927604432877e-01 1.5661520169120291e+00 -1.4981073302581658e+00 8.2676748203494965e-02 -6.8820660548079615e-01 1.1343949163505103e+00 -4.9036626073139100e-01 -9.2810992154621214e-02 -1.2678136473775552e+00 
        </Neuron>
        <Neuron NSynapses="12">
          1.5668429605828107e+00 -1.0468340694133285e-01 2.2119422101286626e-01 -3.3822090094826668e-01 -1.2869316797863068e+00 -3.0267690050608542e+00 1.3098169127925336e+00 3.7814590301667750e-01 2.0236379110163463e+00 4.6957561424669486e-01 7.4219743161025231e-01 -1.3950805222538525e+00 
        </Neuron>
        <Neuron NSynapses="12">
          -1.0634331014887957e+00 2.1697987337483921e-01 7.0229026698108543e-01 -7.4305201757836459e-01 -2.2129525412244120e+00 -1.7653905422244047e+00 -5.0850673251557765e-01 -1.3176032862282011e-01 1.2875539284370325e+00 -1.2230550173961419e+00 -1.3184102541329414e+00 1.4261644069247781e+00 
        </Neuron>
      </Layer>
      <Layer Index="1" NNeurons="13">
        <Neuron NSynapses="1">
          -1.5073894807108865e+00 
        </Neuron>
        <Neuron NSynapses="1">
          -1.2058581725827058e+00 
        </Neuron>
        <Neuron NSynapses="1">
          -9.3235738066614648e-01 
        </Neuron>
        <Neuron NSynapses="1">
          -3.9867065468864188e-01 
        </Neuron>
        <Neuron NSynapses="1">
          -1.3220215674546265e+00 
        </Neuron>
        <Neuron NSynapses="1">
          -1.3025527813185469e+00 
        </Neuron>
        <Neuron NSynapses="1">
          3.7922098311181929e-01 
        </Neuron>
        <Neuron NSynapses="1">
          4.8975340120603233e-01 
        </Neuron>
        <Neuron NSynapses="1">
          -1.9117593128255894e+00 
        </Neuron>
        <Neuron NSynapses="1">
          1.7823182341098165e+00 
        </Neuron>
        <Neuron NSynapses="1">
          -6.5921314441389967e-01 
        </Neuron>
        <Neuron NSynapses="1">
          -8.9344793060793937e-01 
        </Neuron>
        <Neuron NSynapses="1">
          7.0868591339323594e-01 
        </Neuron>
      </Layer>
      <Layer Index="2" NNeurons="1">
        <Neuron NSynapses="0"/>
      </Layer>
    </Layout>
    <InverseHessian NElements="11881" NRows="109" NCols="109">
      <Row Index="0">
        1.4328951901912198e+04 7.0268289377934138e+02 4.6217867888739363e+02 -2.6994745531812441e+04 -1.1195839200445438e+04 -5.5138305238168265e+01 -8.9373073920078173e+02 4.6016867274336564e+03 1.5948300928361306e+02 -2.1191204146190598e+03 -1.2861451295079838e+04 -1.7141858375709941e+02 -6.6906298582844165e+03 -7.8483760327086827e+02 -1.6794445997871733e+02 9.7634825171971770e+03 8.4506424004728688e+03 -1.2394940765084248e+01 3.8040661564310568e+01 -2.6183493211801178e+03 -7.5256328969917163e+01 -3.6973635878177965e+03 6.2575449498986691e+03 -3.1815322233459318e+02 -4.6515970315563918e+03 -5.4480949858176189e+02 -3.4108961003829641e+01 1.0984990448718085e+04 5.9773927454723444e+03 1.4345918964383804e+00 -1.0550395672038478e+03 -2.2090132188452271e+03 -3.9479468518870782e+01 -3.7293945329438588e+03 5.0378145247413422e+03 -4.4283997534790865e+02 -1.8000333049193994e+03 4.0234569370977141e+02 -1.9691687063677162e+02 9.8731610882360621e+02 -9.0267737295455227e+03 1.3410558679418850e+01 7.6755744346420540e+00 -2.7330127371391641e+03 -2.9952062807205941e+01 -3.6704811075465150e+03 3.1304574914756290e+03 1.4402922712111078e+02 -1.6237599327882513e+03 2.4257317793315369e+02 9.1741302136750260e+00 -2.9802401921594073e+03 7.4758484442686422e+03 3.3485973495538715e+01 3.7872026738795589e+03 -9.0568898942916858e+03 -4.9517876790074958e+01 -3.4424178079926692e+03 -1.7156874355807181e+03 7.2399258359752832e+02 -7.9180408050974756e+02 -1.1073955311961535e+02 1.1833393092643412e+02 -2.4373954134760725e+03 -1.2256274211328455e+03 2.4899027983713653e+00 -5.5807886428242102e+02 8.9182185174340120e+03 2.8087316678336305e+00 2.0889057123727562e+03 -4.7978392295558224e+03 -3.4223935018365313e+02 6.0946435587742155e+02 1.1559390926617794e+00 -1.0345763786550159e+00 -9.4282862686777105e+02 6.9858362463487765e+02 1.4833753921014589e+01 -2.3528749702896667e+02 -1.0576959007436020e+04 1.5565905626950379e+01 -6.5580013964504997e+03 2.7363911826917756e+03 -2.0019415653671354e+02 -4.9368251529738671e+02 -3.6466396225200378e+02 -3.2274107087889627e+02 1.0483732816843137e+03 1.1313854236642251e+03 2.6310191022549880e+01 -1.6253026457029268e+03 -1.7781665228479328e+03 2.6720599606690858e+01 7.0459124329768556e+03 1.4376650270287362e+03 2.2885070087307693e+02 1.0959208700069023e+03 1.0969011574568528e+03 4.1579151220085987e+02 9.9323610437563639e+02 -1.7551406845762424e+03 -3.2072002971342904e+01 8.7170681738098779e+02 -7.5997092374314343e+02 -4.7941795852806317e+00 1.3612926916031870e+03 3.3916705552626115e+02 4.5706550850995444e+02 -1.8793680924910373e+02 
      </Row>
      <Row Index="1">
        7.0268289283918432e+02 2.8265823362763235e+03 6.6633131033234577e+02 -3.4306498101708835e+03 -2.8560741016487582e+03 3.9424626754470168e+01 1.1459851185743184e+03 6.3655729956769517e+02 -7.2816998512201124e+01 2.1116529022384210e+01 3.0796015552025433e+03 3.8503003295236067e+02 -5.5257014362063353e+02 -2.4678258530027833e+03 -7.4105592131182107e+02 4.2033193336855868e+02 9.1071068889203025e+02 -3.9008586935732772e+01 -1.3937729423522874e+03 2.7648971198294737e+02 8.0254879942983408e+01 1.6577420667682190e+01 -3.9017478447386952e+02 -4.9572527489623474e+02 -3.7256023415036390e+02 -2.0131284397723878e+03 -5.1091513925247898e+02 -7.2419406140970023e+02 1.0794149621269837e+03 -3.0944891241855697e+01 -5.1617596467179044e+02 -7.5958703358509172e+02 4.4834159356774684e+01 2.3593274811524680e+01 1.1173036973837225e+03 -3.1213207221111520e+02 3.2747243675611617e+02 2.1254039172264411e+03 4.1767768641574366e+02 6.3112874897262122e+02 1.3923076689359323e+03 1.6256278443127933e+01 -2.0932009631694842e+02 -8.8944073244874028e+02 -9.6886727462943636e+00 -2.4727430123902309e+01 -1.0385332485495583e+03 1.3344888869657240e+02 -1.6846547669407028e+02 7.4216956957965908e+02 2.8933408389334568e+02 1.6672786530050657e+03 -1.2017134344717581e+03 1.7003653096952682e+01 7.1532284438319743e+02 -3.9124885729252283e+03 -3.2444946853369082e+01 -8.7319796773744500e+01 -4.6758876510052494e+02 9.0778423667843697e+01 5.4187704082142751e+01 -5.0544702957830123e+02 -1.2205323277559138e+02 1.0595509749108965e+03 8.6517515290143172e+02 -8.1846781959233894e-03 -1.0441533098426939e+02 1.9534495820520713e+03 -5.2375206809309436e+00 4.7972709664663344e+03 3.0124712941073727e+02 5.4552812923753706e+01 -4.2021626186074002e+01 -2.0805526378989882e+02 -4.1969024868852870e+01 -4.5695813678310046e+01 -1.8687759342639234e+02 -4.8435329711716903e+00 -7.7722500389848918e+01 -4.7774777018644187e+02 -1.4210034188330484e+01 4.7580815961961425e+03 -1.5125745062719818e+02 6.1581780453117048e+01 1.3351079415020482e+02 -2.2586857616137863e+03 -1.9140132237354070e+01 1.0441290416744712e+03 8.3227413513677988e+01 -4.0422661261759334e+00 4.0597861478405264e+02 3.5633607521091182e+02 -1.1240042302297292e+01 -2.8917891656606344e+01 -1.4608600866445081e+03 1.6367901992516715e+02 -4.3099082877323349e+00 4.0507626686344020e+03 -1.7246124903051637e+02 1.4947774893474800e+03 1.4915415652319155e+03 1.3378960244975758e+01 7.6020958420370647e+01 -2.7179368515852485e+02 -1.9666718239055768e+01 -7.9033740816948480e+01 1.6848951200870406e+01 -1.0242476353499657e+02 -2.8429504451581879e+03 
      </Row>
      <Row Index="2">
        4.6217867732006289e+02 6.6633130641122693e+02 9.1846541151194231e+02 -5.0866214974514187e+03 7.0504998629966963e+01 -3.5026840098595997e+01 8.3284685054160559e+02 -4.5921753009410086e+03 1.2154136249704962e+01 2.0120605650555001e+02 9.3096861166785925e+02 7.2050201493647961e+01 -1.6155861057215296e+02 -6.3753900157573514e+02 -4.3509408165348475e+02 2.0430157010843766e+03 -1.8765839492635482e+02 2.6615309606151989e+01 -7.8352153358617943e+02 2.0790470340728994e+03 2.7906739626016268e+01 8.1451070468908256e+01 -1.4529249199184712e+03 -1.4092356101795923e+02 -1.7295595598381391e+02 -3.7908131738289273e+02 1.3886951257760180e+02 -2.9984717580251402e+02 2.7824816563097170e+02 4.2593091578731528e+00 -4.1396748311503353e+02 7.9553536215633130e+02 9.7494045379030538e+00 1.2088614408660044e+02 -7.6766289749795362e+02 -1.0583461235602009e+02 -2.5867360185787703e+02 2.9978120024955638e+02 -5.6570829107890665e+02 3.2308035024383989e+03 -8.0044705839351491e+02 -3.7784463964953869e+00 2.1234657430678908e+02 -8.6086170255542481e+02 1.5744676831184559e+00 7.7859381247550061e+01 5.0191771321258119e+02 8.3651564863326200e+01 5.2470523467331951e+01 2.7430025655903199e+02 3.3979669109748198e+02 -1.7924097313168279e+03 7.3247995130611400e+02 5.0144672388138609e+00 3.5446662548167112e+01 -1.7270751518571803e+03 -1.7404495983094673e+01 1.0068098241339622e+02 5.1843851417886935e+02 9.0683548679308942e+01 -7.0237409264952177e+01 -6.8179050117014867e+01 2.0109436550725556e+02 -3.3706877440867362e+02 -4.4638339424552278e+01 -5.6382665162933305e+00 2.3956793626297809e+01 1.5217647237460862e+03 -3.3366800046008360e-01 5.0572936958226046e+02 -5.8257791401660870e+02 -8.2224419655033913e+01 1.0537962572071707e+02 -2.1561285627311499e+01 5.8846678955922059e+01 -1.8558593217802394e+02 2.5762211879018963e+02 -9.4726714290396981e+00 8.7480470521012723e+00 -7.9040496546246891e+02 -1.1980914501066350e+01 4.2136561426206276e+02 -2.1765974139335418e+02 -4.8811958021379056e+01 5.5351730790342408e+00 -3.3840048566642611e+02 -5.3533611977199325e+02 8.7281022671052483e+02 2.8323222329824955e+02 2.9422370635203445e+00 1.9172445417324334e+02 1.0885947919992664e+03 -4.4442404639289194e+01 7.1437189356256340e+01 7.6221780076203194e+00 1.1936320422118440e+01 1.5036001771506096e+02 7.4806727761291222e+02 7.1131032537243868e+02 1.1498726374563087e+03 -2.7018376543755221e+02 2.7480828421898035e+01 -8.4660513668419792e+00 -1.2161901455831946e+03 2.4642444188837000e+00 1.1044353107678170e+02 -3.3688944354988820e+02 8.5836151044233873e+01 -1.5810904097672587e+03 
      </Row>
      <Row Index="3">
        -2.6994745490878238e+04 -3.4306496988892327e+03 -5.0866214936774231e+03 5.8297762170603347e+05 9.1232762599474445e+04 -9.4459536373524031e+01 1.5442044569360383e+04 -5.3710552738473307e+04 -8.4404865844954156e+02 1.0997658033017391e+04 8.1299070294847597e+03 3.5338046666519740e+03 1.1671999746686057e+04 1.1778847291767645e+03 1.8242691740676714e+03 -9.4544525784525409e+04 -7.0216724307542449e+04 1.7422840083357423e+02 -2.4865682702176805e+03 3.0055046976203528e+04 3.4687505801265763e+02 1.7949330153322790e+03 3.3415140369448968e+03 -7.1121938649174251e+02 1.4544095599163734e+03 1.4580555902861300e+02 -3.8884474133305184e+02 -9.8385800539288786e+04 -3.3717567038281421e+04 -1.4809901319576323e+02 2.0408705854058724e+03 1.6837616504979669e+04 3.6720622570823838e+02 2.3093073369324366e+03 1.3385461530459912e+04 -1.2190361133809602e+03 3.5941799670154396e+03 1.3882929608440759e+03 1.8166370888959300e+03 -2.4711707550560081e+04 -1.8465384132811846e+03 2.2241573136610182e+01 -5.9806484625539852e+03 5.6519653648992411e+04 -4.3506230575109136e+01 -1.6417217048487607e+03 -2.1241967482462998e+04 -7.2978236031980555e+02 8.7197093501820327e+03 -9.7188644173893138e+01 -7.5459970763039382e+02 -2.8750528676782222e+04 1.5421987841437138e+04 1.8341408988423282e+01 -6.1220235208065460e+03 9.8645782923646384e+03 -7.7979908443991732e+01 -9.4210111219550993e+02 -7.1687144451502763e+02 8.6577129608873418e+02 -3.5198908552725302e+03 -9.3279060417447575e+00 -5.7599705347845247e+02 2.4739764824137801e+03 1.0393582625645243e+02 3.6589112287419169e+01 -1.7710481426687813e+03 1.3741175492950717e+04 -9.5443241106251961e+01 2.2136037895839938e+04 -2.1427441720102374e+03 -1.3149871684196950e+02 3.9098283282426978e+03 -6.0652769930655518e+02 -2.2147809394024057e+02 2.2015716895079764e+04 2.8315495079124270e+02 -3.8176085164837758e+01 -3.8624057360013256e+02 -1.5944559443066917e+04 7.8608630136561839e+00 -9.8853689700955838e+03 -4.1289669417307168e+03 -4.2515434295884324e+02 8.5606348310918645e+02 -9.3838094590031017e+02 2.2902705607091038e+03 -1.4597253499282122e+05 2.4966927472744474e+03 7.8303684910050553e+00 -2.9716050515974102e+03 2.1036602559328253e+03 2.4330389717493014e+02 2.9923742711609146e+04 8.1335888205471147e+03 -1.2474857737232498e+03 7.1925176980882943e+03 1.7732394850977989e+03 -1.4213698773139411e+03 -1.1498482205611262e+05 5.1938535774526863e+03 1.1850753812930337e+02 -9.4520220150770820e+02 5.8241229592398893e+04 3.3058237286800409e+02 -6.0611777920734668e+04 1.2203061395619738e+04 1.0584985566352799e+02 1.9058935872998762e+04 
      </Row>
      <Row Index="4">
        -1.1195839208345647e+04 -2.8560741030633103e+03 7.0504989853208002e+01 9.1232763006631969e+04 3.1221350792527321e+05 -3.2808457522639412e+02 3.4790621952421088e+03 1.1685893435499835e+05 -2.2105354296999514e+02 -8.8515157982052679e+03 3.1786405846710666e+04 -1.2027907387669709e+03 7.7315292662827997e+03 1.4031158552396182e+03 -9.2110460207032236e+00 -3.7864037330265353e+04 -1.5627806708803333e+05 3.9909820510667186e+02 -2.8569920159021485e+03 -1.8550661176203819e+04 2.2959476144827210e+02 -5.5747737368416010e+03 -2.2885662705809165e+04 4.9764165586249783e+02 6.8200366043068079e+03 8.5129316952822251e+02 8.7134327949204256e+00 -3.1931450018813630e+04 -1.3103685346177338e+05 3.9060370240810251e+01 -2.9967915209588709e+03 -2.1032971549040951e+04 5.3202194205861389e+01 -5.7283764291923671e+03 -1.6061976584955763e+04 4.1429685446731389e+02 -3.0871691907140234e+03 -4.6313921647875776e+02 2.9417471990311412e+02 -1.2846516821629721e+04 -2.8042824919257622e+04 -1.5921867777681827e+01 7.0642890129534351e+02 -2.9073619995836885e+04 -1.9100535011090368e+01 -5.7242395261299898e+03 4.8468697941681712e+03 -2.3900148761956597e+01 -6.3882046404031871e+02 1.7780944932563474e+02 1.4704314087189363e+02 -5.9586868394670855e+03 7.6104701811558007e+03 -3.0043220409041464e+01 2.2990933079159890e+03 -3.6227098739867586e+04 -6.4086535814046428e+01 -6.2764459749050466e+03 -9.2805444330894102e+02 2.4969164320200986e+02 -8.3248689998434452e+02 1.9807046345925050e+02 6.9574149400356973e+00 3.6359553814402043e+03 -5.4887630740457726e+03 -7.1671768525800189e+01 4.8679572160637582e+02 -6.1823460865937523e+03 1.0509835609569439e+01 -2.8685118021284643e+02 -4.2759125650467058e+03 -2.0049758194095753e+02 7.7957992748277491e+01 8.0757669024348601e+01 -6.6002209712999701e+01 -9.5416566504872626e+03 3.0972781935085022e+03 -1.8422769568123184e+02 5.7503517502638670e+02 -4.1086102090280310e+03 -4.8171326481928041e+01 -3.5536584403984934e+03 3.6669694722807662e+03 -9.4590757985610097e+01 -1.4872084217825482e+03 1.8615699060226391e+03 -5.9226409887916134e+02 -1.5534147653197269e+03 7.7165658124043034e+02 -7.5369004193824992e+01 -1.0643945169395256e+03 4.2920913508969406e+03 -5.8278909337464682e+01 -1.4037100792427777e+03 -4.6073397621209830e+02 1.3043697131886873e+02 -1.9022658347000381e+03 -1.6815934599754291e+03 5.1197972271783293e+01 -4.1855233717775318e+03 -7.6810998053480080e+03 3.9859202048313682e+02 4.5534142357275067e+02 -3.7478001170825928e+03 4.6804888568602775e+02 -1.4275162129730554e+03 -4.8149357042135971e+03 3.7272654867776197e+02 -6.1300574264741617e+03 
      </Row>
      <Row Index="5">
        -5.5138304858277046e+01 3.9424627689734976e+01 -3.5026839706705161e+01 -9.4459546199222757e+01 -3.2808457732408544e+02 3.7153965890958585e+02 2.6341817901992545e+02 3.4671638102042522e+02 1.3102481748634955e+02 3.8838493767668119e+01 1.0672425345965908e+02 -2.7414604475471060e+02 -1.0174160228853393e+02 -3.7690549098137645e+01 -2.1778432609458950e+01 9.2521406655803844e+02 4.4170174085222106e+02 -3.6470835148808175e+02 -1.1683632435514214e+02 -2.5219185395920235e+01 -1.4875906716399527e+02 1.1059544682420992e+01 3.0639154204284233e+02 7.6733553164882892e+01 -5.9857464417829846e+01 -3.3698657313052244e+01 -3.3072908559800617e+01 3.4002914594070126e+02 -3.1622267048742793e+02 -1.0932468647786361e+02 -1.0946316102922877e+02 1.8600330217392212e+02 9.5739029647965577e+00 2.9222071870683067e+01 1.4782132550612513e+02 -1.8747109862803171e+01 8.1656041443098175e+01 5.3715723840220022e+01 4.3949835601301679e+01 -1.7153946352393875e+03 2.9370922625469888e+02 1.3542509213784323e+01 -8.9008046873268565e-01 1.2830721527051256e+01 -1.5937977725619723e+01 8.0558825744869011e+01 -3.0938700970934059e+02 -9.6364903668525528e+01 1.1824800137757100e+02 -4.8380874767392799e+00 -2.4256778911645444e+01 7.7590424276332237e+02 -1.7270805009132263e+02 4.7724347951965342e+01 2.1211582264306774e+01 -1.1794109474431391e+01 3.8954495252963596e+01 1.3886947298381759e+01 -1.5024017253936341e+00 -7.6336549934509947e+01 -3.3557874129194985e+01 -1.1948809105359857e+01 -1.3477094951231912e+01 3.7620444184280792e+01 9.1938451961943301e+01 4.2162597873117953e+01 9.0654654914048187e+00 -9.5947680227293415e+02 3.6586604697542569e+01 -4.0489035027194097e+02 1.3457433574068421e+02 -1.6020529251212835e+01 4.0708375591028329e+01 -2.2121093378840222e+01 1.2597514046996665e+01 5.1278155069577042e+02 -1.1637251015807282e+01 1.1299085862436094e+02 -8.9784810935108325e+01 -3.2388200917876634e+02 1.1162990340584824e+02 -3.3561193953700592e+02 -8.4282257126583417e+01 4.6955232637185979e+01 2.5982462099910823e+01 -5.5524417420892604e+01 7.6493429891096270e+01 -6.6435340158338576e+01 1.2034342547656038e+01 5.8682983576661833e+01 -9.0461046917792117e+01 1.2715082528578422e+02 4.7328250439361000e+01 -2.9751708035498549e+01 -3.3767382626021617e+02 3.8681055165510912e+02 9.2062274268545877e+01 6.6510867524165761e+01 -2.4904022304392996e+01 5.7799431805434359e+01 2.1074574635256016e+02 -3.0713654371526360e+02 4.8776181568353998e+01 7.0575108473424180e+01 -1.9731254866681940e+02 -1.5646909102968198e+02 -1.3553874150301283e+02 1.1550304296376483e+02 -1.2098104451780088e+02 
      </Row>
      <Row Index="6">
        -8.9373074374226121e+02 1.1459851046466476e+03 8.3284684705844279e+02 1.5442044548884442e+04 3.4790621812258701e+03 2.6341817832650798e+02 1.4186564091918026e+04 4.2419161334049772e+02 7.1473233955765465e+01 -1.5850653736823883e+03 4.3159025578725505e+03 9.7233649691969595e+02 1.5237876030604028e+02 -1.0801530467396176e+03 -7.3185617474220874e+02 -1.9109402355566522e+03 -2.9958414687427644e+03 -2.9911514274134777e+02 -3.8383266941171423e+03 9.5255589125758931e+01 -1.0015886528574181e+02 -9.7051011020481383e+02 -5.8732781978440680e+03 -3.8719369691681584e+02 -7.6294337956990637e+02 -7.2041262734000657e+02 2.4406947367547733e+00 -3.1246736077864102e+03 -7.4583864759027638e+03 -1.0591708151536513e+02 -9.5157763481180984e+02 -1.1453744722852498e+03 4.6419710845232920e+01 -9.5312720796447229e+02 -7.2414070816997764e+03 -3.4796860233995039e+02 7.1583240829995157e+02 7.8785181665991308e+02 -3.5745789460774125e+02 -2.2345835914126965e+03 4.1998821261969251e+03 3.8437261165940644e+00 2.5468296770832499e+03 -6.3398502486767654e+02 -2.9363093066529768e+01 -1.0547094395221200e+03 -1.0813111076248309e+04 2.1719843532604827e+02 8.0760151126696576e+02 3.0012354569066702e+02 3.3388757221521450e+02 -3.4526916080654710e+03 1.6564991705999250e+03 1.0119048269831175e+02 -1.3422976349291461e+04 1.0295832987960890e+04 -1.3394951875143655e+00 -5.6879447789508799e+02 2.0198571661307760e+04 -7.3948330395810524e+02 -2.5207596031498051e+02 -2.0703672184623281e+02 1.3586999077238494e+02 2.4343628173847065e+01 4.9301948160243586e+02 3.5624334101287083e+01 2.2371987229161332e+03 -1.2034932818410864e+04 4.9090738954711277e+01 6.3802331505980637e+03 6.8769653452906789e+02 -2.3193775842469259e+02 2.8046063526530253e+02 -1.2440403755128119e+02 7.5566390928880054e+01 2.7428582680719101e+03 -4.4739341593393618e+02 8.7307794318745408e+01 2.4948422695220011e+03 4.3295752619685400e+03 1.1690252931417594e+02 6.1605821542910171e+03 -7.1100818303609312e+03 3.4764916981371854e+01 2.7090784787578451e+02 -7.8238481434570826e+02 -1.4665042671927392e+02 -2.0777445089290477e+03 -6.9260193620261282e+02 5.5682413495267390e+01 1.3117327191649381e+03 1.6198992435042671e+03 5.8849353391263890e+01 -3.4117973385989262e+02 -1.6222984326255901e+04 2.6266756869950922e+02 1.0919383596764465e+03 1.5719930012553752e+03 5.9488043501452228e+02 -1.8655230207612815e+03 8.4047026635665736e+02 -2.6475529708520816e+02 -3.8650989644620477e+03 1.0183358324281046e+02 -1.3844526507370207e+02 -2.1026479020701531e+03 -1.0190761616613487e+04 4.6819762437650451e+02 -1.4539227266002119e+04 
      </Row>
      <Row Index="7">
        4.6016867819774152e+03 6.3655750181504027e+02 -4.5921752522221941e+03 -5.3710553167378552e+04 1.1685893409295146e+05 3.4671638944613375e+02 4.2419169695929810e+02 7.9931782192468736e+05 -1.1590593470355664e+02 2.6948156435454171e+03 -1.7376883083409815e+04 1.2794467442789964e+03 -3.5431052723931721e+03 -1.0416010758073373e+03 3.9204391627500759e+03 2.9882463810956258e+04 -3.6846675892875392e+04 -4.0534635247198372e+02 -3.9137976690899353e+02 -9.5693749936568376e+04 -3.8251750771103168e+01 5.3656765769098365e+02 1.7041736985166866e+04 -8.9163920734671558e+02 -2.5236242818855731e+03 -1.3459540849820210e+03 1.1157363911807502e+03 3.3983448670400256e+04 -4.5847185546655346e+04 -1.0544606459100817e+02 -4.7042759089784558e+03 -8.7387740951484346e+04 1.5211049574752445e+02 3.3154676733945507e+02 7.4478372453315587e+03 -1.1976726073755494e+03 1.4701215655937574e+03 -2.2727814543493350e+03 1.3518235396395087e+03 8.4555767089278997e+03 -1.4504355477954268e+04 3.9580187675353933e+01 1.9201344220619385e+03 -7.6539205502352648e+04 -2.7064003186620795e+01 5.4539314391152993e+02 1.5072223520152343e+03 -5.1804051408842454e+01 -1.3709793989201185e+02 -2.5585065568799621e+02 -1.8061263757932852e+03 1.9423200773818444e+04 -2.3209002364379081e+04 7.9501491340890823e+01 2.8190242020785931e+03 -1.2266635943164643e+05 -3.9076569941995443e-01 4.5471486911510630e+02 -5.6760795215187636e+03 8.5360851514474996e+02 7.5771869683873064e+01 8.1916468068362303e+02 -4.3590055584140634e+02 -1.1971731643895515e+04 1.5570838393534959e+03 8.0934427157310296e+01 -1.9533269198964560e+03 -6.2241410817951430e+04 -2.4911126499339794e+01 -5.2892016594462311e+03 -2.3091350844916701e+02 6.4475320703466662e+02 3.5178439523275227e+02 -4.3712118377722213e+01 -1.3104461924552206e+02 -3.2825253670213847e+03 -7.1758326107635389e+02 1.3954876368943226e+02 -3.6888725531636322e+02 7.3385742065201470e+04 8.7243334447256345e+01 -9.9077039536219072e+03 2.0675677240022314e+03 2.5198211087868034e+02 4.7995763077208284e+02 3.5350205255748997e+03 3.9129767402392406e+02 7.8253162561985928e+03 -2.3325164101055225e+03 4.9452642942811970e+01 -3.8996403355695742e+02 -1.3177905516117619e+05 1.2620101162269594e+02 4.6797302234534418e+03 3.7419776752062535e+03 -2.1653763232640905e+01 7.4177776239391835e+02 -1.2368048667354162e+03 -2.1719791606925373e+03 -3.7175273565999036e+04 2.7186185974529094e+03 -3.4471148522956918e+02 -6.2184737991768145e+01 8.5719501749255316e+04 -2.5053407375114992e+02 4.9236772957896646e+04 8.1636469949542943e+03 -8.5696263872094937e+02 1.5120796720835715e+04 
      </Row>
      <Row Index="8">
        1.5948300956585021e+02 -7.2816997832033721e+01 1.2154136363329298e+01 -8.4404865872831840e+02 -2.2105354437317024e+02 1.3102481752563523e+02 7.1473233996999340e+01 -1.1590593185972818e+02 2.3476797572639433e+02 -2.3000599320800336e+02 -4.6865830531948916e+02 -2.9727678954821351e+02 -1.2110870027984249e+02 6.0096285052659262e+01 2.3395445731093922e+01 8.1498033461322655e+02 2.1922128551542821e+02 -1.8282166047129692e+02 -4.6847968974575004e+01 1.4722685625943063e+02 -1.8037688417959927e+02 -2.7601908574450408e+02 3.4521107028766824e+02 1.2428322849741333e+02 -1.3361915806326442e+02 5.1492985958490550e+01 1.1149640130244531e+01 2.1912569742014227e+02 -3.2447633933692714e+01 -1.7450531795667676e+01 -3.6266716422851793e+01 1.3587828831397383e+02 -6.1686949395847492e+01 -2.5865520148169355e+02 1.0223933081582172e+02 5.6137578509203131e+01 1.7215428380505820e+01 -4.9770851537332760e+01 3.8967900273168969e+00 7.9995911920268611e+01 -1.2789642058085435e+02 5.3049306416543933e+00 8.4881062333923168e+01 -3.8820442700406079e+02 -2.6896218430355381e+00 -2.5824711412294312e+02 -1.7890211243043584e+02 -6.1584300490860777e+01 4.0307754121434350e+01 -2.3141288253532416e+01 -2.5815870480243703e+01 8.6387064010785707e+01 1.7241902574311803e+02 3.6673293196484330e+01 -1.0995015965188743e+02 3.7619813252891629e+02 1.9345822396612245e+01 -2.6097768991010366e+02 1.9268044716182928e+02 2.9901723223519053e+01 -6.9793937802465308e+01 1.3148685679130253e+01 6.6291128125061674e+00 -2.7962911447036225e+02 1.9202406205470490e+00 2.7495727242193293e+01 -1.0452877977035273e+02 4.3392843533445290e+02 2.7519651320377104e+01 5.6007410746911262e+02 -1.5525939575231405e+02 -6.5865094913745486e+00 9.9157122141607033e+01 -4.6813340573757251e-01 5.8569042013227355e+00 5.5674193956608974e+01 4.1129367023450747e+01 8.2151549334141379e+01 -7.4663967814627867e+01 2.9476136031265025e+02 6.7718570468457060e+01 3.6554752147232690e+00 -1.4180960567109719e+02 -7.9578108586537981e+00 2.6226873021937209e+01 4.1745341083173223e+01 -3.4354473335224753e+01 -8.9948807751465594e+01 7.0445099422068694e+01 4.1760230113782661e+01 -5.9247696949071429e+00 1.1931313805862706e+01 2.3866327739772977e+01 3.3990907742512178e+02 3.3396175528489141e+02 1.3490244344608459e+02 1.6633956409958836e+02 -8.6019996310200071e+01 1.0564257581225872e+01 -1.7333585538042747e+01 6.3983185677415847e+01 -2.1058874354043979e+02 -2.1203739463780835e+01 5.0951807449587932e+01 -1.6934839494947616e+02 -1.6927430854336896e+02 4.6360759581450344e+02 4.1434255830559053e+01 5.2391373774539909e+02 
      </Row>
      <Row Index="9">
        -2.1191204145565075e+03 2.1116542109947034e+01 2.0120606050396239e+02 1.0997658052234903e+04 -8.8515157610305996e+03 3.8838493823984294e+01 -1.5850653655987824e+03 2.6948156552236119e+03 -2.3000599367531092e+02 9.7435250005788670e+05 -3.0259321846548573e+03 4.0898511093481233e+02 2.0516184746521531e+03 4.9591484253968184e+02 1.2015397382631090e+02 1.1723642564145019e+04 1.5217534244172541e+03 2.3625446466063988e+01 -7.1291238105644572e+02 2.2221182768891666e+02 1.5145579736328770e+02 -2.5660927103553178e+04 7.0609451392070264e+02 -3.0629918399539173e+02 -3.1149094409898140e+02 8.4114336275780360e+01 -4.3174216719938393e+01 -5.1589783055259868e+03 1.3018248362572604e+04 7.9549660302576166e+00 6.6202920937125418e+02 -4.2987724489476286e+03 -4.4540693274082273e+01 -2.5219552441348875e+04 2.7557323763982090e+03 1.0386254928152503e+02 2.3048679003263696e+03 -4.3126811102651169e+02 -1.9169253874622950e+02 3.7600550133274214e+03 3.9752307983540945e+03 -7.6182733310595196e+00 -8.5116853923940175e+02 -2.6891709177650523e+03 7.0576685414010090e+00 -2.5329382256818844e+04 5.4564583296299152e+03 -3.7459623556102440e+02 -4.4290917834080956e+03 1.4662965368222407e+01 6.2220293074715109e+01 -3.6630615884328045e+03 -1.2314261286212155e+04 -1.8859697038241364e+01 1.3154611924217618e+03 2.2747803693056890e+03 -1.8420716270689823e+01 -2.4961397040392691e+04 -1.6341517176665227e+03 -1.6047976390008046e+02 3.9093737961833344e+03 9.5454391502892364e+01 5.5419461455120981e+01 4.8081897053407092e+03 3.6319475256289638e+03 -2.6097836432828064e+01 -2.6627266932591476e+02 -5.9983496640543917e+03 8.9078289037830078e+00 2.8855093671819475e+04 4.3054179457687196e+03 1.2644917525531153e+02 -3.2617178278092788e+03 1.0814669452578988e+02 -3.2234512826602995e+01 -2.0313326759865174e+03 9.7127041358160136e+02 -6.6052618835323017e+01 -2.2143215651684363e+02 1.4752318557471994e+04 6.5196681454572136e-01 -1.8272474303036870e+04 -9.7514479593585202e+02 1.9633401573873786e+02 1.6442857171260223e+03 9.5460793726194467e+01 -1.9622001808144367e+02 8.8646127751784879e+03 2.7020734574893791e+03 -5.1097964519391965e+01 1.0982153256802444e+03 1.5250956086061140e+03 1.2798849665287743e+02 2.3585907549659722e+04 -6.7520790958238786e+03 2.8068613433917466e+02 -1.4129896246749056e+04 -8.0703384120303656e+02 1.2150644044401946e+02 2.1050423031125124e+03 9.0811161649400165e+03 1.2298372643056021e+02 3.7913485545595086e+02 -1.2582527916048444e+04 1.9113197878323493e+02 2.4822302612359053e+03 -2.3074440144673513e+03 -2.2455190147008369e+02 6.9200416538938134e+03 
      </Row>
      <Row Index="10">
        -1.2861451296123592e+04 3.0796015514527890e+03 9.3096861595349606e+02 8.1299069108093436e+03 3.1786405802117984e+04 1.0672425134494736e+02 4.3159025725018046e+03 -1.7376883322560305e+04 -4.6865830608367781e+02 -3.0259322056185538e+03 7.3797214557291722e+04 2.9500632183046793e+02 6.0517906198828141e+03 -1.8295686975985002e+03 -1.6088118352746026e+03 3.0762308045227945e+02 -2.5768161527432436e+04 -4.5309367378034926e+00 -4.3351698504582127e+03 3.5664705727359888e+03 2.2738601693999021e+02 -2.0734870195814515e+03 -1.9306641620253282e+04 3.5686095710279098e+01 6.0903685418116474e+03 -1.2650118786630726e+03 -1.0852244909553929e+02 -5.8112301937397633e+03 -2.4951322483907312e+04 -2.6307548165058822e+01 -3.4523343935923835e+03 -4.1831408749212005e+02 1.7275763176117624e+02 -1.9961709200839723e+03 -4.3271978274808971e+03 4.3767477569201787e+02 2.8048788793254016e+02 1.8857819175701711e+03 -5.0095345681239377e+02 -1.2376619787165962e+04 1.8477828155135787e+04 6.0580579964474438e+01 -7.1503220401444387e+03 9.0775775783348727e+03 -2.5468693801288705e+01 -1.6496224558512317e+03 -4.2022457238343641e+03 4.7382329702442649e+02 2.7059494213888701e+02 4.2330756476867924e+02 1.2476167337943373e+03 -1.9300561452797308e+03 -1.8379651201114584e+01 -2.1805687432511056e+02 1.6282824487174157e+04 -2.5383665051318378e+04 1.8013087589991844e+02 -1.1243262836214440e+03 -3.5793034180034985e+04 -1.5638054146339412e+03 -1.0663891833758530e+03 -3.3740196298488155e+02 3.3923063068187219e+01 6.5389992450929949e+03 3.7094286966459833e+02 4.5409547095244747e+01 -1.2972983993150632e+02 1.0113989476535055e+04 -1.1770307235333281e+02 -7.5797257973662963e+03 7.1363165111075114e+03 4.1481781903416174e+02 2.9555293543178624e+02 -4.0697941900538433e+02 9.6774610263565151e+01 -1.9155806270521691e+03 7.2847063582297608e+02 1.3169530171252784e+01 -4.2744632582188669e+03 -5.1510995572476013e+03 -8.5846470919107091e+01 -1.0540565803535272e+04 2.3138951174412055e+03 2.9257724356656848e+02 -2.4539543730818548e+02 -2.7135977484295659e+03 6.1370523247619292e+02 6.6002290193234639e+03 2.6519231497571286e+02 5.0414001080184157e+01 -4.9096342885101149e+03 1.6156596488676680e+03 -4.9932770672278423e+01 -9.7320126977356449e+02 -1.8741813885993284e+04 2.8696589273862099e+02 7.9117219763958121e+02 2.6980273701041601e+03 3.0197328750095170e+02 6.9962929373681873e+03 2.0806224801856883e+03 4.1856116317239170e+01 6.1198607442058728e+03 -2.3878251295916566e+03 -6.8653637022864089e+01 3.5549492817750621e+02 -3.6849331006856555e+04 -4.8170916682105258e+02 -3.3475137112978038e+04 
      </Row>
      <Row Index="11">
        -1.7141858449895062e+02 3.8503003146737882e+02 7.2050201398099389e+01 3.5338046574691798e+03 -1.2027907429716890e+03 -2.7414604482438585e+02 9.7233649788667140e+02 1.2794467199665564e+03 -2.9727678958582197e+02 4.0898510920295610e+02 2.9500631983181233e+02 1.5133648718566094e+03 1.7728971363894422e+02 -3.4528806029353547e+02 -4.3492967939598216e+01 -2.0328139629907951e+03 -9.4052146782736975e+02 3.5190292515220335e+02 -2.7144744242693491e+02 -4.3375630060256339e+02 2.2773041114757370e+02 5.3731984597701614e+02 3.9288672196110502e+02 -3.4569791069786390e+02 -1.8205762455977325e+02 -2.7855230612926880e+02 -7.2755146354898116e+01 -7.5386038369856044e+02 -5.3300640370403801e+02 6.6426435454557534e+01 3.0423602517483243e+01 -1.3042920653772433e+02 4.1367535016474299e+01 5.0680253734238732e+02 8.1707610954413792e+02 -2.4397761067854498e+02 8.1530785483410762e+02 2.8979749012554976e+02 8.4682793388458833e+01 1.5102024264400395e+03 3.1279607511594645e+03 -2.8644279850364697e+01 -6.5082462972275735e+01 -1.7147751174722339e+03 5.5047698623768895e+01 4.2368452037010235e+02 -1.0901500729119880e+03 -1.1327095792651043e+01 -5.0713501496023389e+02 4.8327225130707241e+01 1.0259575839243450e+01 9.7226735010001062e+02 -1.1415865033308360e+03 -6.5470903194885651e+01 -1.0289586531455045e+03 1.8173660298161740e+03 -3.0883964873681151e+01 4.8983631237938704e+02 5.5195117712199033e+02 6.5941803364569438e+01 2.7779308145695262e+02 -6.9666947829781904e+01 -6.0812719827900828e+01 9.3777715916966045e+01 6.4141036466754394e+02 -4.6961679009992473e+01 -5.7588265172385115e+02 4.5342774384047644e+01 -4.3479837445668217e+01 2.7911781953750242e+03 9.9644114564609242e+02 2.7859024199763365e+02 -2.0300538285296687e+02 -3.3138599420711216e+01 -2.0916576262676731e+01 1.8858775528160318e+03 -4.0469793780705658e+02 -1.2181644480397837e+02 1.2332092304002578e+02 2.1984692633364075e+03 -1.5011033072245408e+02 4.3992988423439110e+03 -5.8686614326414804e+02 1.9998219549158382e+01 1.6548856545884553e+02 -2.7751777529768117e+02 2.8044517418690433e+00 -1.1569105199687283e+03 -3.8530679621912930e+02 -7.1122021363203501e+01 3.5811752004022736e+02 2.2323207890570669e+02 -6.8758161330646587e+01 -5.3891523285954031e+02 -7.5493193572861344e+02 -1.0792036983215789e+03 -2.6032620165769100e+02 5.9864418559113426e+02 -1.2736611280622611e+02 -9.0856151030070225e+02 9.4340028250991520e+02 3.4474801959499297e+02 -4.3505838715490671e+02 6.3008806050944031e+02 1.3848971253067924e+02 -7.2077167717914176e+02 2.7606922926183336e+02 -5.6755451057310268e+02 6.1508306963012309e+01 
      </Row>
      <Row Index="12">
        -6.6906298583530815e+03 -5.5257014168982641e+02 -1.6155861135796607e+02 1.1671999775359511e+04 7.7315292532081121e+03 -1.0174160185518922e+02 1.5237875821628273e+02 -3.5431052301741884e+03 -1.2110870011335929e+02 2.0516184756485445e+03 6.0517906214308214e+03 1.7728971350649951e+02 1.7637401291683887e+04 1.2365541193080971e+03 4.9042087913376622e+02 -2.3351476532874560e+04 -1.7517855489714606e+04 1.0950669625633606e+02 1.3163764590711050e+03 4.1139672475039151e+03 2.3080619539298985e+02 3.4643414001909227e+03 -1.7652225503065889e+04 9.4468903648403557e+02 -8.9197873091686688e+03 2.1901029925210779e+02 -3.6751533228732950e+02 1.3447173127887530e+04 9.9682719573479135e+03 4.3900761371929896e+01 -1.3624106625877589e+03 -3.8944310973928560e+02 -8.3307200987464441e+01 1.8807202130589544e+03 7.9151867764577783e+03 -5.6211714697965874e+02 -8.5943601339610694e+01 -3.4723766407232154e+02 1.3983796846691030e+02 7.5580911454838051e+03 4.8481931032340990e+03 -1.5807817338286807e+00 -3.7651866777182198e+02 7.8443404046592002e+02 1.6405375217791221e+01 1.7726795425509235e+03 1.4448889173038231e+03 -1.2505895181012805e+02 -1.4837405387156975e+03 -3.6019283545680146e+01 -1.1633650455742895e+01 8.6335338597351547e+03 -5.8745151793560863e+03 -2.9917554972421271e+01 -6.1262597171628715e+02 5.6190154799591428e+03 2.4761932881359732e+00 2.0451058447860960e+03 1.4384888248621958e+03 -2.7095678937254007e+02 7.4026829914170980e+02 1.1755417401082592e+02 -4.1180209858639294e+01 9.7103350039316792e+03 4.1419886576350200e+02 -2.0004033541477689e+01 9.2230822430966342e+01 -4.5891559635139665e+03 -1.2337642842417040e+01 -2.2460938047103618e+03 1.7321996901105367e+03 1.3154962641244629e+02 -8.2214440157947297e+02 3.2206596806974886e+01 -1.0591965822890996e+01 -5.7596477709202572e+03 -4.2720742609969074e+02 -4.4163153164387651e+01 -6.4687404262433290e+01 5.8457100926820822e+03 -6.7081556522780332e+01 3.0995889809354417e+03 -1.8714637020897462e+02 4.0392195100501432e+01 4.7933325696497640e+01 -1.5360604526330181e+02 -4.4211924422622788e+00 -1.8082950014042385e+03 -9.9139769218055176e+02 -2.9279276029022963e+01 7.3881562852055436e+02 -1.5795383056460511e+02 -6.9473751603310745e+01 -1.5562313003092629e+02 5.9210550403793070e+02 -2.7314724206475887e+02 -1.3835445514889468e+03 -1.1207171406823747e+03 -1.8990011808932195e+02 -1.8767639513773133e+03 -2.9803093097984220e+01 1.3058107178171818e+02 -4.5530521840720930e+01 1.7119446537802125e+03 2.9162806761203584e+01 -6.6186913040864567e+02 6.1891988959245896e+02 -2.2425836154933344e+02 3.1964090456763419e+01 
      </Row>
      <Row Index="13">
        -7.8483760081849732e+02 -2.4678258478873236e+03 -6.3753900377762761e+02 1.1778848109886762e+03 1.4031158408612155e+03 -3.7690548040336850e+01 -1.0801530572176803e+03 -1.0416009003221700e+03 6.0096285590677162e+01 4.9591485429363507e+02 -1.8295686962819959e+03 -3.4528806107580897e+02 1.2365541196765475e+03 2.9698816248326916e+03 6.3663175015803142e+02 6.2066082678888256e+02 -2.7101415864835712e+03 3.7038970309733465e+01 1.0759070534143941e+03 -7.2801567219436868e+02 -5.7586878788255142e+01 4.1554575746150135e+02 -4.0398627007626011e+01 3.6556103773780535e+02 5.2607887494885767e+02 2.1877133923813999e+03 6.3958490844064397e+02 1.4132866124692525e+03 3.1296711916419840e+03 3.6821860193341628e+01 9.9082185853511817e+02 -6.4579883663356813e+03 -5.4555633244663589e+01 4.5955805230941871e+02 1.9025339602256179e+02 3.5694952944469856e+02 -2.2066783361846981e+02 -2.1638458246950859e+03 -7.2507783605277939e+02 1.7363958474871451e+03 7.8333416340249175e+02 -1.5765447913967094e+01 -2.7504140169881509e+02 -6.3334812994489437e+02 1.9734445386816819e+01 4.4465063223932549e+02 1.3911788666876146e+02 -3.1768236445132512e+01 -5.8711868604703159e+02 -7.2907127655861450e+02 -1.4538677819693893e+02 5.3658260049805567e+03 -2.3428938371974496e+03 -2.7377459082583083e+01 -4.5218026317786882e+02 6.6122992116941277e+03 4.4137390761421791e+01 4.4565030529594901e+02 -5.6263789965273725e+02 -2.8107046624263666e+02 3.7427809190390619e+01 5.6507315331085636e+02 2.0196883349647257e+02 6.6518769750805595e+03 -5.9403357040747107e+02 -1.3878646296355490e+00 2.8458202644570076e+02 2.4987802274172673e+03 1.2862782934831194e+00 -3.5028167883833439e+03 3.4854062598677967e+02 -5.9186210122330841e+01 -1.3099115640058707e+02 2.0136079785016196e+02 8.3266235687019275e+01 -4.4153700747387684e+03 4.6268677449601640e+01 2.0944258057049354e+00 -4.0512934534156273e+01 -3.3864143776388664e+03 -4.8046451368003371e+00 -3.1344063011165404e+03 5.2231800619026700e+01 -3.0012347998756674e+01 -8.0348628622828087e+01 1.2548707492237083e+03 1.1010964971693085e+02 4.2227503969414840e+02 -3.3027084188654112e+02 6.3312385301902845e+00 -3.3731735879776193e+02 -5.4634555437272702e+03 -1.3066779532972749e+01 -3.0919308834688906e+02 1.3613356212152526e+03 -7.7093081163697406e+01 -1.5204948681259452e+02 -4.3229569745266490e+03 4.3512858109374844e+02 -1.5031165741745854e+03 -1.1756816138835677e+03 3.1185025433226138e-01 1.5357023610499095e+02 3.6108119131756785e+03 -1.4279269251738240e+01 2.1537361696642602e+03 -7.8604000070719155e+02 9.7063074080944958e+01 1.2432256979637204e+03 
      </Row>
      <Row Index="14">
        -1.6794445973128813e+02 -7.4105592235772406e+02 -4.3509408307254313e+02 1.8242691973293577e+03 -9.2110507041523153e+00 -2.1778432342606330e+01 -7.3185617971021748e+02 3.9204392155682976e+03 2.3395445950855812e+01 1.2015397768684088e+02 -1.6088118378229251e+03 -4.3492968557176297e+01 4.9042087957989008e+02 6.3663175244363970e+02 7.3585420201550926e+02 -3.3075948635530217e+03 -1.4808873144314748e+03 1.9325911095201629e+01 5.9739826926223691e+02 -3.9279293952074619e+02 -3.7229240757340269e+00 1.9328321695266840e+02 4.6826603885767412e+02 1.7101195808284459e+02 -4.2388720312252445e+02 5.6694141567105169e+02 1.4264932064792276e+02 -1.0762024974863109e+03 1.1538067665884676e+03 6.5427789592332370e+00 -1.5450098921689869e+02 1.3079670058554539e+03 -1.0351606283966047e+01 1.6858413720520960e+02 7.5472049313846207e+02 -1.0716138027395603e+02 4.2837838736522016e+01 -6.7747628069104985e+02 -3.7973373133547391e+01 5.0176894610498266e+03 -1.5795546073836763e+02 7.5777080772854988e-01 5.7967872520660046e+02 -2.9633298791402412e+03 1.2682659675282173e+00 9.7943215626938212e+01 1.2859539935602285e+02 5.0666706160981825e+01 6.5412984386039909e+01 -1.8091511411244065e+02 -1.8216307826928687e+02 2.6509704054454824e+03 5.2519404307572677e+02 -8.4673878437704140e+00 -4.3137422956255824e+02 2.2561527240328355e+03 6.9270364085713449e+00 1.0327177936758186e+02 1.9605821070779868e+02 1.1196954589489749e-01 7.3271164165923715e+00 1.9493604774943091e+02 1.3881361597952573e+01 -6.6300763035202408e+01 -1.4843941842754115e+01 2.0460968166832938e+00 -7.0811009903546989e+01 6.5493319734960676e+02 -4.9986552079030311e+00 -2.0456431719804914e+02 7.4064989647501363e+01 5.5434546902662959e+01 1.1327209410670925e+01 6.2498411634871751e+01 -8.1798837044457731e+00 -1.9399799429255831e+03 4.8142315791101318e+01 1.1016391106089931e+00 7.7987110357498295e+01 2.2013576524210512e+03 -3.8425728479433623e+00 -6.2818225540198199e+01 -1.3555971230382431e+02 6.9773610451362345e+00 1.8952251849738623e+01 5.6961928494918004e+02 -1.7333182793606224e+02 -1.1538757061488764e+03 4.8168221813891527e+01 2.9381562088470083e+00 1.3905062599919691e+02 2.7155584708760540e+02 -1.8511342043978445e+01 -3.6495629580155068e+01 -5.9381395041360442e+01 -7.5145146172277308e+01 -3.6354931660182137e+00 -1.0749913417631101e+03 -1.4632212593724671e+02 -9.4192692469386373e+02 -5.5786641128090871e+01 2.6999051207013860e+00 -1.9881624644975281e+02 4.8011912644187112e+02 -6.1603358891132771e+00 -6.8362528917044835e+02 1.5758138546197563e+02 -9.4048443903807609e+01 7.4468932448520457e+02 
      </Row>
      <Row Index="15">
        9.7634825732866648e+03 4.2033208932700808e+02 2.0430157182014950e+03 -9.4544526250894938e+04 -3.7864037791434355e+04 9.2521407719017884e+02 -1.9109401944083197e+03 2.9882463847335770e+04 8.1498033297121412e+02 1.1723642573401510e+04 3.0762319707102131e+02 -2.0328139492941461e+03 -2.3351476578802871e+04 6.2066069046498478e+02 -3.3075948973487039e+03 6.8234400630038546e+05 6.6277028452005732e+04 -7.5773213811408220e+02 1.1307527216694312e+04 -1.6875760631934540e+04 -1.1934806870254524e+03 1.8075362704262338e+04 8.2016050175071905e+03 3.3155799990594305e+03 1.5310638636507036e+04 1.7517773639873137e+03 8.9671464868326234e+02 -9.4991263438252456e+04 -1.8214286614477776e+04 -4.2621739260744653e+02 -1.9142090060750124e+03 3.2360467535315147e+04 3.7330417860341839e+02 1.2004820684560727e+04 -6.2110649238377009e+03 -3.5606995468438657e+02 1.4843809822540322e+03 -7.4872590127815897e+02 -8.1043695538281042e+02 -1.2087891658820026e+04 -1.7920456119513285e+04 -2.6342729326059281e+01 -2.9410755850049309e+03 6.7775846166709016e+04 9.4905996883520430e+01 8.4603107810040547e+03 -7.6588179702030347e+03 -1.0296793176247079e+03 -2.7296327155451218e+03 1.5017312527145284e+03 1.1754970177334342e+03 1.4530494586894098e+04 8.5613990860209251e+03 1.4782822698553088e+02 -5.8525604508571314e+03 2.3762715034293371e+04 1.5027843019266243e+02 8.5578820578189061e+03 4.3484180792870166e+03 -1.2048519177045764e+03 6.7916525909659254e+02 1.4307180439921949e+03 4.8009418057835887e+02 7.1188415197869268e+04 1.7909601777434670e+01 9.9725361003692029e+01 2.9541671533003620e+02 5.4514447178360660e+03 1.5808294335319354e+02 1.1811241277842637e+03 3.0914626494016233e+02 2.5850701353136898e+01 -1.0925844232274508e+03 -4.5568036877853007e+02 9.4019828184179715e+01 -4.1363712619302176e+04 -1.1333489783212458e+02 3.1408733981936933e+02 9.2634172525331417e+02 -1.5745248225791152e+04 3.3280856726113404e+02 5.7621485958805097e+03 -1.5802625345402678e+03 3.4513351958148775e+02 -5.7762479306924917e+00 -2.0001822960744094e+03 -1.7808699268315877e+02 -1.6571607677042732e+05 6.7661514263303661e+02 1.9006470703742832e+02 1.1688790988551407e+03 -1.7731714771514442e+04 -4.8639824777522044e+01 5.5073194920588467e+03 -3.7553041583969912e+03 1.0484343147966897e+03 -2.0065051400005016e+03 -6.1254980634193325e+03 1.2895597927177196e+03 -1.4629504407813089e+05 -6.5561506769409175e+02 -9.0275457276618101e+02 -1.0627331662184642e+03 8.7008989360093008e+04 -6.2598054793688118e+02 -6.3975472079234663e+04 -5.0364596278339159e+03 2.2542563894806992e+02 -8.2765450205097095e+03 
      </Row>
      <Row Index="16">
        8.4506423804504302e+03 9.1071064766324628e+02 -1.8765839644969012e+02 -7.0216724323203365e+04 -1.5627806674461704e+05 4.4170173705437605e+02 -2.9958414866182443e+03 -3.6846675932376085e+04 2.1922128502861290e+02 1.5217534405326185e+03 -2.5768161557845920e+04 -9.4052147461614879e+02 -1.7517855478189962e+04 -2.7101415578125207e+03 -1.4808873080198518e+03 6.6277028178567896e+04 3.9243783585326490e+05 -3.2561512623395237e+02 5.6939711856663398e+03 9.1535580948973569e+04 -3.8043674166613056e+02 -1.9549708784300137e+03 3.2561975261909367e+04 -2.7361731478610932e+02 7.6260025920415192e+03 7.2100201092410873e+02 3.9509985600633593e+02 -5.4957791710532118e+04 -1.4381874007076345e+05 -2.8898273511979340e+02 -2.2943886401542109e+03 -3.9366154137827638e+04 -2.1054194001868105e+01 1.2293663361031540e+03 -1.8380100641930629e+04 4.8355241811662938e+02 1.8459315860905433e+03 4.7782749272497534e+02 3.7372570955245507e+01 -2.7989255637536866e+04 -5.7188975400160452e+04 3.6085448405630025e+01 -1.7934413810045901e+03 -5.5220998735662499e+04 1.9868625499093675e+01 4.9600362687205904e+02 4.9494277972576665e+03 -5.9528581379518656e+01 -2.4685469904314342e+01 6.3609936638898166e+00 -2.6026730147931136e+02 -2.8912238655720881e+04 -3.5252109708602948e+04 8.4141519544305098e+01 3.0421818061013419e+03 -2.3726635105357345e+04 8.8365933414739928e+01 5.7472995692405368e+02 6.5310550251950247e+02 1.5031893619673932e+02 5.9751720820249602e+02 -5.9334145928259272e+02 -7.1675506564292277e+00 -1.0738223180003444e+04 -1.4408706458534307e+03 4.2225571454708991e+01 3.3974457554308697e+02 -1.0911135528771692e+04 5.2273502338916188e+01 7.1195115223850589e+03 -2.4706591939081372e+03 -4.2506818650575133e+02 -6.7234451803918091e+02 3.2474264216891703e+02 1.1036488991293734e+02 1.1780751247774269e+04 -5.7777443316859706e+02 1.8696683519955616e+02 -9.6893807168208696e+02 3.7059411012189607e+03 9.6702951859087321e+01 1.1055855726756243e+04 4.2365101780537952e+03 -5.0968887842366080e+01 -1.7782904089137907e+02 4.4526069212286473e+02 1.2786224352940997e+03 2.8606308482719072e+04 -2.0035641602200351e+03 7.4149168757765224e+01 -1.6678357332897554e+03 2.0282520667396391e+04 1.7441214188133975e+02 -4.7006107744650326e+03 8.2868606677240168e+03 6.8110020620693274e+02 -1.4564191692505985e+03 1.5851900563090205e+03 2.7402510303106033e+02 3.1537941155880799e+04 -2.4272540161972129e+03 -4.4697154934211090e+02 1.4502969457841991e+03 -2.9554463761856168e+04 -3.8074286380755296e+02 8.1835372955411340e+03 9.0864702963155778e+03 7.6530547756511669e+02 1.0083777638102927e+04 
      </Row>
      <Row Index="17">
        -1.2394941206191753e+01 -3.9008587990388975e+01 2.6615309195018721e+01 1.7422841078700748e+02 3.9909820765675676e+02 -3.6470835149028193e+02 -2.9911514347089172e+02 -4.0534634410197748e+02 -1.8282166042968913e+02 2.3625446496610405e+01 -4.5309388400247954e+00 3.5190292506206879e+02 1.0950669672484175e+02 3.7038971470560774e+01 1.9325911390323327e+01 -7.5773212776761955e+02 -3.2561513027131787e+02 4.2417711669961312e+02 1.3371008632706946e+02 -3.4295293208680597e+01 1.3255886815798195e+02 4.5720351862561671e+01 -2.9833174321487951e+02 -3.7346735857563374e+01 8.2267089621315392e+01 4.0763176487374892e+01 2.4468956764223016e+01 -6.9231000388475445e+02 5.8900150351897686e+01 6.5179788092442024e+01 1.0993528294560032e+02 -1.6044378089474276e+02 4.4260538703350790e+01 4.1316839587134524e+01 -1.2346379669007911e+02 -5.6282946243187496e+01 -5.0102198678507754e+01 -5.5119968141843536e+01 -4.3903491059472891e+01 1.6510860029102682e+03 -1.4028684034169265e+02 -1.9084857426417127e+01 -5.0241906185152892e+01 1.1437668925557223e+02 2.2522744506009140e+01 -6.5464076557920876e+00 3.1791212503975032e+02 9.7157232512761865e+01 -9.8558074139626726e+01 -7.6655832051396833e-01 2.6398518724538242e+01 -9.1920308915787643e+02 7.1779011203801460e+01 -5.8928423475887783e+01 1.2720990544298722e+01 -2.7177822988303344e+00 -3.4262413413466433e+01 5.0004724377005140e+01 -1.3252016623748929e+02 5.4542949607759873e+01 6.1650145946380036e+01 1.0452281068031978e+01 1.0803901270559635e+01 -6.3059366011957053e+01 -8.0213203529633688e+01 -4.5702140660000765e+01 1.1865955803661468e+01 7.5300145154147503e+02 -3.9912461781130034e+01 7.8387971000346923e+01 -3.6258197738540602e+01 1.9291566006876579e+01 -6.7925491658608536e+01 2.2889204053644704e+01 -1.3686488800976235e+01 -4.0315958191958185e+02 3.0976291538772038e+00 -1.2347214196979577e+02 8.1267935165390483e+01 4.2406786717948711e+02 -1.2081548065306606e+02 1.5660988450907243e+02 7.4786295944130870e+01 -4.6236808429259462e+01 -2.6928908328457684e+01 5.8972788949200996e+01 -5.6509791788097587e+01 1.4064244416752672e+02 -3.8756604490092336e+01 -6.6242383237335375e+01 1.2655990876669865e+02 -9.1849744794347515e+01 -4.8702239725731403e+01 -8.1961369871441121e+01 2.9818224566829508e+02 -4.1248116241977988e+02 -1.4954489854891253e+02 -7.0146756872207121e+01 1.8629890850265436e+01 7.3971404403888696e+00 -2.1120126725552345e+02 3.3387578548850223e+02 -2.7785690602038073e+01 -1.2381841162607739e+02 2.1469967963233731e+02 2.0324725404880203e+02 4.0588193198057510e+01 -1.2453762218252392e+02 3.3297363208177217e+01 
      </Row>
      <Row Index="18">
        3.8040662480368219e+01 -1.3937729388692580e+03 -7.8352153443001578e+02 -2.4865682342443406e+03 -2.8569920209357665e+03 -1.1683632392460184e+02 -3.8383267011317239e+03 -3.9137966760189488e+02 -4.6847968740797199e+01 -7.1291237302038633e+02 -4.3351698483862847e+03 -2.7144744282767584e+02 1.3163764593968842e+03 1.0759070528084658e+03 5.9739826759908362e+02 1.1307527277917028e+04 5.6939711732994538e+03 1.3371008584568463e+02 9.6709641665073777e+03 5.2338432443441729e+02 -7.1236497299126270e+01 -1.2013060050780650e+03 9.0667135034653147e+03 1.7969265868876578e+03 -1.7565362125465842e+03 1.3175906426067536e+03 -8.8425532807607212e+01 -6.1404002747984678e+03 -1.9238569797302241e+03 3.0341668200027581e+01 -2.6944332400009989e+03 -5.2842363485100586e+03 2.8403999190870810e+01 -6.4758523751655014e+02 -5.7357993527651638e+02 -7.2074936738549491e+02 2.9949139586658205e+01 -9.7990089432722255e+02 1.7327401923763844e+02 -1.0299537327601889e+04 -1.9320965249287337e+03 -1.5648418539765125e+01 -2.9870474993845215e+02 -1.2737417358902012e+03 2.9667012541184025e+01 -6.3776496100927613e+02 -9.1940747526202404e+02 -2.5890518787503697e+02 3.5638346500337320e+02 -6.6114959037950928e+02 -4.1084278985278485e+02 -1.1349268875564064e+03 1.1501474014771916e+03 -2.3744748459416595e+01 -1.2088395797947071e+03 -3.7640547552484772e+03 -1.1538199172325868e+01 -4.6407568784214408e+02 -1.9094415732192401e+03 8.7922137338681182e+01 -2.2668159900830196e+02 2.1756970067576660e+02 -1.1019895055787778e+02 -3.4747012521198626e+03 5.8402400160247822e+01 -1.4875749666066943e+01 -5.0196632995495941e+02 7.8071880190589391e+03 -1.6668833209270318e+01 8.8628240520852398e+02 -1.8247997531828148e+02 1.6114369466620741e+02 1.7421691550185574e+02 1.0965448454519759e+02 -2.6107887283315922e+01 3.7864741278942847e+03 -4.4564178049171227e+02 -4.2569730278643114e+01 -1.2411308239469633e+02 -4.3246782121528286e+03 -3.0314512852936808e+01 8.8558508073953618e+01 -5.0073990286665543e+02 -1.8979207915923244e+01 1.2848072078840726e+01 1.1358895740728083e+03 5.9639119834091900e+02 9.1997147324637535e+02 -1.0413719337203283e+01 -1.5593296002164134e+01 -1.6393953192969432e+03 -2.1108224927721990e+03 5.2801965605130476e+01 -1.5189265148400511e+02 -3.4011267073931749e+03 -6.1626481561770402e+02 7.0720399651548678e+02 -2.0339067507106099e+03 -4.4074390726015457e+02 2.3888280215719900e+02 4.3570689564528112e+02 1.1057709627311826e+02 -2.4650451183502662e+02 8.8532358165172161e+02 9.8664695083952708e+01 9.6901268252356738e+02 -3.2733514787900740e+03 -2.6345586964069133e+02 -2.3285685766029772e+02 
      </Row>
      <Row Index="19">
        -2.6183492697232164e+03 2.7648990215357622e+02 2.0790470760775838e+03 3.0055046649450225e+04 -1.8550661387746812e+04 -2.5219177210673937e+01 9.5255668763433164e+01 -9.5693749871121341e+04 1.4722685323485837e+02 2.2221182382160035e+02 3.5664707727866053e+03 -4.3375627955915661e+02 4.1139672065281884e+03 -7.2801583860631285e+02 -3.9279298840080634e+02 -1.6875760522288332e+04 9.1535581035802170e+04 -3.4295301241202694e+01 5.2338423144507988e+02 8.3678024353975058e+05 -1.4400933037120640e+02 1.5329547259770500e+03 -9.4228016023562177e+03 1.0472078333511513e+02 1.5374881987643386e+02 -5.1420446595157482e+03 1.4045915884563419e+03 5.3864772155231156e+04 -4.4864307340972846e+04 2.5057199627407996e+01 -6.7905499126572140e+03 -6.8882255264717969e+04 2.6188818773040379e+02 -4.5589952847717939e+02 -6.0326441158393254e+03 -8.7415856815750283e+02 -2.5980885936312475e+03 1.0973230162944354e+02 -7.2074719247520932e+02 3.2958179773921613e+04 -2.1201254773778561e+04 2.8583124760368406e+01 5.4563507128898846e+03 -7.7760050250360204e+04 -9.6025953549468994e+01 -1.8571037216759203e+02 4.2361050374437618e+03 5.8737446920446325e+02 6.5296969073061587e+02 2.3111123756296129e+03 6.4953065294831254e+02 -6.8128617242264691e+03 -7.2390074518178271e+03 1.3277596253245703e+01 -2.7908905212867685e+03 -1.2961180513276353e+05 -2.0327376558842836e+01 6.3556373343568976e+02 6.6975963105906221e+03 2.4523653599339477e+02 7.4374768816309071e+01 4.7847419312527165e+02 4.3514803610574842e+02 -2.7862594331379300e+03 -9.9801336689046229e+02 -4.6745263030292250e+00 5.3168532775252822e+02 -7.3611607049123486e+04 4.5102542076851314e+01 -7.2329380633293031e+03 -2.2950520350633037e+03 5.0877024081396492e+01 1.4461180250303052e+01 -3.7065400836270004e+02 2.9741506163634028e+01 -1.5981330071291390e+04 1.7972250026486881e+03 -1.2457607890533621e+01 1.8082420688971913e+03 7.4808268563786740e+04 5.5281670760869062e+01 -9.5298859582529567e+03 -1.6601294638414115e+02 6.3122365653625153e+01 -3.1501607023911936e+02 2.5358316976378842e+03 -2.9190021961061266e+03 -7.4966177074053576e+03 -1.4017826570712376e+02 1.3077144757280275e+00 2.8695058123451590e+03 -1.2804243262315998e+05 -1.5907209255188047e+02 3.6141725418160459e+03 -7.7731446280908108e+02 3.5586516669019431e+02 -1.0175458507469506e+03 2.9198114517558938e+03 8.9451720013579245e+02 -5.2641498061948529e+04 -2.6355715556406344e+03 -5.7711035083616107e+00 -1.8586538636716261e+03 8.9989103313923319e+04 1.0945623260059327e+02 4.2180651641761608e+04 1.6768106862441682e+03 -6.5020289034726574e+01 -2.0004074092020207e+03 
      </Row>
      <Row Index="20">
        -7.5256329261770546e+01 8.0254879196559983e+01 2.7906739479263727e+01 3.4687505891570680e+02 2.2959476258911536e+02 -1.4875906719804300e+02 -1.0015886526747796e+02 -3.8251754051608188e+01 -1.8037688417763729e+02 1.5145579686757398e+02 2.2738601589409006e+02 2.2773041111549338e+02 2.3080619557386578e+02 -5.7586878201251878e+01 -3.7229238213182949e+00 -1.1934806879373325e+03 -3.8043674209246961e+02 1.3255886819485596e+02 -7.1236497039549306e+01 -1.4400933361869562e+02 2.1393143570143130e+02 1.9734810836645656e+02 -5.0843098810486674e+02 -1.9815043647403357e+02 1.6666821326122840e+01 -5.9611330792406818e+01 3.7516615104920870e-01 4.1085397753681679e+02 1.9497577135048812e+02 6.6271037865827907e+01 8.0977624115598601e+01 1.5887270926129665e+02 4.3211236606445068e-02 1.5057673481241869e+02 3.2118455053748932e+01 3.4757651765790449e+01 -4.4187903176032393e+01 4.3559804982497305e+01 -1.4469550805982214e+01 8.7153240710666262e+02 1.7005810816807795e+01 -3.4820321235406809e-01 1.2605283348534640e-01 1.1438296659898629e+02 -2.7230945820138590e+00 1.3968385765181196e+02 2.1146888675251040e+02 6.0215560345976328e+01 -9.8712513196967819e+01 3.7088161717101066e+01 3.1717670097346247e+01 2.3757099897685765e+02 -5.5714960812325188e+01 -2.5946634515997722e+01 5.6159600821731985e+01 -1.4667116465116783e+02 -2.8372115353603419e+01 1.5560105226858374e+02 -4.0478648637588286e+01 6.6633024110029746e+00 6.1754066214840584e+01 -7.8190438453839803e+00 3.4377382068751356e+00 4.6460861837172223e+02 -1.3372750065563737e+01 -2.5808270542814871e+01 5.0993403833008472e+01 -2.3155254257000485e+02 -2.5500109619064485e+01 1.9568293459540462e+02 5.8023421425059347e+01 1.0077657876886196e+01 -8.1863417765346810e+01 -2.3526726672770573e+00 -4.0309834490988301e+00 -4.2608070263003344e+02 -2.1591313430333603e+01 -7.5592060156272197e+01 8.1950357061189365e+01 -4.3317543968507755e+02 -6.3897376682660266e+01 4.9624397499116128e+02 1.1703666378937594e+02 7.4922449126132031e+00 -2.1619481435474857e+01 -5.5333650192557350e+01 -4.0504999116383473e+01 -4.7265605702695709e+01 -4.3997128657645632e+01 -3.6771327817440245e+01 8.3980081538807880e+01 -8.2854120928720874e+01 -3.3476382586235189e+01 -1.0323842518087679e+02 -5.8042129895384790e+01 -1.1732779594999032e+02 -1.4533711417373019e+02 8.1973851621757589e+01 1.4025209647255409e+01 -1.0011078810426650e+02 -9.0544114507189931e+01 1.9459601902490647e+02 -1.6869476306794567e+01 4.5417630422483533e+01 1.5446918450151776e+02 8.8251648300265927e+01 -1.6937172963651543e+02 -4.8828793833295940e+01 -3.4064983348036060e+02 
      </Row>
      <Row Index="21">
        -3.6973635867445605e+03 1.6577433104097970e+01 8.1451074468252045e+01 1.7949330360166891e+03 -5.5747737001313280e+03 1.1059544688044451e+01 -9.7051010267192487e+02 5.3656766577972360e+02 -2.7601908617577715e+02 -2.5660927103648733e+04 -2.0734870004829468e+03 5.3731984768469999e+02 3.4643413987118347e+03 4.1554574615131554e+02 1.9328321325481906e+02 1.8075362696143620e+04 -1.9549708963315372e+03 4.5720351868697456e+01 -1.2013060129339920e+03 1.5329547265671833e+03 1.9734810884592136e+02 9.7384888343814132e+05 4.3540451555104383e+01 -4.1468857740700963e+02 -6.4202038420122585e+02 6.8749390693211581e+00 -7.8943420109060440e+01 -4.9034406401567776e+03 1.2476207326770393e+04 1.8437227868738361e+01 7.8849133718242877e+02 -4.7833146252973238e+03 -4.6844245348357767e+01 -2.5518572830429628e+04 3.0712182899799886e+03 1.0149287416282442e+02 2.3592462770986522e+03 -3.4516273405175559e+02 -1.3081351835655431e+02 3.5243549921507538e+03 4.4642914920504682e+03 -5.8727763458156925e+00 -9.0908073011657655e+02 -3.0631518634779773e+03 2.5423850539518900e+00 -2.5636062053040347e+04 4.9681105247125424e+03 -3.5871390211176220e+02 -4.0505676201514862e+03 -1.4669696955687609e+01 3.0326604110865546e+01 -5.0258380619466097e+03 -1.2056017873076958e+04 -2.2837421033942832e+01 1.2116318217446380e+03 1.8904815769608899e+03 -2.3824673012493168e+01 -2.5241073166849143e+04 -1.6419350995239947e+03 -1.1871676028161124e+02 3.7747188518467565e+03 5.0093850803043232e+01 3.0846893158870117e+01 2.8318574171972064e+03 3.6308301860795777e+03 -2.7622315887031260e+01 -2.9393473166229978e+02 -5.7566639553055293e+03 2.1487016915982258e+00 2.9503397984431991e+04 4.2718069838883675e+03 1.2158125142221624e+02 -3.1066040248650384e+03 1.0065291529088269e+02 -3.9284125403596420e+01 -2.5300376266068434e+02 9.9884176425769306e+02 -7.5681947551401208e+01 -2.4305014628316712e+02 1.4798717957318613e+04 -7.5450216587870065e+00 -1.8766315301261868e+04 -1.1020537334039598e+03 1.7580208356682007e+02 1.6697830971311428e+03 1.0868840726721658e+02 -1.4181159001741571e+02 9.3134907971012381e+03 2.7690099586742117e+03 -5.5675114866492692e+01 1.0090143472874718e+03 2.1240818021514083e+03 1.3502691729451686e+02 2.4353749398415472e+04 -6.4100026261484054e+03 2.2524642377589342e+02 -1.3845614030261209e+04 -5.4312406899535711e+02 6.2714989705933093e+01 2.9276443296369721e+03 9.2523733176713577e+03 1.5048900197418280e+02 3.5670949492811701e+02 -1.3370059909792108e+04 2.1807417601581452e+02 2.5111100989872712e+03 -1.7876925329724593e+03 -2.2497223646537481e+02 7.6611848389311135e+03 
      </Row>
      <Row Index="22">
        6.2575449517647548e+03 -3.9017478209607492e+02 -1.4529249201149548e+03 3.3415139797305810e+03 -2.2885662745475387e+04 3.0639154221497944e+02 -5.8732782045210179e+03 1.7041737000040994e+04 3.4521107030886981e+02 7.0609452169993926e+02 -1.9306641621057897e+04 3.9288672134883632e+02 -1.7652225504718295e+04 -4.0398628778187025e+01 4.6826603771593875e+02 8.2016049804156355e+03 3.2561975307391222e+04 -2.9833174336090582e+02 9.0667135044691913e+03 -9.4228015868214898e+03 -5.0843098822800846e+02 4.3540458920451783e+01 5.4412517524274226e+04 -8.8606025582545362e+02 6.7192152593454084e+03 8.6187682120840964e+02 -8.5609731801448575e+01 -1.3172689243101997e+04 -1.6833032634121319e+04 -4.7176376012631032e+01 -5.3339973732592034e+02 -4.1266655434551485e+03 2.1616768926782623e+01 1.2189216048630128e+03 -8.1799459195206291e+03 3.7244664797683487e+02 2.7389344488336296e+03 -1.5754143213884919e+02 1.3873621661583843e+03 -3.7267949729842053e+03 1.0481159347547441e+03 2.7222216670755639e+00 -1.5116013991697516e+03 -6.9615895024651161e+02 3.7493164079562602e+00 1.3487409244382479e+03 -8.0057716360461027e+03 -6.7143258834782466e+02 1.6169280934530418e+03 -1.0643851571530852e+03 -9.2074247705356618e+02 8.9305201441579393e+03 4.0506357725685721e+03 4.9259489343930312e+01 -8.0110848050541460e+02 -1.5129562429064048e+04 -2.1557557510544338e+00 1.5752990500460883e+03 -1.0449666788468061e+04 7.6085461938588298e+02 -1.6963799499476636e+01 3.7359078610812425e+01 -4.5340902875794364e+02 -1.2896922896565489e+04 3.1633661968589740e+03 3.1038429216213363e+01 -2.0847134486134000e+03 1.3219599502880917e+04 6.4730517978121497e+01 -8.8925441602956635e+03 1.0112630229928602e+03 3.3453972808152309e+02 8.2724753401545502e+02 -1.3824200956926271e+02 -2.1743914191338172e+02 8.7406574938875856e+03 -9.1104519121951489e+02 1.1471915725211896e+02 -8.1087471058180529e+02 -8.0961375102466109e+03 1.4520808090462194e+02 -6.0625101417529859e+03 -4.1448018674046416e+03 6.5448920531519676e+01 9.0842745934027403e+02 1.6583944364877496e+02 6.6154856641066385e+02 -4.4427918981515886e+03 6.7320611143557517e+02 1.1293408667830102e+01 -8.1844335769681186e+02 -2.1243752138131081e+03 1.9996665888202753e+02 -2.8565112539566026e+03 -1.2506008117040034e+04 2.7398443358247690e+01 1.8481754137824864e+03 -8.3554244179487512e+01 -1.5434223920056629e+03 -3.0674704067007733e+03 5.3352594344290428e+03 -3.3210401505653437e+02 -3.9713781197202785e+01 5.5373038452941064e+03 -1.6549094622739673e+02 -2.5107546600422943e+03 -1.0798482302304225e+04 -5.3340231529783455e+02 -6.8507523693291296e+03 
      </Row>
      <Row Index="23">
        -3.1815322181845096e+02 -4.9572527314236140e+02 -1.4092356114362977e+02 -7.1121937141001990e+02 4.9764165552589913e+02 7.6733553320890536e+01 -3.8719369860757831e+02 -8.9163917310903037e+02 1.2428322856465697e+02 -3.0629918160201390e+02 3.5686097446681046e+01 -3.4569791073146445e+02 9.4468903650105835e+02 3.6556103703978675e+02 1.7101195738406278e+02 3.3155800235751290e+03 -2.7361732162518706e+02 -3.7346736035249464e+01 1.7969265865493583e+03 1.0472081536692527e+02 -1.9815043654366062e+02 -4.1468857506920745e+02 -8.8606025613424640e+02 8.6882948674007605e+02 -6.6286091466557002e+02 4.0061205044919245e+02 -2.9414085569935665e+01 -9.3562516830448374e+02 3.1106082079269864e+01 -6.3472440412426501e+01 -5.6907790272202737e+02 -6.2279306209014919e+02 3.0280241097941097e+01 -3.1465744188160068e+02 3.5505552008724811e+02 -1.9326219916146178e+02 -1.6126824531442335e+02 -3.4974116830562190e+02 -5.2421681305818232e+01 -2.0570604441249175e+03 -8.3967807613253683e+01 -5.9342187587005677e+00 -3.3581974497598571e+02 -2.4676616824516145e+02 9.5670954958253720e+00 -3.0720532978721172e+02 5.5607055167506253e+01 -8.4380183528621259e+01 2.0004071547130431e+02 -1.6344975547606077e+02 -5.8814985585722027e+01 -1.6739050091553777e+03 4.4960345649777672e+01 9.6945114522160889e+00 -8.6694682194520212e+01 3.2341486353128481e+01 2.9449492929089885e+01 -2.8466229144201486e+02 -1.4187595199854013e+02 -1.0577109983878017e+02 -8.9306945160701900e+01 5.9156590536296505e+01 1.3650835386287343e+00 -2.6134725462287446e+02 -2.7560395035173991e+02 1.7425561050742175e+01 7.1332547323569159e+01 -4.2640675953367167e+02 1.0588942196623305e+01 -6.3024879224606309e+01 3.3598884701754535e+01 -4.4663955605259339e+01 4.5444847152100941e+01 2.2250938015255834e+01 1.8703350432794821e+01 2.1307162733663104e+03 7.1972264017496208e+00 4.7988315825140255e+01 -1.0840196823751864e+02 -1.2500698156861063e+03 3.7089941642443897e+01 -5.7243414886987830e+02 7.2080013911642780e+01 -2.0927714822861684e+01 -5.5111757889401773e+01 4.5153706076034535e+02 1.1868505225567074e+02 3.9239314561591976e+02 -3.9522244014351024e+01 2.6677121040245446e+01 -4.1058480672883746e+02 -1.8002732627973651e+02 2.6757504030207617e+01 1.7988116323574039e+02 1.3672754369717032e+02 -1.2727766368509481e+02 1.1878078804038891e+02 -7.2575895790620143e+02 -1.8307478893247140e+00 1.3862491949774130e+02 -3.4699659829587256e+02 -1.2061484089648494e+02 1.1545128967020010e+02 -2.4607777069049470e+02 -9.2982143749613883e+01 2.9567980313636889e+02 -5.0505748798766291e+02 9.6815563122442853e+01 3.2863883733359529e+02 
      </Row>
      <Row Index="24">
        -4.6515970328531948e+03 -3.7256024206782234e+02 -1.7295595776340139e+02 1.4544096014316990e+03 6.8200366356087216e+03 -5.9857464722340886e+01 -7.6294338373152971e+02 -2.5236242516221373e+03 -1.3361915784660178e+02 -3.1149094423231367e+02 6.0903685347878118e+03 -1.8205762561252067e+02 -8.9197873074298186e+03 5.2607888251618783e+02 -4.2388720133191765e+02 1.5310638658951426e+04 7.6260025650139669e+03 8.2267089884996352e+01 -1.7565362090963338e+03 1.5374884526510652e+02 1.6666821134050359e+01 -6.4202038405586245e+02 6.7192152587121909e+03 -6.6286091324696497e+02 1.9089842105546952e+04 5.2299262739584663e+02 9.9746575086734737e+01 -2.8287895291134904e+04 -1.3006132944718718e+04 3.8949020922930700e+01 2.2633633299024150e+03 2.3313375490442882e+03 1.0457481980340232e+02 1.0870201748322838e+03 -1.5689739920842092e+04 1.1969143728972069e+03 -1.1615484606737732e+03 6.0262562220302783e+01 2.9761996360346762e+02 -2.9053327591175241e+02 3.9140329254983744e+03 -3.2661820658380428e+01 -1.1994262447542874e+03 -4.2101184734884500e+03 3.8809933392335559e+01 2.6078165193992260e+02 1.9580360658883023e+03 -2.5306288963501564e+02 -3.9470335162581182e+03 3.1650051137679128e+01 -5.0442550243974054e+01 3.9060171042728234e+03 -5.5145815563312099e+03 -2.0119595071432141e+01 1.6257061540214593e+03 -2.5572893320071944e+03 7.3516617648932681e-01 3.1702050903886338e+01 -5.4257549286966332e+02 -1.0111946587705768e+02 6.9963546699613300e+02 6.4401545706380836e-01 -1.5027501730742443e+02 1.4553501997273821e+04 -4.5786380180969803e+02 -1.4194870133363633e+01 -1.2946587631540589e+02 -6.1178729135501826e+03 -8.2197660710825495e+00 4.6692034005445639e+03 2.4440090945551546e+01 3.7573944611098042e+01 -8.8499808525271749e+02 1.4907930809738534e+01 -1.1013068989302212e+01 -7.9591989088886266e+03 -3.3805080029105244e+02 -4.4803723532089592e+01 -1.0995726748066076e+02 2.2088963516116878e+03 -3.0658712721348810e+01 9.1668736899689284e+03 1.4784024516967056e+03 4.2931005782766213e+01 -1.8069948924254112e+02 -5.0637266425662625e+02 2.4676277520126436e+02 7.3194709866723524e+03 -1.0777338072938169e+03 -1.7475171841394424e+01 -2.3864344662957504e+02 2.7775467858792108e+03 -3.7833400342158946e+01 -3.5648876974776954e+03 1.7515006807532986e+03 -5.8276328580337875e+01 -1.6636494425640685e+03 -5.9930126531291000e+02 -2.4515248975103256e+02 5.7117587504896146e+03 -1.2290639913750263e+03 1.0328088650701496e+02 5.3790358619378981e+02 -4.8339437280013954e+03 7.5527656216732794e+01 1.8601708126500002e+03 -2.5691388653095455e+00 -2.1421399576340843e+01 -5.8968729054656922e+02 
      </Row>
      <Row Index="25">
        -5.4480949741755410e+02 -2.0131284382393808e+03 -3.7908131969159604e+02 1.4580563340605667e+02 8.5129316462429608e+02 -3.3698656596122575e+01 -7.2041263656506169e+02 -1.3459539417032486e+03 5.1492986426718701e+01 8.4114345549047442e+01 -1.2650118803276157e+03 -2.7855230702327765e+02 2.1901030026008931e+02 2.1877133946680228e+03 5.6694141448130154e+02 1.7517774776845245e+03 7.2100198392963591e+02 4.0763175682625359e+01 1.3175906442702224e+03 -5.1420445228577937e+03 -5.9611331294245304e+01 6.8749479556271353e+00 8.6187682253455694e+02 4.0061205143294256e+02 5.2299262154094095e+02 2.0600742195484891e+03 8.0904906795601414e+02 -3.1996445046168119e+03 -1.5171008920278193e+03 1.7760517814854996e+01 6.4550357173681647e+01 4.0451430661508329e+02 -2.9871200966061789e+01 1.1892871520583898e+02 -8.8934696084088762e+02 7.9396434949117932e+01 -8.8263998718044391e+01 -2.0687615878877405e+03 -1.2456867195603497e+03 5.0516362831675974e+02 2.6360479613468652e+02 -8.0784764504299016e+00 3.4391040269072647e+02 -1.6568977067945941e+03 8.7152935513774761e+00 9.4906529272276686e+01 -8.9676440311952845e+01 1.5579739671508523e+02 -2.4760270630322687e+01 -5.9479923231007012e+02 -2.9393309209698626e+00 1.5334525035084112e+03 1.2104817893491655e+02 -2.4087785217311492e+01 -6.9435887270456567e+02 4.5453312862147495e+03 3.5293340121452808e+01 1.0220484800399483e+02 -3.0741866286605006e+02 -2.6040003056088108e+02 -7.4430316871537329e+01 5.3245724203369741e+02 3.4008186126707000e+02 1.9778220654479280e+03 -5.9706351130653093e+02 1.1881136392373270e-01 2.8822584024991841e+02 3.2264808229542909e+03 -2.8287823217610675e+00 -3.8077884616324909e+03 2.4980396228185714e+02 -5.1400130822808272e+01 7.2392348352621942e+00 2.0352914977330394e+02 1.4081139212800525e+02 -1.2202664523287654e+03 1.2978824588299079e+02 2.7185693069017334e+00 3.4615430281577325e+01 -2.9836677211433007e+03 -6.5950193255408012e+00 -3.4471114236060198e+03 -1.9279614202495429e+02 -1.6778800141110775e+01 -7.8708119462767741e+01 1.3016192817574160e+03 1.2095328003482884e+02 1.4083628233245049e+03 -6.1263349868876652e+01 6.7717172715907665e+00 -2.8259599176999706e+02 -3.9038992077528974e+03 -8.1410303838180305e+00 -2.7393078823093902e+02 7.5412723849167696e+02 -9.5566750610737103e+01 7.6700687412786905e+01 -3.6527857498253534e+03 8.5566121383613722e+02 -2.9229466919698262e+02 -1.0660223307463377e+03 9.1407319483579463e-01 -3.6830504065275358e+00 1.8844570635253012e+03 -1.7842268882181962e+01 2.1211412020465241e+03 -1.0677350831727911e+03 6.1494170761283208e+01 7.0065679023459722e+02 
      </Row>
      <Row Index="26">
        -3.4108962373470582e+01 -5.1091514565578473e+02 1.3886951037713865e+02 -3.8884470651960589e+02 8.7134416717120686e+00 -3.3072908618134292e+01 2.4406901260184903e+00 1.1157364281398834e+03 1.1149640371220753e+01 -4.3174215072760312e+01 -1.0852245744470461e+02 -7.2755147334573493e+01 -3.6751533057789408e+02 6.3958491497941282e+02 1.4264932217361437e+02 8.9671468258110758e+02 3.9509984375580984e+02 2.4468956792372577e+01 -8.8425529105155221e+01 1.4045916249893532e+03 3.7516589962533997e-01 -7.8943418641784390e+01 -8.5609730570105810e+01 -2.9414084206637309e+01 9.9746574235806577e+01 8.0904907277645225e+02 1.4794048355930488e+03 -1.8759636565870949e+03 -1.7308006730298403e+03 -4.1922016060372398e+00 -3.6093474709148904e+02 5.1981462157138549e+02 3.4193705272905355e+01 -2.3038985250245560e+01 -1.2749199555746757e+03 -4.3837314974723675e+01 1.7376843702301647e+02 -1.2890143327453115e+03 -1.9921456008878215e+03 -2.3799173964227366e+03 -3.3696484427282343e+01 1.3544036330280685e+01 1.1686620568942476e+03 -3.9463138368745699e+03 -1.7799979767788159e+01 -1.0011348195308702e+02 -1.3506062546184458e+02 4.8564071863675628e+02 1.4835274966846077e+02 -6.4750791564404055e+00 2.7530348888750365e+02 -6.5404194172531970e+02 1.8316214746669377e+03 -1.1316520853739100e+01 -5.7352706419878325e+02 1.1434404275593888e+03 8.5538092701147175e+00 -2.0838233507838343e+01 5.8319275772405877e+02 -1.7429096072311270e+02 -1.3230418411947693e+02 3.9650623808058270e+02 5.2230918154117785e+02 8.8315842339975381e+02 -4.6644727693400120e+02 -1.5752816133988495e-01 2.3672788324645043e+02 2.5580468918261113e+03 -9.7198438400581679e+00 -1.6114079105004275e+03 4.1725725262008993e+01 -1.7225954421792125e+01 4.3564858042635642e+01 1.4320672241361726e+02 2.3607141138076096e+02 4.7714524595587818e+02 2.8151919951130873e+02 -5.7619188210133263e+00 1.1934356717980941e+02 1.3449459285780126e+03 -1.2334748330898094e+01 -1.7317373364276445e+03 -9.1879928162580654e+01 2.8374660502029439e+01 -7.6053244185351616e+01 6.1208157931251628e+02 -1.7184101541199686e+02 1.3613571297497751e+03 2.1900990334779809e+02 9.4442413856557383e+00 1.0591308501332657e+01 5.0437000704324657e+02 -4.0579593329014088e+01 -1.9516363295808765e+02 5.8550900993249479e+02 -1.5375587589399430e+02 9.7716022679782057e+01 -1.5021111711654669e+03 1.5073552235497534e+03 1.0828059675705579e+03 -8.2937226217849638e+02 1.9185717503207481e+01 -1.5520621465047361e+02 -1.2760276733791441e+03 -7.4632032262577521e+00 7.4566755882136727e+02 -2.1065122900758172e+02 -2.3766565552493670e+01 -2.6856974380303546e+02 
      </Row>
      <Row Index="27">
        1.0984990481688745e+04 -7.2419398136063376e+02 -2.9984717015074949e+02 -9.8385800813876485e+04 -3.1931450336417191e+04 3.4002915188071324e+02 -3.1246735986820863e+03 3.3983448730951539e+04 2.1912569680992246e+02 -5.1589782875225656e+03 -5.8112301464167558e+03 -7.5386037757256781e+02 1.3447173101834866e+04 1.4132865440613170e+03 -1.0762025148284106e+03 -9.4991263451193168e+04 -5.4957791516788522e+04 -6.9231000967399871e+02 -6.1404003020781647e+03 5.3864772142949048e+04 4.1085397759381954e+02 -4.9034406245845012e+03 -1.3172689216081286e+04 -9.3562517991831237e+02 -2.8287895304676527e+04 -3.1996445623645291e+03 -1.8759636763317421e+03 5.7834356098346657e+05 8.2209449402229220e+04 1.9120162471226752e+02 2.0080494008399692e+04 -4.9375768173980039e+04 -8.7351880993103327e+02 3.4886262120304559e+03 2.1358124413045975e+04 3.9864757773225679e+03 2.2861615448664425e+03 -5.8641055039214325e+02 -2.0034198781084408e+03 -1.0758924232817923e+05 -7.4929933076011566e+03 7.5950052681265191e+01 -2.3018402907809641e+03 5.9060424065646606e+04 -9.6687706444161151e+01 -2.8024645479362948e+03 -7.3752039893759020e+03 -4.7599526586588638e+02 2.3502595367674057e+03 2.9488894187861621e+02 -4.1647140816369031e+01 -7.2236561189857428e+04 1.4262491985902612e+04 1.0290915681394469e+02 -5.2837935543321673e+03 -9.2754008134222531e+03 -2.5130382253479365e+01 -4.4952215055496008e+03 1.7542759178881195e+03 -5.3750574568880347e+02 6.9471127462495701e+02 5.2885366779257254e+02 5.3474234660834682e+01 3.1599544468990653e+03 -7.9946756640394210e+02 1.8541786153154046e+01 -4.6621943137122446e+02 -1.3512430654349449e+04 7.3183292531758497e+01 2.6960979686575683e+03 4.4664131664164142e+02 4.2182867988608996e+02 -9.5085370703208798e+02 -1.3580996747033328e+02 3.5903164806204506e+02 2.7470502878652271e+04 -3.4840051599633634e+03 8.0125855197867651e+01 6.6217027443289021e+02 -4.7385188905711711e+03 1.5981143232051508e+02 7.7994723971183139e+03 -4.1925891494642985e+02 3.7401505577075602e+02 -2.6408527907382842e+02 3.7423120351487287e+03 5.3537772380700462e+03 -1.1149722800449764e+05 -1.1845147640677587e+03 3.7976316371920165e+00 -3.5722844162747992e+03 1.1522828764527307e+04 4.4398643001981372e+02 -1.6781910236481992e+04 4.0781312906845983e+03 -1.3425169364249170e+03 -3.5289785600631643e+02 -2.6023907874577076e+03 1.0561698052011247e+03 -9.7005111998342414e+04 -3.6590370888006322e+02 -2.9366085665005414e+02 -1.1236145239241594e+03 3.7173467677722518e+04 -2.9856519918942556e+01 -5.0758854772054125e+04 2.8290515201555713e+03 -4.0878486997522452e+02 1.1986583108388822e+04 
      </Row>
      <Row Index="28">
        5.9773927618974039e+03 1.0794149686582500e+03 2.7824816938314677e+02 -3.3717567214777642e+04 -1.3103685348002588e+05 -3.1622267023695645e+02 -7.4583864803535571e+03 -4.5847185629035506e+04 -3.2447634168839933e+01 1.3018248378485072e+04 -2.4951322511053615e+04 -5.3300640528449685e+02 9.9682719451649500e+03 3.1296711808590380e+03 1.1538067635376985e+03 -1.8214286776470170e+04 -1.4381873992131106e+05 5.8900150263248698e+01 -1.9238569839445208e+03 -4.4864307418913726e+04 1.9497577147066494e+02 1.2476207340925865e+04 -1.6833032641597911e+04 3.1106080939805466e+01 -1.3006132937697497e+04 -1.5171008983567051e+03 -1.7308006711698476e+03 8.2209449291271711e+04 4.2279854546230979e+05 2.9347623499828495e+02 4.3908467719054552e+03 7.4621067465408647e+04 -8.9688701941803558e+01 9.8003145430200384e+03 3.4009168941200558e+04 -7.2012809856677859e+02 1.0107857533409319e+02 6.2172522374444850e+02 1.5917972942552183e+03 3.9137862349007060e+04 -8.2251700623632030e+04 -1.4848100227848869e+01 -1.4271982705724997e+03 -3.6226531423801665e+04 6.3853424323734636e+01 9.6111720650055177e+03 1.2887241371481876e+04 -2.7406304166853829e+02 -2.3790887004814963e+03 9.0848946082530324e+02 3.6412302456228633e+02 1.3525188527377206e+04 -6.3849118504953789e+04 -3.0943721644227409e+01 5.8190202253163789e+03 -4.4215689947443738e+04 7.9364049381463602e+01 1.1074667332061248e+04 -8.2284999345798060e+03 5.8643245459620994e+02 1.6465967182802838e+03 -2.3532282970358164e+01 -3.0811983776697645e+00 3.6083159141847260e+04 1.2497230322732955e+03 -4.0804847861449794e+01 -1.1332069905965106e+03 5.2631754101051272e+04 -2.0085465939856682e+01 -3.8839738300870595e+03 -4.3993044173135568e+03 -3.5140749528519200e+02 -1.8634265480618467e+03 1.4446417896000349e+02 -1.7092319238041782e+02 -3.8176735667747365e+04 2.5683893479047640e+01 -4.7911425096131218e+01 -5.8227180074519345e+02 -5.0628860440748904e+04 -1.2133349452174343e+02 7.2988880583441060e+03 9.4206489198514773e+03 -1.9749379816165276e+02 5.5913711379860274e+01 -4.1556253243572919e+03 -2.0085293508826226e+03 -8.8971746766235192e+03 2.7842047088363879e+03 5.0812869214491929e-01 3.3646439091999747e+02 -9.3836381889229062e+02 -2.5327971915509394e+02 8.7569228043432713e+02 1.4286178452001068e+04 9.4125297592231925e+02 -3.4592687426312314e+03 -5.6856412885630994e+02 -3.5026768485904927e+02 -5.3489778488673519e+03 -7.5214569008406500e+02 1.9048196625432698e+02 2.2293317256186083e+03 7.2427883262071637e+03 2.4214601878124018e+01 -2.8720459351247223e+03 1.9545275230490308e+04 3.4667934838245867e+02 1.3154066294059327e+04 
      </Row>
      <Row Index="29">
        1.4345918089655527e+00 -3.0944891485944034e+01 4.2593090259786557e+00 -1.4809900976883409e+02 3.9060370617453181e+01 -1.0932468647264140e+02 -1.0591708182071567e+02 -1.0544606090362157e+02 -1.7450531780772952e+01 7.9549661748158158e+00 -2.6307548824940639e+01 6.6426435427741865e+01 4.3900761496877543e+01 3.6821860507662663e+01 6.5427790204274947e+00 -4.2621738859753913e+02 -2.8898273629868038e+02 6.5179788085878386e+01 3.0341668335564862e+01 2.5057203272080272e+01 6.6271037851996169e+01 1.8437227992327770e+01 -4.7176375953464273e+01 -6.3472440359982457e+01 3.8949020784969711e+01 1.7760518012136902e+01 -4.1922016714236863e+00 1.9120162687915754e+02 2.9347623522225581e+02 8.0871352217250504e+01 4.1279057715181388e+01 -1.4616249045639628e+02 -5.7365818080986024e+01 1.8093606742558315e+00 -3.2142147583271992e+01 8.5050576186995912e+01 -3.0690410065664665e+01 -1.9333641116825337e+01 1.9208849050112384e+01 6.1206753377761436e+02 -1.4420738990286994e+01 -9.1618656919550290e+00 -2.3488490576100848e+01 3.0079527563171947e+01 1.0962291425176247e+01 -1.8530369089888950e+01 1.1624519910941939e+02 1.0515208616474345e+01 -4.7692538576971430e+01 -8.8166366327621262e+00 -1.5793176774077211e+00 -4.4911505193040867e+01 -1.0040632483574367e+01 -1.5896500165157599e+01 1.3468400583529053e+01 2.8523776476419883e+01 -6.8518011575004056e+00 8.6002739537193094e+00 -6.6432498663326172e+01 2.2391551550941699e+01 1.6355007208761350e+01 2.4039583992632236e+00 -3.7261002504220588e+00 3.4880440806693819e+01 -2.2288601936392169e+01 -1.1136976785262323e+01 -1.4958346994560785e+01 2.8092540765407483e+02 -9.0469569241248724e+00 2.1075274807311871e+01 -1.9435196819511361e+01 6.1094411203908967e+00 -1.3053265689506274e+01 4.4844871696422413e+00 -7.1443656940712987e+00 -1.8029916313181482e+02 8.9028752035944372e+00 -2.7825444699009321e+01 1.6277487071288860e+01 1.0909923400113703e+02 -3.0819978354758252e+01 -1.4726519222555128e+01 6.6462510882917094e+00 -1.7859242439460200e+01 -5.9353521205811228e+00 2.2625684577672711e+01 -2.6025529857413058e+01 -6.2853010022626012e+00 -4.8603117623033443e+00 -1.6115540801154562e+01 5.7609083449307356e+01 -5.8146886545976379e+01 -1.2686304576813761e+01 3.7782408879652493e+01 1.2862692270260030e+02 -1.2414625863053755e+02 -4.0012084056015773e+01 -4.4109249982611161e+01 -1.5924452314602801e+01 -3.6166640499850395e+01 -5.8344418792518610e+01 7.8436026947104637e+01 -1.0730681943092485e+01 1.6692492718400601e+01 4.2747966652378061e+01 3.7010111417410904e+01 5.4158967365621294e+01 -3.7228895519503780e+01 5.9457595673075360e+01 
      </Row>
      <Row Index="30">
        -1.0550395648959400e+03 -5.1617595985747494e+02 -4.1396748341365941e+02 2.0408705769875139e+03 -2.9967915511004876e+03 -1.0946316051654858e+02 -9.5157763771779253e+02 -4.7042758725335125e+03 -3.6266716322880718e+01 6.6202921287836602e+02 -3.4523343922743406e+03 3.0423602519018974e+01 -1.3624106641140304e+03 9.9082185535436122e+02 -1.5450099048386346e+02 -1.9142089812471979e+03 -2.2943886285552521e+03 1.0993528241870041e+02 -2.6944332409312078e+03 -6.7905498799533225e+03 8.0977623972153040e+01 7.8849134084702609e+02 -5.3339973526937911e+02 -5.6907790307852417e+02 2.2633633280224617e+03 6.4550354034895562e+01 -3.6093474937087637e+02 2.0080494021123995e+04 4.3908467853818311e+03 4.1279057547783992e+01 1.0904305257356849e+04 6.1489681543452377e+02 -1.1517046978003211e+02 1.4519154729072216e+02 6.3544770100807837e+03 2.1222650096386856e+03 3.2430878551395483e+02 5.2975513241244109e+01 1.0252159195035501e+03 4.3637410301484715e+03 3.4477427413910314e+03 -3.4696904755883160e+01 -1.6724423732917612e+03 3.1707481777179155e+03 6.4389335992714066e+01 7.9150993477638485e+02 -5.6996749001062590e+03 -6.0842360890436396e+02 -7.7241667562630397e+01 -4.4161645652708040e+02 -2.2223919033230933e+02 -7.7725680810830318e+03 -3.2356067782705959e+03 5.9546036153815347e+00 -5.4736378268496446e+03 4.4537606179754312e+03 -1.9269463749819117e+01 4.3137457109608079e+02 4.8227017973233951e+03 -5.3272144587655504e+01 4.4091205625688872e+01 -5.7772582833276722e+01 -3.3724248727126707e+02 4.0881226829701213e+03 5.5643253889632820e+02 -1.3512140448219879e+01 -2.8318289909575623e+02 2.4483076481732473e+03 -1.0436908153107845e+01 2.7434707101758813e+03 6.2975501833836529e+02 1.1967180678413060e+02 6.6782308879701686e+00 -6.2144094155744874e+01 -1.3090904150149538e+02 4.9794133265024848e+03 -4.7805741333056636e+02 -3.5211959773118025e+01 4.0155618542356331e+02 -4.2677205256900806e+03 -2.5150751903388823e+01 2.9688139375855735e+03 -3.0099042977420977e+03 -6.9779658664593427e+01 1.9227836623139706e+02 9.1047351876568641e+01 2.0493851716757771e+02 -3.5274310967003426e+03 -4.2545431871015097e+02 -1.7347732076107743e+01 -2.2978206674345822e+02 -5.1612929685952158e+03 5.2724022237880002e+00 1.0984080972060208e+03 -8.0555775810224932e+03 -9.2465572808269235e+02 2.9444951565173051e+02 -8.1505166747332078e+02 -9.2095427643524988e+02 -4.0218913861472097e+03 9.9012115717476615e+02 9.0659968683750407e+01 -1.2717019712123256e+03 5.4543136005393808e+03 6.5914189578272314e+01 9.9472698539097337e+01 -5.9740765958757320e+03 -2.0508124504746584e+02 -5.5353447606009677e+03 
      </Row>
      <Row Index="31">
        -2.2090131705648059e+03 -7.5958686988224053e+02 7.9553540069847497e+02 1.6837616243634136e+04 -2.1032971713949439e+04 1.8600330863815861e+02 -1.1453744079536086e+03 -8.7387740848445843e+04 1.3587828581938598e+02 -4.2987724455776934e+03 -4.1831391652263403e+02 -1.3042918856016740e+02 -3.8944314575644626e+02 -6.4579885085199339e+03 1.3079669619236975e+03 3.2360467651329196e+04 -3.9366154075813742e+04 -1.6044378730661214e+02 -5.2842364294038371e+03 -6.8882255197193954e+04 1.5887271209098375e+02 -4.7833146199810808e+03 -4.1266655634968683e+03 -6.2279308930352965e+02 2.3313375246754540e+03 4.0451418981408955e+02 5.1981458922732759e+02 -4.9375768163326407e+04 7.4621067527493069e+04 -1.4616249343605028e+02 6.1489678585775312e+02 8.3580926917346846e+05 -1.2043163863693883e+02 -2.5539289165945715e+03 -7.1250551695136191e+03 -1.8111122319218182e+02 -1.6331297402514242e+03 -5.7372145662827370e+02 -1.0984740994331876e+03 3.2782402902546124e+02 -8.8309375506446286e+03 5.9758759670993207e+01 6.9828710534370794e+03 -8.6661435474322760e+04 -1.3488098077592397e+02 -3.1055134593653042e+03 5.1037816660222816e+03 6.7132246717340388e+02 1.7498150145198010e+03 1.5139539552986184e+03 -1.9116646846040237e+02 -1.9513546716920468e+04 -7.0873282612943794e+03 6.2778486578927804e+01 -2.7297393889811829e+03 -1.4090490145441529e+05 -5.8459955678361680e+01 -2.5480867423440322e+03 7.1433745003104132e+03 4.9402179199996453e+02 1.8401160655347689e+02 3.5552237695359906e+02 2.5901117995207909e+02 -2.9685390841898832e+04 2.5671206599441166e+02 2.5338500532134454e+01 -1.6628144552975016e+02 -8.1864212590510375e+04 2.3289243616175462e+01 -8.7182846238047205e+03 -1.4124582428713918e+03 4.2603431735035679e+02 1.6663642305605902e+02 -1.7497368591224526e+02 1.5463532768753950e+02 7.2766988369944356e+03 -1.7218923323274566e+02 4.4502679496992961e+01 1.5798256552586986e+03 9.0021022818198151e+04 8.7452075238902466e+01 -1.0097641371111202e+04 -5.1902123074555277e+02 2.0679190069239155e+02 -2.2607768256717250e+01 5.1968463662917238e+03 -9.3082344682465055e+02 1.5043997075694731e+04 -1.5086769277948217e+03 9.1511858547444422e+00 1.1985403450728722e+03 -1.1627551786950551e+05 4.9156237974304638e+01 -4.1101296382811506e+03 -1.6949899641460336e+03 -2.2065887593310876e+02 3.5030859043317264e+02 3.0652129630046370e+03 4.3861501964608129e+02 -2.9909507508539325e+04 -3.2808904015761351e+02 -1.4696838825079669e+02 -2.3249080767292057e+03 7.0530216186823498e+04 3.7436917819304218e+00 4.7882617439000875e+04 2.9218578254003864e+03 -5.6249276991724321e+02 5.2576808437493319e+03 
      </Row>
      <Row Index="32">
        -3.9479468657755078e+01 4.4834158901967932e+01 9.7494044977396648e+00 3.6720622495529472e+02 5.3202195267061008e+01 9.5739029338654813e+00 4.6419710914419753e+01 1.5211049264157623e+02 -6.1686949398675182e+01 -4.4540693562441092e+01 1.7275763145207222e+02 4.1367534984013488e+01 -8.3307200918106730e+01 -5.4555632925840399e+01 -1.0351606147815351e+01 3.7330417607117852e+02 -2.1054193936069474e+01 4.4260538735573114e+01 2.8403999353356333e+01 2.6188818469220286e+02 4.3211239920271566e-02 -4.6844245622050487e+01 2.1616768922964820e+01 3.0280241146755472e+01 1.0457481998829292e+02 -2.9871200663057476e+01 3.4193705463251135e+01 -8.7351881110171598e+02 -8.9688702422919008e+01 -5.7365818069499625e+01 -1.1517046976663765e+02 -1.2043164111154313e+02 8.2433848113865409e+01 -1.2995850105309675e+01 -1.8136888872935822e+02 -1.2309139439169391e+02 6.5725048467343106e+00 1.2925944996618002e+01 -5.0029460868175335e+01 -3.3902192755948795e+02 -6.6039759895236145e+01 6.1172189546864368e+00 3.8154979204437289e+01 -5.2966954189902054e+01 -1.0414471533710499e+01 -2.0089305116711035e+01 -2.6870299148553809e+01 2.6639644967330511e+01 1.7507009392552565e+01 2.1041743307281859e+01 1.7171356668927505e+01 -1.6275256911214925e+02 1.4180047117074633e+02 -1.0514367437786254e+00 2.2810288193530727e+01 -2.7522972748669497e+02 -5.9896760741579129e+00 -2.4176413444885092e+01 -1.5536035308690870e+01 -1.3914940786627531e+01 3.6779035182804112e+00 -4.1388109486175967e-01 1.1658328535768991e+01 7.0082720208085538e+00 -1.2201088914699822e+01 -2.7963677057972234e+00 3.5019040315637433e+01 -2.1267512935211226e+02 -4.4334062240572685e+00 1.3619490307220769e+02 3.0735245018071581e+01 -4.0594876750466851e+00 -1.6024107331685531e+01 -1.8922841933152599e+00 7.4668661827032912e+00 2.1605573758911333e+01 -5.6330508333484826e+00 -1.2336218146444990e+01 1.6775397579723013e+01 -1.5295928705593511e+02 -3.7317013076937693e+00 1.8664055262581689e+02 4.5236970457768031e+01 1.0750528207958888e+01 -8.7049468002403625e+00 -1.1143568048575009e+01 8.7434077640498775e-01 1.3361074118465905e+02 1.2296953528785759e-01 -3.7619157319673411e+00 -1.6241311826338070e+01 1.8482024976653827e+02 -5.5992569558000937e+00 -8.9284441303432942e+01 -1.6667103215839244e+01 5.1769896423786037e+01 -1.7260559562897260e+01 5.4578229683303093e+01 3.8915258723872583e+01 1.4454193180471168e+02 -2.4400215612377476e+01 2.6648695298491102e+01 7.3208973813133911e+00 -2.0365156402001162e+02 3.8658267229901455e+01 4.6512108275723696e+00 -6.2162534329149842e+01 1.0890341653122517e+01 -1.1301934797722107e+02 
      </Row>
      <Row Index="33">
