<?xml version="1.0"?>
<MethodSetup Method="BDT::BDT">
  <GeneralInfo>
    <Info name="TMVA Release" value="4.1.4 [262404]"/>
    <Info name="ROOT Release" value="5.34/05 [336389]"/>
    <Info name="Creator" value="jbochenek"/>
    <Info name="Date" value="Mon Apr 15 14:15:31 2013"/>
    <Info name="Host" value="Linux ubuntu 3.2.0-39-generic #62-Ubuntu SMP Wed Feb 27 22:05:17 UTC 2013 i686 i686 i386 GNU/Linux"/>
    <Info name="Dir" value="/mnt/hgfs/work/HZZ4l_2013/scripts"/>
    <Info name="Training events" value="3431"/>
    <Info name="TrainingTime" value="5.22899389e+00"/>
    <Info name="AnalysisType" value="Classification"/>
  </GeneralInfo>
  <Options>
    <Option name="V" modified="Yes">False</Option>
    <Option name="VerbosityLevel" modified="No">Default</Option>
    <Option name="VarTransform" modified="No">None</Option>
    <Option name="H" modified="Yes">False</Option>
    <Option name="CreateMVAPdfs" modified="No">False</Option>
    <Option name="IgnoreNegWeightsInTraining" modified="No">False</Option>
    <Option name="NTrees" modified="Yes">850</Option>
    <Option name="RenormByClass" modified="No">False</Option>
    <Option name="BoostType" modified="Yes">AdaBoost</Option>
    <Option name="AdaBoostR2Loss" modified="No">quadratic</Option>
    <Option name="UseBaggedGrad" modified="No">False</Option>
    <Option name="GradBaggingFraction" modified="No">6.000000e-01</Option>
    <Option name="Shrinkage" modified="No">1.000000e+00</Option>
    <Option name="AdaBoostBeta" modified="Yes">5.000000e-01</Option>
    <Option name="UseRandomisedTrees" modified="No">False</Option>
    <Option name="UseNvars" modified="No">2</Option>
    <Option name="UsePoissonNvars" modified="No">True</Option>
    <Option name="UseNTrainEvents" modified="No">3431</Option>
    <Option name="UseWeightedTrees" modified="No">True</Option>
    <Option name="UseYesNoLeaf" modified="No">True</Option>
    <Option name="NodePurityLimit" modified="No">5.000000e-01</Option>
    <Option name="SeparationType" modified="Yes">giniindex</Option>
    <Option name="nEventsMin" modified="Yes">150</Option>
    <Option name="nCuts" modified="Yes">20</Option>
    <Option name="UseFisherCuts" modified="No">False</Option>
    <Option name="MinLinCorrForFisher" modified="No">8.000000e-01</Option>
    <Option name="UseExclusiveVars" modified="No">False</Option>
    <Option name="PruneStrength" modified="No">0.000000e+00</Option>
    <Option name="PruneMethod" modified="Yes">nopruning</Option>
    <Option name="PruneBeforeBoost" modified="No">False</Option>
    <Option name="PruningValFraction" modified="No">5.000000e-01</Option>
    <Option name="NNodesMax" modified="No">100000</Option>
    <Option name="MaxDepth" modified="Yes">3</Option>
    <Option name="DoBoostMonitor" modified="No">False</Option>
    <Option name="NegWeightTreatment" modified="No">inverseboostnegweights</Option>
  </Options>
  <Variables NVar="5">
    <Variable VarIndex="0" Expression="f_Z1mass" Label="f_Z1mass" Title="f_Z1mass" Unit="" Internal="f_Z1mass" Type="F" Min="4.08473740e+01" Max="1.17858093e+02"/>
    <Variable VarIndex="1" Expression="f_Z2mass" Label="f_Z2mass" Title="f_Z2mass" Unit="" Internal="f_Z2mass" Type="F" Min="1.20253534e+01" Max="1.14000206e+02"/>
    <Variable VarIndex="2" Expression="f_pt4l" Label="f_pt4l" Title="f_pt4l" Unit="" Internal="f_pt4l" Type="F" Min="-9.90000000e+01" Max="8.22938477e+02"/>
    <Variable VarIndex="3" Expression="f_massjj" Label="f_massjj" Title="f_massjj" Unit="" Internal="f_massjj" Type="F" Min="2.79619980e+01" Max="4.06077124e+03"/>
    <Variable VarIndex="4" Expression="f_deltajj" Label="f_deltajj" Title="f_deltajj" Unit="" Internal="f_deltajj" Type="F" Min="8.19897652e-03" Max="8.83846283e+00"/>
  </Variables>
  <Spectators NSpec="0"/>
  <Classes NClass="2">
    <Class Name="Signal" Index="0"/>
    <Class Name="Background" Index="1"/>
  </Classes>
  <Transformations NTransformations="0"/>
  <MVAPdfs/>
  <Weights NTrees="850" AnalysisType="0">
    <BinaryTree type="DecisionTree" boostWeight="6.5239667671183654e-01" itree="0">
      <Node pos="s" depth="0" NCoef="0" IVar="4" Cut="2.5311315059661865e+00" cType="0" res="-9.9000000000000000e+01" rms="0.0000000000000000e+00" purity="7.1281063556671143e-01" nType="0">
        <Node pos="l" depth="1" NCoef="0" IVar="-1" Cut="3.1727502441406250e+02" cType="0" res="-9.9000000000000000e+01" rms="0.0000000000000000e+00" purity="8.5911756753921509e-01" nType="1"/>
        <Node pos="r" depth="1" NCoef="0" IVar="4" Cut="1.9293820858001709e+00" cType="0" res="-9.9000000000000000e+01" rms="0.0000000000000000e+00" purity="4.0973746776580811e-01" nType="0">
          <Node pos="l" depth="2" NCoef="0" IVar="-1" Cut="0.0000000000000000e+00" cType="1" res="-9.9000000000000000e+01" rms="0.0000000000000000e+00" purity="6.0674321651458740e-01" nType="1"/>
          <Node pos="r" depth="2" NCoef="0" IVar="-1" Cut="1.5331611633300781e+02" cType="0" res="-9.9000000000000000e+01" rms="0.0000000000000000e+00" purity="3.5526546835899353e-01" nType="-1"/>
        </Node>
      </Node>
    </BinaryTree>
    <BinaryTree type="DecisionTree" boostWeight="4.1237951856875149e-01" itree="1">
      <Node pos="s" depth="0" NCoef="0" IVar="4" Cut="3.7925977706909180e+00" cType="0" res="-9.9000000000000000e+01" rms="0.0000000000000000e+00" purity="6.6552907228469849e-01" nType="0">
        <Node pos="l" depth="1" NCoef="0" IVar="-1" Cut="6.0528387451171875e+02" cType="0" res="-9.9000000000000000e+01" rms="0.0000000000000000e+00" purity="8.4371066093444824e-01" nType="1"/>
        <Node pos="r" depth="1" NCoef="0" IVar="3" Cut="2.5349702453613281e+02" cType="0" res="-9.9000000000000000e+01" rms="0.0000000000000000e+00" purity="5.4018890857696533e-01" nType="0">
          <Node pos="l" depth="2" NCoef="0" IVar="1" Cut="3.6697994232177734e+01" cType="0" res="-9.9000000000000000e+01" rms="0.0000000000000000e+00" purity="6.3264161348342896e-01" nType="0">
            <Node pos="l" depth="3" NCoef="0" IVar="-1" Cut="0.0000000000000000e+00" cType="1" res="-9.9000000000000000e+01" rms="0.0000000000000000e+00" purity="7.6958853006362915e-01" nType="1"/>
            <Node pos="r" depth="3" NCoef="0" IVar="-1" Cut="0.0000000000000000e+00" cType="1" res="-9.9000000000000000e+01" rms="0.0000000000000000e+00" purity="4.9937379360198975e-01" nType="-1"/>
          </Node>
          <Node pos="r" depth="2" NCoef="0" IVar="2" Cut="1.3808174133300781e+02" cType="0" res="-9.9000000000000000e+01" rms="0.0000000000000000e+00" purity="4.8265492916107178e-01" nType="0">
            <Node pos="l" depth="3" NCoef="0" IVar="-1" Cut="0.0000000000000000e+00" cType="1" res="-9.9000000000000000e+01" rms="0.0000000000000000e+00" purity="6.3368827104568481e-01" nType="1"/>
            <Node pos="r" depth="3" NCoef="0" IVar="-1" Cut="0.0000000000000000e+00" cType="1" res="-9.9000000000000000e+01" rms="0.0000000000000000e+00" purity="4.5041334629058838e-01" nType="-1"/>
          </Node>
        </Node>
      </Node>
    </BinaryTree>
    <BinaryTree type="DecisionTree" boostWeight="3.3263219269839323e-01" itree="2">
      <Node pos="s" depth="0" NCoef="0" IVar="-1" Cut="4.2130866050720215e+00" cType="0" res="-9.9000000000000000e+01" rms="0.0000000000000000e+00" purity="6.6044193506240845e-01" nType="1"/>
    </BinaryTree>
    <BinaryTree type="DecisionTree" boostWeight="2.6736959449331377e-01" itree="3">
      <Node pos="s" depth="0" NCoef="0" IVar="4" Cut="4.2130866050720215e+00" cType="0" res="-9.9000000000000000e+01" rms="0.0000000000000000e+00" purity="5.8239972591400146e-01" nType="0">
        <Node pos="l" depth="1" NCoef="0" IVar="-1" Cut="6.3128332519531250e+02" cType="0" res="-9.9000000000000000e+01" rms="0.0000000000000000e+00" purity="7.6504915952682495e-01" nType="1"/>
        <Node pos="r" depth="1" NCoef="0" IVar="3" Cut="3.2867535400390625e+02" cType="0" res="-9.9000000000000000e+01" rms="0.0000000000000000e+00" purity="5.0959599018096924e-01" nType="0">
          <Node pos="l" depth="2" NCoef="0" IVar="2" Cut="1.2050916290283203e+02" cType="1" res="-9.9000000000000000e+01" rms="0.0000000000000000e+00" purity="6.1015397310256958e-01" nType="0">
            <Node pos="l" depth="3" NCoef="0" IVar="-1" Cut="0.0000000000000000e+00" cType="1" res="-9.9000000000000000e+01" rms="0.0000000000000000e+00" purity="7.8945666551589966e-01" nType="1"/>
            <Node pos="r" depth="3" NCoef="0" IVar="-1" Cut="0.0000000000000000e+00" cType="1" res="-9.9000000000000000e+01" rms="0.0000000000000000e+00" purity="4.9684721231460571e-01" nType="-1"/>
          </Node>
          <Node pos="r" depth="2" NCoef="0" IVar="1" Cut="4.1189392089843750e+01" cType="0" res="-9.9000000000000000e+01" rms="0.0000000000000000e+00" purity="4.6471112966537476e-01" nType="0">
            <Node pos="l" depth="3" NCoef="0" IVar="-1" Cut="0.0000000000000000e+00" cType="1" res="-9.9000000000000000e+01" rms="0.0000000000000000e+00" purity="5.3155720233917236e-01" nType="1"/>
            <Node pos="r" depth="3" NCoef="0" IVar="-1" Cut="0.0000000000000000e+00" cType="1" res="-9.9000000000000000e+01" rms="0.0000000000000000e+00" purity="4.2035192251205444e-01" nType="-1"/>
          </Node>
        </Node>
      </Node>
    </BinaryTree>
    <BinaryTree type="DecisionTree" boostWeight="2.3018196706773264e-01" itree="4">
      <Node pos="s" depth="0" NCoef="0" IVar="3" Cut="6.0407757568359375e+02" cType="0" res="-9.9000000000000000e+01" rms="0.0000000000000000e+00" purity="5.7605111598968506e-01" nType="0">
        <Node pos="l" depth="1" NCoef="0" IVar="-1" Cut="4.3256926536560059e+00" cType="0" res="-9.9000000000000000e+01" rms="0.0000000000000000e+00" purity="7.2573429346084595e-01" nType="1"/>
        <Node pos="r" depth="1" NCoef="0" IVar="3" Cut="2.7452438354492188e+02" cType="0" res="-9.9000000000000000e+01" rms="0.0000000000000000e+00" purity="5.1908892393112183e-01" nType="0">
          <Node pos="l" depth="2" NCoef="0" IVar="0" Cut="8.6139617919921875e+01" cType="0" res="-9.9000000000000000e+01" rms="0.0000000000000000e+00" purity="6.0892009735107422e-01" nType="0">
            <Node pos="l" depth="3" NCoef="0" IVar="-1" Cut="0.0000000000000000e+00" cType="1" res="-9.9000000000000000e+01" rms="0.0000000000000000e+00" purity="6.8113923072814941e-01" nType="1"/>
            <Node pos="r" depth="3" NCoef="0" IVar="-1" Cut="0.0000000000000000e+00" cType="1" res="-9.9000000000000000e+01" rms="0.0000000000000000e+00" purity="4.7776931524276733e-01" nType="-1"/>
          </Node>
          <Node pos="r" depth="2" NCoef="0" IVar="-1" Cut="2.0329842567443848e+00" cType="1" res="-9.9000000000000000e+01" rms="0.0000000000000000e+00" purity="4.6348142623901367e-01" nType="-1"/>
        </Node>
      </Node>
    </BinaryTree>
    <BinaryTree type="DecisionTree" boostWeight="1.9682038528393758e-01" itree="5">
      <Node pos="s" depth="0" NCoef="0" IVar="3" Cut="7.9611614990234375e+02" cType="0" res="-9.9000000000000000e+01" rms="0.0000000000000000e+00" purity="5.8345609903335571e-01" nType="0">
        <Node pos="l" depth="1" NCoef="0" IVar="-1" Cut="6.1605153083801270e+00" cType="1" res="-9.9000000000000000e+01" rms="0.0000000000000000e+00" purity="7.3003023862838745e-01" nType="1"/>
        <Node pos="r" depth="1" NCoef="0" IVar="1" Cut="6.0584808349609375e+01" cType="0" res="-9.9000000000000000e+01" rms="0.0000000000000000e+00" purity="5.5328458547592163e-01" nType="0">
          <Node pos="l" depth="2" NCoef="0" IVar="-1" Cut="2.1065223693847656e+02" cType="0" res="-9.9000000000000000e+01" rms="0.0000000000000000e+00" purity="6.5645682811737061e-01" nType="1"/>
          <Node pos="r" depth="2" NCoef="0" IVar="2" Cut="1.5447587585449219e+02" cType="1" res="-9.9000000000000000e+01" rms="0.0000000000000000e+00" purity="5.3675842285156250e-01" nType="0">
            <Node pos="l" depth="3" NCoef="0" IVar="-1" Cut="0.0000000000000000e+00" cType="1" res="-9.9000000000000000e+01" rms="0.0000000000000000e+00" purity="5.5755937099456787e-01" nType="1"/>
            <Node pos="r" depth="3" NCoef="0" IVar="-1" Cut="0.0000000000000000e+00" cType="1" res="-9.9000000000000000e+01" rms="0.0000000000000000e+00" purity="4.5081034302711487e-01" nType="-1"/>
          </Node>
        </Node>
      </Node>
    </BinaryTree>
    <BinaryTree type="DecisionTree" boostWeight="1.4792778409080740e-01" itree="6">
      <Node pos="s" depth="0" NCoef="0" IVar="3" Cut="7.9611614990234375e+02" cType="0" res="-9.9000000000000000e+01" rms="0.0000000000000000e+00" purity="5.4900628328323364e-01" nType="0">
        <Node pos="l" depth="1" NCoef="0" IVar="-1" Cut="6.1605153083801270e+00" cType="1" res="-9.9000000000000000e+01" rms="0.0000000000000000e+00" purity="6.8953704833984375e-01" nType="1"/>
        <Node pos="r" depth="1" NCoef="0" IVar="3" Cut="2.8398205566406250e+02" cType="0" res="-9.9000000000000000e+01" rms="0.0000000000000000e+00" purity="5.2100068330764771e-01" nType="0">
          <Node pos="l" depth="2" NCoef="0" IVar="-1" Cut="5.9089092254638672e+01" cType="0" res="-9.9000000000000000e+01" rms="0.0000000000000000e+00" purity="5.7176542282104492e-01" nType="1"/>
          <Node pos="r" depth="2" NCoef="0" IVar="4" Cut="2.0329842567443848e+00" cType="1" res="-9.9000000000000000e+01" rms="0.0000000000000000e+00" purity="4.8194289207458496e-01" nType="0">
            <Node pos="l" depth="3" NCoef="0" IVar="-1" Cut="0.0000000000000000e+00" cType="1" res="-9.9000000000000000e+01" rms="0.0000000000000000e+00" purity="5.1170599460601807e-01" nType="1"/>
            <Node pos="r" depth="3" NCoef="0" IVar="-1" Cut="0.0000000000000000e+00" cType="1" res="-9.9000000000000000e+01" rms="0.0000000000000000e+00" purity="4.2122438549995422e-01" nType="-1"/>
          </Node>
        </Node>
      </Node>
    </BinaryTree>
    <BinaryTree type="DecisionTree" boostWeight="1.2574297133986423e-01" itree="7">
      <Node pos="s" depth="0" NCoef="0" IVar="3" Cut="7.9611614990234375e+02" cType="0" res="-9.9000000000000000e+01" rms="0.0000000000000000e+00" purity="5.2379429340362549e-01" nType="0">
        <Node pos="l" depth="1" NCoef="0" IVar="4" Cut="6.1605153083801270e+00" cType="1" res="-9.9000000000000000e+01" rms="0.0000000000000000e+00" purity="6.5701675415039062e-01" nType="0">
          <Node pos="l" depth="2" NCoef="0" IVar="-1" Cut="1.6441099548339844e+02" cType="1" res="-9.9000000000000000e+01" rms="0.0000000000000000e+00" purity="7.2191447019577026e-01" nType="1"/>
          <Node pos="r" depth="2" NCoef="0" IVar="-1" Cut="0.0000000000000000e+00" cType="1" res="-9.9000000000000000e+01" rms="0.0000000000000000e+00" purity="4.9436950683593750e-01" nType="-1"/>
        </Node>
        <Node pos="r" depth="1" NCoef="0" IVar="3" Cut="6.4972497558593750e+02" cType="0" res="-9.9000000000000000e+01" rms="0.0000000000000000e+00" purity="4.9779501557350159e-01" nType="0">
          <Node pos="l" depth="2" NCoef="0" IVar="-1" Cut="7.1939593505859375e+02" cType="0" res="-9.9000000000000000e+01" rms="0.0000000000000000e+00" purity="6.4157497882843018e-01" nType="1"/>
          <Node pos="r" depth="2" NCoef="0" IVar="1" Cut="6.0584808349609375e+01" cType="0" res="-9.9000000000000000e+01" rms="0.0000000000000000e+00" purity="4.8671019077301025e-01" nType="0">
            <Node pos="l" depth="3" NCoef="0" IVar="-1" Cut="0.0000000000000000e+00" cType="1" res="-9.9000000000000000e+01" rms="0.0000000000000000e+00" purity="5.8639782667160034e-01" nType="1"/>
            <Node pos="r" depth="3" NCoef="0" IVar="-1" Cut="0.0000000000000000e+00" cType="1" res="-9.9000000000000000e+01" rms="0.0000000000000000e+00" purity="4.7169074416160583e-01" nType="-1"/>
          </Node>
        </Node>
      </Node>
    </BinaryTree>
    <BinaryTree type="DecisionTree" boostWeight="1.2178136428048968e-01" itree="8">
      <Node pos="s" depth="0" NCoef="0" IVar="3" Cut="7.9611614990234375e+02" cType="0" res="-9.9000000000000000e+01" rms="0.0000000000000000e+00" purity="5.3801167011260986e-01" nType="0">
        <Node pos="l" depth="1" NCoef="0" IVar="2" Cut="1.6441099548339844e+02" cType="1" res="-9.9000000000000000e+01" rms="0.0000000000000000e+00" purity="6.4647752046585083e-01" nType="0">
          <Node pos="l" depth="2" NCoef="0" IVar="-1" Cut="6.1219534873962402e+00" cType="1" res="-9.9000000000000000e+01" rms="0.0000000000000000e+00" purity="7.1766364574432373e-01" nType="1"/>
          <Node pos="r" depth="2" NCoef="0" IVar="-1" Cut="0.0000000000000000e+00" cType="1" res="-9.9000000000000000e+01" rms="0.0000000000000000e+00" purity="4.9872142076492310e-01" nType="-1"/>
        </Node>
        <Node pos="r" depth="1" NCoef="0" IVar="0" Cut="8.8520675659179688e+01" cType="0" res="-9.9000000000000000e+01" rms="0.0000000000000000e+00" purity="5.1715588569641113e-01" nType="0">
          <Node pos="l" depth="2" NCoef="0" IVar="-1" Cut="9.4122779846191406e+01" cType="0" res="-9.9000000000000000e+01" rms="0.0000000000000000e+00" purity="5.5138647556304932e-01" nType="1"/>
          <Node pos="r" depth="2" NCoef="0" IVar="3" Cut="2.1083346557617188e+02" cType="0" res="-9.9000000000000000e+01" rms="0.0000000000000000e+00" purity="4.7629421949386597e-01" nType="0">
            <Node pos="l" depth="3" NCoef="0" IVar="-1" Cut="0.0000000000000000e+00" cType="1" res="-9.9000000000000000e+01" rms="0.0000000000000000e+00" purity="5.0990635156631470e-01" nType="1"/>
            <Node pos="r" depth="3" NCoef="0" IVar="-1" Cut="0.0000000000000000e+00" cType="1" res="-9.9000000000000000e+01" rms="0.0000000000000000e+00" purity="4.3171644210815430e-01" nType="-1"/>
          </Node>
        </Node>
      </Node>
    </BinaryTree>
    <BinaryTree type="DecisionTree" boostWeight="1.2433372528762122e-01" itree="9">
      <Node pos="s" depth="0" NCoef="0" IVar="3" Cut="7.9611614990234375e+02" cType="0" res="-9.9000000000000000e+01" rms="0.0000000000000000e+00" purity="5.2094250917434692e-01" nType="0">
        <Node pos="l" depth="1" NCoef="0" IVar="4" Cut="6.1605153083801270e+00" cType="1" res="-9.9000000000000000e+01" rms="0.0000000000000000e+00" purity="6.3832145929336548e-01" nType="0">
          <Node pos="l" depth="2" NCoef="0" IVar="-1" Cut="1.6441099548339844e+02" cType="1" res="-9.9000000000000000e+01" rms="0.0000000000000000e+00" purity="6.9761294126510620e-01" nType="1"/>
          <Node pos="r" depth="2" NCoef="0" IVar="-1" Cut="0.0000000000000000e+00" cType="1" res="-9.9000000000000000e+01" rms="0.0000000000000000e+00" purity="4.9772906303405762e-01" nType="-1"/>
        </Node>
        <Node pos="r" depth="1" NCoef="0" IVar="0" Cut="9.2187850952148438e+01" cType="0" res="-9.9000000000000000e+01" rms="0.0000000000000000e+00" purity="4.9865826964378357e-01" nType="0">
          <Node pos="l" depth="2" NCoef="0" IVar="4" Cut="3.6541559696197510e+00" cType="1" res="-9.9000000000000000e+01" rms="0.0000000000000000e+00" purity="5.5264508724212646e-01" nType="0">
            <Node pos="l" depth="3" NCoef="0" IVar="-1" Cut="0.0000000000000000e+00" cType="1" res="-9.9000000000000000e+01" rms="0.0000000000000000e+00" purity="6.0705178976058960e-01" nType="1"/>
            <Node pos="r" depth="3" NCoef="0" IVar="-1" Cut="0.0000000000000000e+00" cType="1" res="-9.9000000000000000e+01" rms="0.0000000000000000e+00" purity="4.2300835251808167e-01" nType="-1"/>
          </Node>
          <Node pos="r" depth="2" NCoef="0" IVar="3" Cut="3.5713064575195312e+02" cType="0" res="-9.9000000000000000e+01" rms="0.0000000000000000e+00" purity="4.8678970336914062e-01" nType="0">
            <Node pos="l" depth="3" NCoef="0" IVar="-1" Cut="0.0000000000000000e+00" cType="1" res="-9.9000000000000000e+01" rms="0.0000000000000000e+00" purity="5.3344076871871948e-01" nType="1"/>
            <Node pos="r" depth="3" NCoef="0" IVar="-1" Cut="0.0000000000000000e+00" cType="1" res="-9.9000000000000000e+01" rms="0.0000000000000000e+00" purity="4.6292918920516968e-01" nType="-1"/>
          </Node>
        </Node>
      </Node>
    </BinaryTree>
    <BinaryTree type="DecisionTree" boostWeight="1.0026936209373495e-01" itree="10">
      <Node pos="s" depth="0" NCoef="0" IVar="3" Cut="7.9611614990234375e+02" cType="0" res="-9.9000000000000000e+01" rms="0.0000000000000000e+00" purity="5.2410399913787842e-01" nType="0">
        <Node pos="l" depth="1" NCoef="0" IVar="-1" Cut="1.6441099548339844e+02" cType="1" res="-9.9000000000000000e+01" rms="0.0000000000000000e+00" purity="6.2791323661804199e-01" nType="1"/>
        <Node pos="r" depth="1" NCoef="0" IVar="2" Cut="4.1819934844970703e+01" cType="1" res="-9.9000000000000000e+01" rms="0.0000000000000000e+00" purity="5.0462388992309570e-01" nType="0">
          <Node pos="l" depth="2" NCoef="0" IVar="-1" Cut="2.7929772949218750e+02" cType="0" res="-9.9000000000000000e+01" rms="0.0000000000000000e+00" purity="5.6841665506362915e-01" nType="1"/>
          <Node pos="r" depth="2" NCoef="0" IVar="2" Cut="8.4805213928222656e+01" cType="0" res="-9.9000000000000000e+01" rms="0.0000000000000000e+00" purity="4.9542292952537537e-01" nType="0">
            <Node pos="l" depth="3" NCoef="0" IVar="-1" Cut="0.0000000000000000e+00" cType="1" res="-9.9000000000000000e+01" rms="0.0000000000000000e+00" purity="5.2049589157104492e-01" nType="1"/>
            <Node pos="r" depth="3" NCoef="0" IVar="-1" Cut="0.0000000000000000e+00" cType="1" res="-9.9000000000000000e+01" rms="0.0000000000000000e+00" purity="4.5197197794914246e-01" nType="-1"/>
          </Node>
        </Node>
      </Node>
    </BinaryTree>
    <BinaryTree type="DecisionTree" boostWeight="1.0327533704786689e-01" itree="11">
      <Node pos="s" depth="0" NCoef="0" IVar="2" Cut="2.0831282043457031e+02" cType="1" res="-9.9000000000000000e+01" rms="0.0000000000000000e+00" purity="5.1260834932327271e-01" nType="0">
        <Node pos="l" depth="1" NCoef="0" IVar="3" Cut="7.9611614990234375e+02" cType="0" res="-9.9000000000000000e+01" rms="0.0000000000000000e+00" purity="5.2831375598907471e-01" nType="0">
          <Node pos="l" depth="2" NCoef="0" IVar="4" Cut="6.1605153083801270e+00" cType="1" res="-9.9000000000000000e+01" rms="0.0000000000000000e+00" purity="6.9596123695373535e-01" nType="0">
            <Node pos="l" depth="3" NCoef="0" IVar="-1" Cut="0.0000000000000000e+00" cType="1" res="-9.9000000000000000e+01" rms="0.0000000000000000e+00" purity="8.2614123821258545e-01" nType="1"/>
            <Node pos="r" depth="3" NCoef="0" IVar="-1" Cut="0.0000000000000000e+00" cType="1" res="-9.9000000000000000e+01" rms="0.0000000000000000e+00" purity="4.9679371714591980e-01" nType="-1"/>
          </Node>
          <Node pos="r" depth="2" NCoef="0" IVar="3" Cut="6.4972497558593750e+02" cType="0" res="-9.9000000000000000e+01" rms="0.0000000000000000e+00" purity="5.0263041257858276e-01" nType="0">
            <Node pos="l" depth="3" NCoef="0" IVar="-1" Cut="0.0000000000000000e+00" cType="1" res="-9.9000000000000000e+01" rms="0.0000000000000000e+00" purity="7.0933192968368530e-01" nType="1"/>
            <Node pos="r" depth="3" NCoef="0" IVar="-1" Cut="0.0000000000000000e+00" cType="1" res="-9.9000000000000000e+01" rms="0.0000000000000000e+00" purity="4.9122607707977295e-01" nType="-1"/>
          </Node>
        </Node>
        <Node pos="r" depth="1" NCoef="0" IVar="-1" Cut="0.0000000000000000e+00" cType="1" res="-9.9000000000000000e+01" rms="0.0000000000000000e+00" purity="3.7519547343254089e-01" nType="-1"/>
      </Node>
    </BinaryTree>
    <BinaryTree type="DecisionTree" boostWeight="1.0676055783932335e-01" itree="12">
      <Node pos="s" depth="0" NCoef="0" IVar="2" Cut="2.0831282043457031e+02" cType="1" res="-9.9000000000000000e+01" rms="0.0000000000000000e+00" purity="5.3275924921035767e-01" nType="0">
        <Node pos="l" depth="1" NCoef="0" IVar="-1" Cut="7.9611614990234375e+02" cType="0" res="-9.9000000000000000e+01" rms="0.0000000000000000e+00" purity="5.4783827066421509e-01" nType="1"/>
        <Node pos="r" depth="1" NCoef="0" IVar="-1" Cut="0.0000000000000000e+00" cType="1" res="-9.9000000000000000e+01" rms="0.0000000000000000e+00" purity="3.9969971776008606e-01" nType="-1"/>
      </Node>
    </BinaryTree>
    <BinaryTree type="DecisionTree" boostWeight="7.6303540350585439e-02" itree="13">
      <Node pos="s" depth="0" NCoef="0" IVar="3" Cut="1.5642702636718750e+03" cType="0" res="-9.9000000000000000e+01" rms="0.0000000000000000e+00" purity="5.1158857345581055e-01" nType="0">
        <Node pos="l" depth="1" NCoef="0" IVar="-1" Cut="0.0000000000000000e+00" cType="1" res="-9.9000000000000000e+01" rms="0.0000000000000000e+00" purity="7.2848552465438843e-01" nType="1"/>
        <Node pos="r" depth="1" NCoef="0" IVar="2" Cut="2.0831282043457031e+02" cType="1" res="-9.9000000000000000e+01" rms="0.0000000000000000e+00" purity="5.0528234243392944e-01" nType="0">
          <Node pos="l" depth="2" NCoef="0" IVar="3" Cut="6.8393872070312500e+02" cType="0" res="-9.9000000000000000e+01" rms="0.0000000000000000e+00" purity="5.1656079292297363e-01" nType="0">
            <Node pos="l" depth="3" NCoef="0" IVar="-1" Cut="0.0000000000000000e+00" cType="1" res="-9.9000000000000000e+01" rms="0.0000000000000000e+00" purity="6.5192097425460815e-01" nType="1"/>
            <Node pos="r" depth="3" NCoef="0" IVar="-1" Cut="0.0000000000000000e+00" cType="1" res="-9.9000000000000000e+01" rms="0.0000000000000000e+00" purity="4.9481841921806335e-01" nType="-1"/>
          </Node>
          <Node pos="r" depth="2" NCoef="0" IVar="-1" Cut="0.0000000000000000e+00" cType="1" res="-9.9000000000000000e+01" rms="0.0000000000000000e+00" purity="4.0434488654136658e-01" nType="-1"/>
        </Node>
      </Node>
    </BinaryTree>
    <BinaryTree type="DecisionTree" boostWeight="8.0254866295394786e-02" itree="14">
      <Node pos="s" depth="0" NCoef="0" IVar="3" Cut="1.5642702636718750e+03" cType="0" res="-9.9000000000000000e+01" rms="0.0000000000000000e+00" purity="5.2503758668899536e-01" nType="0">
        <Node pos="l" depth="1" NCoef="0" IVar="-1" Cut="0.0000000000000000e+00" cType="1" res="-9.9000000000000000e+01" rms="0.0000000000000000e+00" purity="7.1313291788101196e-01" nType="1"/>
        <Node pos="r" depth="1" NCoef="0" IVar="2" Cut="2.0831282043457031e+02" cType="1" res="-9.9000000000000000e+01" rms="0.0000000000000000e+00" purity="5.1965069770812988e-01" nType="0">
          <Node pos="l" depth="2" NCoef="0" IVar="-1" Cut="6.8393872070312500e+02" cType="0" res="-9.9000000000000000e+01" rms="0.0000000000000000e+00" purity="5.3040903806686401e-01" nType="1"/>
          <Node pos="r" depth="2" NCoef="0" IVar="-1" Cut="0.0000000000000000e+00" cType="1" res="-9.9000000000000000e+01" rms="0.0000000000000000e+00" purity="4.2284867167472839e-01" nType="-1"/>
        </Node>
      </Node>
    </BinaryTree>
    <BinaryTree type="DecisionTree" boostWeight="5.6227505947837306e-02" itree="15">
      <Node pos="s" depth="0" NCoef="0" IVar="3" Cut="1.5642702636718750e+03" cType="0" res="-9.9000000000000000e+01" rms="0.0000000000000000e+00" purity="5.0891304016113281e-01" nType="0">
        <Node pos="l" depth="1" NCoef="0" IVar="-1" Cut="0.0000000000000000e+00" cType="1" res="-9.9000000000000000e+01" rms="0.0000000000000000e+00" purity="6.9643819332122803e-01" nType="1"/>
        <Node pos="r" depth="1" NCoef="0" IVar="3" Cut="1.2670291748046875e+03" cType="1" res="-9.9000000000000000e+01" rms="0.0000000000000000e+00" purity="5.0361937284469604e-01" nType="0">
          <Node pos="l" depth="2" NCoef="0" IVar="4" Cut="4.7912387847900391e+00" cType="0" res="-9.9000000000000000e+01" rms="0.0000000000000000e+00" purity="5.1004910469055176e-01" nType="0">
            <Node pos="l" depth="3" NCoef="0" IVar="-1" Cut="0.0000000000000000e+00" cType="1" res="-9.9000000000000000e+01" rms="0.0000000000000000e+00" purity="6.6793572902679443e-01" nType="1"/>
            <Node pos="r" depth="3" NCoef="0" IVar="-1" Cut="0.0000000000000000e+00" cType="1" res="-9.9000000000000000e+01" rms="0.0000000000000000e+00" purity="4.9553447961807251e-01" nType="-1"/>
          </Node>
          <Node pos="r" depth="2" NCoef="0" IVar="-1" Cut="0.0000000000000000e+00" cType="1" res="-9.9000000000000000e+01" rms="0.0000000000000000e+00" purity="3.7296089529991150e-01" nType="-1"/>
        </Node>
      </Node>
    </BinaryTree>
    <BinaryTree type="DecisionTree" boostWeight="6.0788120157640110e-02" itree="16">
      <Node pos="s" depth="0" NCoef="0" IVar="3" Cut="1.5642702636718750e+03" cType="0" res="-9.9000000000000000e+01" rms="0.0000000000000000e+00" purity="5.2003282308578491e-01" nType="0">
        <Node pos="l" depth="1" NCoef="0" IVar="-1" Cut="0.0000000000000000e+00" cType="1" res="-9.9000000000000000e+01" rms="0.0000000000000000e+00" purity="6.8442147970199585e-01" nType="1"/>
        <Node pos="r" depth="1" NCoef="0" IVar="3" Cut="1.2670291748046875e+03" cType="1" res="-9.9000000000000000e+01" rms="0.0000000000000000e+00" purity="5.1543748378753662e-01" nType="0">
          <Node pos="l" depth="2" NCoef="0" IVar="-1" Cut="7.9493994140625000e+02" cType="0" res="-9.9000000000000000e+01" rms="0.0000000000000000e+00" purity="5.2175825834274292e-01" nType="1"/>
          <Node pos="r" depth="2" NCoef="0" IVar="-1" Cut="0.0000000000000000e+00" cType="1" res="-9.9000000000000000e+01" rms="0.0000000000000000e+00" purity="3.8620138168334961e-01" nType="-1"/>
        </Node>
      </Node>
    </BinaryTree>
    <BinaryTree type="DecisionTree" boostWeight="9.0645897240294468e-02" itree="17">
      <Node pos="s" depth="0" NCoef="0" IVar="3" Cut="7.9611614990234375e+02" cType="0" res="-9.9000000000000000e+01" rms="0.0000000000000000e+00" purity="5.0623023509979248e-01" nType="0">
        <Node pos="l" depth="1" NCoef="0" IVar="4" Cut="6.1605153083801270e+00" cType="1" res="-9.9000000000000000e+01" rms="0.0000000000000000e+00" purity="5.7312679290771484e-01" nType="0">
          <Node pos="l" depth="2" NCoef="0" IVar="2" Cut="1.6441099548339844e+02" cType="1" res="-9.9000000000000000e+01" rms="0.0000000000000000e+00" purity="6.2915170192718506e-01" nType="0">
            <Node pos="l" depth="3" NCoef="0" IVar="-1" Cut="0.0000000000000000e+00" cType="1" res="-9.9000000000000000e+01" rms="0.0000000000000000e+00" purity="7.5571280717849731e-01" nType="1"/>
            <Node pos="r" depth="3" NCoef="0" IVar="-1" Cut="0.0000000000000000e+00" cType="1" res="-9.9000000000000000e+01" rms="0.0000000000000000e+00" purity="4.9212089180946350e-01" nType="-1"/>
          </Node>
          <Node pos="r" depth="2" NCoef="0" IVar="-1" Cut="0.0000000000000000e+00" cType="1" res="-9.9000000000000000e+01" rms="0.0000000000000000e+00" purity="4.5801195502281189e-01" nType="-1"/>
        </Node>
        <Node pos="r" depth="1" NCoef="0" IVar="3" Cut="5.7657641601562500e+02" cType="1" res="-9.9000000000000000e+01" rms="0.0000000000000000e+00" purity="4.9470931291580200e-01" nType="0">
          <Node pos="l" depth="2" NCoef="0" IVar="1" Cut="2.1773174285888672e+01" cType="1" res="-9.9000000000000000e+01" rms="0.0000000000000000e+00" purity="5.0675475597381592e-01" nType="0">
            <Node pos="l" depth="3" NCoef="0" IVar="-1" Cut="0.0000000000000000e+00" cType="1" res="-9.9000000000000000e+01" rms="0.0000000000000000e+00" purity="5.7648545503616333e-01" nType="1"/>
            <Node pos="r" depth="3" NCoef="0" IVar="-1" Cut="0.0000000000000000e+00" cType="1" res="-9.9000000000000000e+01" rms="0.0000000000000000e+00" purity="4.9492427706718445e-01" nType="-1"/>
          </Node>
          <Node pos="r" depth="2" NCoef="0" IVar="1" Cut="3.1288003921508789e+01" cType="0" res="-9.9000000000000000e+01" rms="0.0000000000000000e+00" purity="4.1752254962921143e-01" nType="0">
            <Node pos="l" depth="3" NCoef="0" IVar="-1" Cut="0.0000000000000000e+00" cType="1" res="-9.9000000000000000e+01" rms="0.0000000000000000e+00" purity="5.8728349208831787e-01" nType="1"/>
            <Node pos="r" depth="3" NCoef="0" IVar="-1" Cut="0.0000000000000000e+00" cType="1" res="-9.9000000000000000e+01" rms="0.0000000000000000e+00" purity="2.8582698106765747e-01" nType="-1"/>
          </Node>
        </Node>
      </Node>
    </BinaryTree>
    <BinaryTree type="DecisionTree" boostWeight="7.3238828712565471e-02" itree="18">
      <Node pos="s" depth="0" NCoef="0" IVar="3" Cut="1.5642702636718750e+03" cType="0" res="-9.9000000000000000e+01" rms="0.0000000000000000e+00" purity="5.1950281858444214e-01" nType="0">
        <Node pos="l" depth="1" NCoef="0" IVar="-1" Cut="0.0000000000000000e+00" cType="1" res="-9.9000000000000000e+01" rms="0.0000000000000000e+00" purity="6.8768209218978882e-01" nType="1"/>
        <Node pos="r" depth="1" NCoef="0" IVar="1" Cut="6.0584808349609375e+01" cType="0" res="-9.9000000000000000e+01" rms="0.0000000000000000e+00" purity="5.1480185985565186e-01" nType="0">
          <Node pos="l" depth="2" NCoef="0" IVar="1" Cut="7.8402381896972656e+01" cType="1" res="-9.9000000000000000e+01" rms="0.0000000000000000e+00" purity="5.7602858543395996e-01" nType="0">
            <Node pos="l" depth="3" NCoef="0" IVar="-1" Cut="0.0000000000000000e+00" cType="1" res="-9.9000000000000000e+01" rms="0.0000000000000000e+00" purity="6.5641421079635620e-01" nType="1"/>
            <Node pos="r" depth="3" NCoef="0" IVar="-1" Cut="0.0000000000000000e+00" cType="1" res="-9.9000000000000000e+01" rms="0.0000000000000000e+00" purity="4.3314951658248901e-01" nType="-1"/>
          </Node>
          <Node pos="r" depth="2" NCoef="0" IVar="3" Cut="1.2671153564453125e+03" cType="1" res="-9.9000000000000000e+01" rms="0.0000000000000000e+00" purity="5.0517433881759644e-01" nType="0">
            <Node pos="l" depth="3" NCoef="0" IVar="-1" Cut="0.0000000000000000e+00" cType="1" res="-9.9000000000000000e+01" rms="0.0000000000000000e+00" purity="5.1211810111999512e-01" nType="1"/>
            <Node pos="r" depth="3" NCoef="0" IVar="-1" Cut="0.0000000000000000e+00" cType="1" res="-9.9000000000000000e+01" rms="0.0000000000000000e+00" purity="3.6864489316940308e-01" nType="-1"/>
          </Node>
        </Node>
      </Node>
    </BinaryTree>
    <BinaryTree type="DecisionTree" boostWeight="9.0488502842069329e-02" itree="19">
      <Node pos="s" depth="0" NCoef="0" IVar="1" Cut="6.0584808349609375e+01" cType="0" res="-9.9000000000000000e+01" rms="0.0000000000000000e+00" purity="5.0444436073303223e-01" nType="0">
        <Node pos="l" depth="1" NCoef="0" IVar="1" Cut="7.8402381896972656e+01" cType="1" res="-9.9000000000000000e+01" rms="0.0000000000000000e+00" purity="5.8339422941207886e-01" nType="0">
          <Node pos="l" depth="2" NCoef="0" IVar="-1" Cut="7.8289080810546875e+02" cType="0" res="-9.9000000000000000e+01" rms="0.0000000000000000e+00" purity="6.5185928344726562e-01" nType="1"/>
          <Node pos="r" depth="2" NCoef="0" IVar="-1" Cut="0.0000000000000000e+00" cType="1" res="-9.9000000000000000e+01" rms="0.0000000000000000e+00" purity="4.6037608385086060e-01" nType="-1"/>
        </Node>
        <Node pos="r" depth="1" NCoef="0" IVar="1" Cut="3.9745780944824219e+01" cType="1" res="-9.9000000000000000e+01" rms="0.0000000000000000e+00" purity="4.9211579561233521e-01" nType="0">
          <Node pos="l" depth="2" NCoef="0" IVar="3" Cut="6.8650274658203125e+02" cType="0" res="-9.9000000000000000e+01" rms="0.0000000000000000e+00" purity="5.0979059934616089e-01" nType="0">
            <Node pos="l" depth="3" NCoef="0" IVar="-1" Cut="0.0000000000000000e+00" cType="1" res="-9.9000000000000000e+01" rms="0.0000000000000000e+00" purity="6.4664059877395630e-01" nType="1"/>
            <Node pos="r" depth="3" NCoef="0" IVar="-1" Cut="0.0000000000000000e+00" cType="1" res="-9.9000000000000000e+01" rms="0.0000000000000000e+00" purity="4.8682475090026855e-01" nType="-1"/>
          </Node>
          <Node pos="r" depth="2" NCoef="0" IVar="-1" Cut="5.4800786972045898e+00" cType="1" res="-9.9000000000000000e+01" rms="0.0000000000000000e+00" purity="4.6113389730453491e-01" nType="-1"/>
        </Node>
      </Node>
    </BinaryTree>
    <BinaryTree type="DecisionTree" boostWeight="8.3279299489341846e-02" itree="20">
      <Node pos="s" depth="0" NCoef="0" IVar="3" Cut="1.5642702636718750e+03" cType="0" res="-9.9000000000000000e+01" rms="0.0000000000000000e+00" purity="5.1962953805923462e-01" nType="0">
        <Node pos="l" depth="1" NCoef="0" IVar="-1" Cut="0.0000000000000000e+00" cType="1" res="-9.9000000000000000e+01" rms="0.0000000000000000e+00" purity="6.7663824558258057e-01" nType="1"/>
        <Node pos="r" depth="1" NCoef="0" IVar="0" Cut="8.8520675659179688e+01" cType="0" res="-9.9000000000000000e+01" rms="0.0000000000000000e+00" purity="5.1535093784332275e-01" nType="0">
          <Node pos="l" depth="2" NCoef="0" IVar="-1" Cut="9.4118141174316406e+01" cType="0" res="-9.9000000000000000e+01" rms="0.0000000000000000e+00" purity="5.3617477416992188e-01" nType="1"/>
          <Node pos="r" depth="2" NCoef="0" IVar="4" Cut="3.1014714241027832e+00" cType="1" res="-9.9000000000000000e+01" rms="0.0000000000000000e+00" purity="4.9065890908241272e-01" nType="0">
            <Node pos="l" depth="3" NCoef="0" IVar="-1" Cut="0.0000000000000000e+00" cType="1" res="-9.9000000000000000e+01" rms="0.0000000000000000e+00" purity="5.2821505069732666e-01" nType="1"/>
            <Node pos="r" depth="3" NCoef="0" IVar="-1" Cut="0.0000000000000000e+00" cType="1" res="-9.9000000000000000e+01" rms="0.0000000000000000e+00" purity="4.4641417264938354e-01" nType="-1"/>
          </Node>
        </Node>
      </Node>
    </BinaryTree>
    <BinaryTree type="DecisionTree" boostWeight="8.3803031592174254e-02" itree="21">
      <Node pos="s" depth="0" NCoef="0" IVar="3" Cut="7.9611614990234375e+02" cType="0" res="-9.9000000000000000e+01" rms="0.0000000000000000e+00" purity="5.0735658407211304e-01" nType="0">
        <Node pos="l" depth="1" NCoef="0" IVar="-1" Cut="6.2900630950927734e+01" cType="0" res="-9.9000000000000000e+01" rms="0.0000000000000000e+00" purity="5.7032680511474609e-01" nType="1"/>
        <Node pos="r" depth="1" NCoef="0" IVar="3" Cut="5.7657641601562500e+02" cType="1" res="-9.9000000000000000e+01" rms="0.0000000000000000e+00" purity="4.9683320522308350e-01" nType="0">
          <Node pos="l" depth="2" NCoef="0" IVar="3" Cut="2.6278100585937500e+02" cType="0" res="-9.9000000000000000e+01" rms="0.0000000000000000e+00" purity="5.1016956567764282e-01" nType="0">
            <Node pos="l" depth="3" NCoef="0" IVar="-1" Cut="0.0000000000000000e+00" cType="1" res="-9.9000000000000000e+01" rms="0.0000000000000000e+00" purity="5.4309737682342529e-01" nType="1"/>
            <Node pos="r" depth="3" NCoef="0" IVar="-1" Cut="0.0000000000000000e+00" cType="1" res="-9.9000000000000000e+01" rms="0.0000000000000000e+00" purity="4.9093094468116760e-01" nType="-1"/>
          </Node>
          <Node pos="r" depth="2" NCoef="0" IVar="1" Cut="3.1288003921508789e+01" cType="0" res="-9.9000000000000000e+01" rms="0.0000000000000000e+00" purity="4.1006305813789368e-01" nType="0">
            <Node pos="l" depth="3" NCoef="0" IVar="-1" Cut="0.0000000000000000e+00" cType="1" res="-9.9000000000000000e+01" rms="0.0000000000000000e+00" purity="5.5356442928314209e-01" nType="1"/>
            <Node pos="r" depth="3" NCoef="0" IVar="-1" Cut="0.0000000000000000e+00" cType="1" res="-9.9000000000000000e+01" rms="0.0000000000000000e+00" purity="2.9610720276832581e-01" nType="-1"/>
          </Node>
        </Node>
      </Node>
    </BinaryTree>
    <BinaryTree type="DecisionTree" boostWeight="1.0896758115610043e-01" itree="22">
      <Node pos="s" depth="0" NCoef="0" IVar="1" Cut="6.0584808349609375e+01" cType="0" res="-9.9000000000000000e+01" rms="0.0000000000000000e+00" purity="5.0874394178390503e-01" nType="0">
        <Node pos="l" depth="1" NCoef="0" IVar="4" Cut="3.0134670734405518e+00" cType="0" res="-9.9000000000000000e+01" rms="0.0000000000000000e+00" purity="5.6411898136138916e-01" nType="0">
          <Node pos="l" depth="2" NCoef="0" IVar="-1" Cut="7.5897659301757812e+01" cType="1" res="-9.9000000000000000e+01" rms="0.0000000000000000e+00" purity="6.4783298969268799e-01" nType="1"/>
          <Node pos="r" depth="2" NCoef="0" IVar="-1" Cut="0.0000000000000000e+00" cType="1" res="-9.9000000000000000e+01" rms="0.0000000000000000e+00" purity="4.8909410834312439e-01" nType="-1"/>
        </Node>
        <Node pos="r" depth="1" NCoef="0" IVar="3" Cut="4.1244854736328125e+02" cType="1" res="-9.9000000000000000e+01" rms="0.0000000000000000e+00" purity="5.0021362304687500e-01" nType="0">
          <Node pos="l" depth="2" NCoef="0" IVar="4" Cut="3.3482882976531982e+00" cType="1" res="-9.9000000000000000e+01" rms="0.0000000000000000e+00" purity="5.2354395389556885e-01" nType="0">
            <Node pos="l" depth="3" NCoef="0" IVar="-1" Cut="0.0000000000000000e+00" cType="1" res="-9.9000000000000000e+01" rms="0.0000000000000000e+00" purity="5.4236286878585815e-01" nType="1"/>
            <Node pos="r" depth="3" NCoef="0" IVar="-1" Cut="0.0000000000000000e+00" cType="1" res="-9.9000000000000000e+01" rms="0.0000000000000000e+00" purity="4.1393408179283142e-01" nType="-1"/>
          </Node>
          <Node pos="r" depth="2" NCoef="0" IVar="4" Cut="4.8031716346740723e+00" cType="0" res="-9.9000000000000000e+01" rms="0.0000000000000000e+00" purity="4.6426630020141602e-01" nType="0">
            <Node pos="l" depth="3" NCoef="0" IVar="-1" Cut="0.0000000000000000e+00" cType="1" res="-9.9000000000000000e+01" rms="0.0000000000000000e+00" purity="5.2776217460632324e-01" nType="1"/>
            <Node pos="r" depth="3" NCoef="0" IVar="-1" Cut="0.0000000000000000e+00" cType="1" res="-9.9000000000000000e+01" rms="0.0000000000000000e+00" purity="4.3213614821434021e-01" nType="-1"/>
          </Node>
        </Node>
      </Node>
    </BinaryTree>
    <BinaryTree type="DecisionTree" boostWeight="6.9453987020981725e-02" itree="23">
      <Node pos="s" depth="0" NCoef="0" IVar="1" Cut="6.0584808349609375e+01" cType="0" res="-9.9000000000000000e+01" rms="0.0000000000000000e+00" purity="5.0188857316970825e-01" nType="0">
        <Node pos="l" depth="1" NCoef="0" IVar="1" Cut="7.8402381896972656e+01" cType="1" res="-9.9000000000000000e+01" rms="0.0000000000000000e+00" purity="5.6615328788757324e-01" nType="0">
          <Node pos="l" depth="2" NCoef="0" IVar="-1" Cut="7.8289080810546875e+02" cType="0" res="-9.9000000000000000e+01" rms="0.0000000000000000e+00" purity="6.2342268228530884e-01" nType="1"/>
          <Node pos="r" depth="2" NCoef="0" IVar="-1" Cut="0.0000000000000000e+00" cType="1" res="-9.9000000000000000e+01" rms="0.0000000000000000e+00" purity="4.6737647056579590e-01" nType="-1"/>
        </Node>
        <Node pos="r" depth="1" NCoef="0" IVar="1" Cut="3.9745780944824219e+01" cType="1" res="-9.9000000000000000e+01" rms="0.0000000000000000e+00" purity="4.9201551079750061e-01" nType="0">
          <Node pos="l" depth="2" NCoef="0" IVar="3" Cut="6.8650274658203125e+02" cType="0" res="-9.9000000000000000e+01" rms="0.0000000000000000e+00" purity="5.0977373123168945e-01" nType="0">
            <Node pos="l" depth="3" NCoef="0" IVar="-1" Cut="0.0000000000000000e+00" cType="1" res="-9.9000000000000000e+01" rms="0.0000000000000000e+00" purity="6.0074293613433838e-01" nType="1"/>
            <Node pos="r" depth="3" NCoef="0" IVar="-1" Cut="0.0000000000000000e+00" cType="1" res="-9.9000000000000000e+01" rms="0.0000000000000000e+00" purity="4.9470499157905579e-01" nType="-1"/>
          </Node>
          <Node pos="r" depth="2" NCoef="0" IVar="-1" Cut="5.4800786972045898e+00" cType="1" res="-9.9000000000000000e+01" rms="0.0000000000000000e+00" purity="4.6116924285888672e-01" nType="-1"/>
        </Node>
      </Node>
    </BinaryTree>
    <BinaryTree type="DecisionTree" boostWeight="6.8326913065970107e-02" itree="24">
      <Node pos="s" depth="0" NCoef="0" IVar="1" Cut="6.0584808349609375e+01" cType="0" res="-9.9000000000000000e+01" rms="0.0000000000000000e+00" purity="5.1363795995712280e-01" nType="0">
        <Node pos="l" depth="1" NCoef="0" IVar="3" Cut="8.1061267089843750e+02" cType="0" res="-9.9000000000000000e+01" rms="0.0000000000000000e+00" purity="5.6192386150360107e-01" nType="0">
          <Node pos="l" depth="2" NCoef="0" IVar="-1" Cut="0.0000000000000000e+00" cType="1" res="-9.9000000000000000e+01" rms="0.0000000000000000e+00" purity="7.2546869516372681e-01" nType="1"/>
          <Node pos="r" depth="2" NCoef="0" IVar="3" Cut="2.1396641540527344e+02" cType="0" res="-9.9000000000000000e+01" rms="0.0000000000000000e+00" purity="5.3270995616912842e-01" nType="0">
            <Node pos="l" depth="3" NCoef="0" IVar="-1" Cut="0.0000000000000000e+00" cType="1" res="-9.9000000000000000e+01" rms="0.0000000000000000e+00" purity="5.9582465887069702e-01" nType="1"/>
            <Node pos="r" depth="3" NCoef="0" IVar="-1" Cut="0.0000000000000000e+00" cType="1" res="-9.9000000000000000e+01" rms="0.0000000000000000e+00" purity="4.7010239958763123e-01" nType="-1"/>
          </Node>
        </Node>
        <Node pos="r" depth="1" NCoef="0" IVar="4" Cut="5.4750413894653320e+00" cType="1" res="-9.9000000000000000e+01" rms="0.0000000000000000e+00" purity="5.0625270605087280e-01" nType="0">
          <Node pos="l" depth="2" NCoef="0" IVar="-1" Cut="4.6928195953369141e+00" cType="0" res="-9.9000000000000000e+01" rms="0.0000000000000000e+00" purity="5.1364719867706299e-01" nType="1"/>
          <Node pos="r" depth="2" NCoef="0" IVar="2" Cut="1.0282535552978516e+02" cType="0" res="-9.9000000000000000e+01" rms="0.0000000000000000e+00" purity="4.2786511778831482e-01" nType="0">
            <Node pos="l" depth="3" NCoef="0" IVar="-1" Cut="0.0000000000000000e+00" cType="1" res="-9.9000000000000000e+01" rms="0.0000000000000000e+00" purity="6.8488824367523193e-01" nType="1"/>
            <Node pos="r" depth="3" NCoef="0" IVar="-1" Cut="0.0000000000000000e+00" cType="1" res="-9.9000000000000000e+01" rms="0.0000000000000000e+00" purity="3.5189306735992432e-01" nType="-1"/>
          </Node>
        </Node>
      </Node>
    </BinaryTree>
    <BinaryTree type="DecisionTree" boostWeight="8.2986558611913841e-02" itree="25">
      <Node pos="s" depth="0" NCoef="0" IVar="1" Cut="6.0584808349609375e+01" cType="0" res="-9.9000000000000000e+01" rms="0.0000000000000000e+00" purity="5.0046432018280029e-01" nType="0">
        <Node pos="l" depth="1" NCoef="0" IVar="3" Cut="8.1061267089843750e+02" cType="0" res="-9.9000000000000000e+01" rms="0.0000000000000000e+00" purity="5.5975115299224854e-01" nType="0">
          <Node pos="l" depth="2" NCoef="0" IVar="-1" Cut="0.0000000000000000e+00" cType="1" res="-9.9000000000000000e+01" rms="0.0000000000000000e+00" purity="7.1165293455123901e-01" nType="1"/>
          <Node pos="r" depth="2" NCoef="0" IVar="3" Cut="2.1396641540527344e+02" cType="0" res="-9.9000000000000000e+01" rms="0.0000000000000000e+00" purity="5.3291982412338257e-01" nType="0">
            <Node pos="l" depth="3" NCoef="0" IVar="-1" Cut="0.0000000000000000e+00" cType="1" res="-9.9000000000000000e+01" rms="0.0000000000000000e+00" purity="5.7926833629608154e-01" nType="1"/>
            <Node pos="r" depth="3" NCoef="0" IVar="-1" Cut="0.0000000000000000e+00" cType="1" res="-9.9000000000000000e+01" rms="0.0000000000000000e+00" purity="4.8715123534202576e-01" nType="-1"/>
          </Node>
        </Node>
        <Node pos="r" depth="1" NCoef="0" IVar="1" Cut="2.3575531005859375e+01" cType="1" res="-9.9000000000000000e+01" rms="0.0000000000000000e+00" purity="4.9143460392951965e-01" nType="0">
          <Node pos="l" depth="2" NCoef="0" IVar="1" Cut="1.7522865295410156e+01" cType="0" res="-9.9000000000000000e+01" rms="0.0000000000000000e+00" purity="5.3268098831176758e-01" nType="0">
            <Node pos="l" depth="3" NCoef="0" IVar="-1" Cut="0.0000000000000000e+00" cType="1" res="-9.9000000000000000e+01" rms="0.0000000000000000e+00" purity="6.1548221111297607e-01" nType="1"/>
            <Node pos="r" depth="3" NCoef="0" IVar="-1" Cut="0.0000000000000000e+00" cType="1" res="-9.9000000000000000e+01" rms="0.0000000000000000e+00" purity="4.3401244282722473e-01" nType="-1"/>
          </Node>
          <Node pos="r" depth="2" NCoef="0" IVar="4" Cut="3.7933304309844971e+00" cType="1" res="-9.9000000000000000e+01" rms="0.0000000000000000e+00" purity="4.8081064224243164e-01" nType="0">
            <Node pos="l" depth="3" NCoef="0" IVar="-1" Cut="0.0000000000000000e+00" cType="1" res="-9.9000000000000000e+01" rms="0.0000000000000000e+00" purity="5.0250864028930664e-01" nType="1"/>
            <Node pos="r" depth="3" NCoef="0" IVar="-1" Cut="0.0000000000000000e+00" cType="1" res="-9.9000000000000000e+01" rms="0.0000000000000000e+00" purity="4.3822103738784790e-01" nType="-1"/>
          </Node>
        </Node>
      </Node>
    </BinaryTree>
    <BinaryTree type="DecisionTree" boostWeight="6.6911946904214412e-02" itree="26">
      <Node pos="s" depth="0" NCoef="0" IVar="1" Cut="6.0584808349609375e+01" cType="0" res="-9.9000000000000000e+01" rms="0.0000000000000000e+00" purity="4.9507850408554077e-01" nType="0">
        <Node pos="l" depth="1" NCoef="0" IVar="1" Cut="7.8402381896972656e+01" cType="1" res="-9.9000000000000000e+01" rms="0.0000000000000000e+00" purity="5.5708426237106323e-01" nType="0">
          <Node pos="l" depth="2" NCoef="0" IVar="-1" Cut="7.8289080810546875e+02" cType="0" res="-9.9000000000000000e+01" rms="0.0000000000000000e+00" purity="6.0574561357498169e-01" nType="1"/>
          <Node pos="r" depth="2" NCoef="0" IVar="-1" Cut="0.0000000000000000e+00" cType="1" res="-9.9000000000000000e+01" rms="0.0000000000000000e+00" purity="4.7541993856430054e-01" nType="-1"/>
        </Node>
        <Node pos="r" depth="1" NCoef="0" IVar="1" Cut="2.3575531005859375e+01" cType="1" res="-9.9000000000000000e+01" rms="0.0000000000000000e+00" purity="4.8566123843193054e-01" nType="0">
          <Node pos="l" depth="2" NCoef="0" IVar="-1" Cut="4.5688791275024414e+00" cType="0" res="-9.9000000000000000e+01" rms="0.0000000000000000e+00" purity="5.3110766410827637e-01" nType="1"/>
          <Node pos="r" depth="2" NCoef="0" IVar="-1" Cut="2.7120365142822266e+01" cType="0" res="-9.9000000000000000e+01" rms="0.0000000000000000e+00" purity="4.7402396798133850e-01" nType="-1"/>
        </Node>
      </Node>
    </BinaryTree>
    <BinaryTree type="DecisionTree" boostWeight="4.4995284303197554e-02" itree="27">
      <Node pos="s" depth="0" NCoef="0" IVar="3" Cut="1.5642702636718750e+03" cType="0" res="-9.9000000000000000e+01" rms="0.0000000000000000e+00" purity="5.0312513113021851e-01" nType="0">
        <Node pos="l" depth="1" NCoef="0" IVar="-1" Cut="0.0000000000000000e+00" cType="1" res="-9.9000000000000000e+01" rms="0.0000000000000000e+00" purity="6.3861048221588135e-01" nType="1"/>
        <Node pos="r" depth="1" NCoef="0" IVar="2" Cut="2.0831282043457031e+02" cType="1" res="-9.9000000000000000e+01" rms="0.0000000000000000e+00" purity="4.9961370229721069e-01" nType="0">
          <Node pos="l" depth="2" NCoef="0" IVar="3" Cut="7.5682501220703125e+02" cType="0" res="-9.9000000000000000e+01" rms="0.0000000000000000e+00" purity="5.0683534145355225e-01" nType="0">
            <Node pos="l" depth="3" NCoef="0" IVar="-1" Cut="0.0000000000000000e+00" cType="1" res="-9.9000000000000000e+01" rms="0.0000000000000000e+00" purity="5.9912717342376709e-01" nType="1"/>
            <Node pos="r" depth="3" NCoef="0" IVar="-1" Cut="0.0000000000000000e+00" cType="1" res="-9.9000000000000000e+01" rms="0.0000000000000000e+00" purity="4.9577972292900085e-01" nType="-1"/>
          </Node>
          <Node pos="r" depth="2" NCoef="0" IVar="-1" Cut="0.0000000000000000e+00" cType="1" res="-9.9000000000000000e+01" rms="0.0000000000000000e+00" purity="4.3465533852577209e-01" nType="-1"/>
        </Node>
      </Node>
    </BinaryTree>
    <BinaryTree type="DecisionTree" boostWeight="4.0717697147350504e-02" itree="28">
      <Node pos="s" depth="0" NCoef="0" IVar="1" Cut="6.5440750122070312e+01" cType="0" res="-9.9000000000000000e+01" rms="0.0000000000000000e+00" purity="5.1170480251312256e-01" nType="0">
        <Node pos="l" depth="1" NCoef="0" IVar="1" Cut="7.9364738464355469e+01" cType="1" res="-9.9000000000000000e+01" rms="0.0000000000000000e+00" purity="5.6985181570053101e-01" nType="0">
          <Node pos="l" depth="2" NCoef="0" IVar="-1" Cut="4.0542642211914062e+02" cType="0" res="-9.9000000000000000e+01" rms="0.0000000000000000e+00" purity="6.3903093338012695e-01" nType="1"/>
          <Node pos="r" depth="2" NCoef="0" IVar="-1" Cut="0.0000000000000000e+00" cType="1" res="-9.9000000000000000e+01" rms="0.0000000000000000e+00" purity="4.7892433404922485e-01" nType="-1"/>
        </Node>
        <Node pos="r" depth="1" NCoef="0" IVar="1" Cut="1.7109439849853516e+01" cType="0" res="-9.9000000000000000e+01" rms="0.0000000000000000e+00" purity="5.0509679317474365e-01" nType="0">
          <Node pos="l" depth="2" NCoef="0" IVar="-1" Cut="6.6517616271972656e+01" cType="1" res="-9.9000000000000000e+01" rms="0.0000000000000000e+00" purity="5.0965565443038940e-01" nType="1"/>
          <Node pos="r" depth="2" NCoef="0" IVar="-1" Cut="0.0000000000000000e+00" cType="1" res="-9.9000000000000000e+01" rms="0.0000000000000000e+00" purity="4.5331111550331116e-01" nType="-1"/>
        </Node>
      </Node>
    </BinaryTree>
    <BinaryTree type="DecisionTree" boostWeight="6.6061081295039931e-02" itree="29">
      <Node pos="s" depth="0" NCoef="0" IVar="1" Cut="6.5440750122070312e+01" cType="0" res="-9.9000000000000000e+01" rms="0.0000000000000000e+00" purity="5.0390654802322388e-01" nType="0">
        <Node pos="l" depth="1" NCoef="0" IVar="-1" Cut="3.7907905578613281e+00" cType="0" res="-9.9000000000000000e+01" rms="0.0000000000000000e+00" purity="5.6871563196182251e-01" nType="1"/>
        <Node pos="r" depth="1" NCoef="0" IVar="2" Cut="2.0831282043457031e+02" cType="1" res="-9.9000000000000000e+01" rms="0.0000000000000000e+00" purity="4.9656403064727783e-01" nType="0">
          <Node pos="l" depth="2" NCoef="0" IVar="2" Cut="6.1851612091064453e+01" cType="1" res="-9.9000000000000000e+01" rms="0.0000000000000000e+00" purity="5.0166165828704834e-01" nType="0">
            <Node pos="l" depth="3" NCoef="0" IVar="-1" Cut="0.0000000000000000e+00" cType="1" res="-9.9000000000000000e+01" rms="0.0000000000000000e+00" purity="5.5270344018936157e-01" nType="1"/>
            <Node pos="r" depth="3" NCoef="0" IVar="-1" Cut="0.0000000000000000e+00" cType="1" res="-9.9000000000000000e+01" rms="0.0000000000000000e+00" purity="4.8286312818527222e-01" nType="-1"/>
          </Node>
          <Node pos="r" depth="2" NCoef="0" IVar="-1" Cut="0.0000000000000000e+00" cType="1" res="-9.9000000000000000e+01" rms="0.0000000000000000e+00" purity="4.5133075118064880e-01" nType="-1"/>
        </Node>
      </Node>
    </BinaryTree>
    <BinaryTree type="DecisionTree" boostWeight="3.8447276145204337e-02" itree="30">
      <Node pos="s" depth="0" NCoef="0" IVar="3" Cut="1.5642702636718750e+03" cType="0" res="-9.9000000000000000e+01" rms="0.0000000000000000e+00" purity="5.0990277528762817e-01" nType="0">
        <Node pos="l" depth="1" NCoef="0" IVar="-1" Cut="0.0000000000000000e+00" cType="1" res="-9.9000000000000000e+01" rms="0.0000000000000000e+00" purity="6.3033473491668701e-01" nType="1"/>
        <Node pos="r" depth="1" NCoef="0" IVar="3" Cut="1.2670291748046875e+03" cType="1" res="-9.9000000000000000e+01" rms="0.0000000000000000e+00" purity="5.0681269168853760e-01" nType="0">
          <Node pos="l" depth="2" NCoef="0" IVar="-1" Cut="4.7912387847900391e+00" cType="0" res="-9.9000000000000000e+01" rms="0.0000000000000000e+00" purity="5.1213651895523071e-01" nType="1"/>
          <Node pos="r" depth="2" NCoef="0" IVar="-1" Cut="0.0000000000000000e+00" cType="1" res="-9.9000000000000000e+01" rms="0.0000000000000000e+00" purity="3.9436978101730347e-01" nType="-1"/>
        </Node>
      </Node>
    </BinaryTree>
    <BinaryTree type="DecisionTree" boostWeight="3.8918891228815519e-02" itree="31">
      <Node pos="s" depth="0" NCoef="0" IVar="3" Cut="1.5642702636718750e+03" cType="0" res="-9.9000000000000000e+01" rms="0.0000000000000000e+00" purity="5.0114017724990845e-01" nType="0">
        <Node pos="l" depth="1" NCoef="0" IVar="-1" Cut="0.0000000000000000e+00" cType="1" res="-9.9000000000000000e+01" rms="0.0000000000000000e+00" purity="6.2133204936981201e-01" nType="1"/>
        <Node pos="r" depth="1" NCoef="0" IVar="3" Cut="1.2670291748046875e+03" cType="1" res="-9.9000000000000000e+01" rms="0.0000000000000000e+00" purity="4.9806976318359375e-01" nType="0">
          <Node pos="l" depth="2" NCoef="0" IVar="4" Cut="4.7912387847900391e+00" cType="0" res="-9.9000000000000000e+01" rms="0.0000000000000000e+00" purity="5.0252705812454224e-01" nType="0">
            <Node pos="l" depth="3" NCoef="0" IVar="-1" Cut="0.0000000000000000e+00" cType="1" res="-9.9000000000000000e+01" rms="0.0000000000000000e+00" purity="5.9992295503616333e-01" nType="1"/>
            <Node pos="r" depth="3" NCoef="0" IVar="-1" Cut="0.0000000000000000e+00" cType="1" res="-9.9000000000000000e+01" rms="0.0000000000000000e+00" purity="4.9426886439323425e-01" nType="-1"/>
          </Node>
          <Node pos="r" depth="2" NCoef="0" IVar="-1" Cut="0.0000000000000000e+00" cType="1" res="-9.9000000000000000e+01" rms="0.0000000000000000e+00" purity="4.0358892083168030e-01" nType="-1"/>
        </Node>
      </Node>
    </BinaryTree>
    <BinaryTree type="DecisionTree" boostWeight="3.3204571424335950e-02" itree="32">
      <Node pos="s" depth="0" NCoef="0" IVar="3" Cut="1.5642702636718750e+03" cType="0" res="-9.9000000000000000e+01" rms="0.0000000000000000e+00" purity="5.0897467136383057e-01" nType="0">
        <Node pos="l" depth="1" NCoef="0" IVar="-1" Cut="0.0000000000000000e+00" cType="1" res="-9.9000000000000000e+01" rms="0.0000000000000000e+00" purity="6.1213296651840210e-01" nType="1"/>
        <Node pos="r" depth="1" NCoef="0" IVar="3" Cut="1.2670291748046875e+03" cType="1" res="-9.9000000000000000e+01" rms="0.0000000000000000e+00" purity="5.0635015964508057e-01" nType="0">
          <Node pos="l" depth="2" NCoef="0" IVar="-1" Cut="7.9493994140625000e+02" cType="0" res="-9.9000000000000000e+01" rms="0.0000000000000000e+00" purity="5.1074022054672241e-01" nType="1"/>
          <Node pos="r" depth="2" NCoef="0" IVar="-1" Cut="0.0000000000000000e+00" cType="1" res="-9.9000000000000000e+01" rms="0.0000000000000000e+00" purity="4.1299098730087280e-01" nType="-1"/>
        </Node>
      </Node>
    </BinaryTree>
    <BinaryTree type="DecisionTree" boostWeight="3.3001314345978423e-02" itree="33">
      <Node pos="s" depth="0" NCoef="0" IVar="3" Cut="1.5642702636718750e+03" cType="0" res="-9.9000000000000000e+01" rms="0.0000000000000000e+00" purity="5.0140213966369629e-01" nType="0">
        <Node pos="l" depth="1" NCoef="0" IVar="-1" Cut="0.0000000000000000e+00" cType="1" res="-9.9000000000000000e+01" rms="0.0000000000000000e+00" purity="6.0422062873840332e-01" nType="1"/>
        <Node pos="r" depth="1" NCoef="0" IVar="2" Cut="2.0831282043457031e+02" cType="1" res="-9.9000000000000000e+01" rms="0.0000000000000000e+00" purity="4.9879473447799683e-01" nType="0">
          <Node pos="l" depth="2" NCoef="0" IVar="0" Cut="9.4352485656738281e+01" cType="0" res="-9.9000000000000000e+01" rms="0.0000000000000000e+00" purity="5.0450408458709717e-01" nType="0">
            <Node pos="l" depth="3" NCoef="0" IVar="-1" Cut="0.0000000000000000e+00" cType="1" res="-9.9000000000000000e+01" rms="0.0000000000000000e+00" purity="6.3702195882797241e-01" nType="1"/>
            <Node pos="r" depth="3" NCoef="0" IVar="-1" Cut="0.0000000000000000e+00" cType="1" res="-9.9000000000000000e+01" rms="0.0000000000000000e+00" purity="4.9709486961364746e-01" nType="-1"/>
          </Node>
          <Node pos="r" depth="2" NCoef="0" IVar="-1" Cut="0.0000000000000000e+00" cType="1" res="-9.9000000000000000e+01" rms="0.0000000000000000e+00" purity="4.4721129536628723e-01" nType="-1"/>
        </Node>
      </Node>
    </BinaryTree>
    <BinaryTree type="DecisionTree" boostWeight="6.7472002754646862e-02" itree="34">
      <Node pos="s" depth="0" NCoef="0" IVar="1" Cut="6.0584808349609375e+01" cType="0" res="-9.9000000000000000e+01" rms="0.0000000000000000e+00" purity="5.0848114490509033e-01" nType="0">
        <Node pos="l" depth="1" NCoef="0" IVar="3" Cut="8.1061267089843750e+02" cType="0" res="-9.9000000000000000e+01" rms="0.0000000000000000e+00" purity="5.4489189386367798e-01" nType="0">
          <Node pos="l" depth="2" NCoef="0" IVar="-1" Cut="0.0000000000000000e+00" cType="1" res="-9.9000000000000000e+01" rms="0.0000000000000000e+00" purity="6.7197793722152710e-01" nType="1"/>
          <Node pos="r" depth="2" NCoef="0" IVar="0" Cut="8.8491806030273438e+01" cType="0" res="-9.9000000000000000e+01" rms="0.0000000000000000e+00" purity="5.2360570430755615e-01" nType="0">
            <Node pos="l" depth="3" NCoef="0" IVar="-1" Cut="0.0000000000000000e+00" cType="1" res="-9.9000000000000000e+01" rms="0.0000000000000000e+00" purity="5.5331951379776001e-01" nType="1"/>
            <Node pos="r" depth="3" NCoef="0" IVar="-1" Cut="0.0000000000000000e+00" cType="1" res="-9.9000000000000000e+01" rms="0.0000000000000000e+00" purity="4.7320359945297241e-01" nType="-1"/>
          </Node>
        </Node>
        <Node pos="r" depth="1" NCoef="0" IVar="1" Cut="3.9745780944824219e+01" cType="1" res="-9.9000000000000000e+01" rms="0.0000000000000000e+00" purity="5.0298404693603516e-01" nType="0">
          <Node pos="l" depth="2" NCoef="0" IVar="2" Cut="1.2575427246093750e+02" cType="1" res="-9.9000000000000000e+01" rms="0.0000000000000000e+00" purity="5.1571023464202881e-01" nType="0">
            <Node pos="l" depth="3" NCoef="0" IVar="-1" Cut="0.0000000000000000e+00" cType="1" res="-9.9000000000000000e+01" rms="0.0000000000000000e+00" purity="5.3771531581878662e-01" nType="1"/>
            <Node pos="r" depth="3" NCoef="0" IVar="-1" Cut="0.0000000000000000e+00" cType="1" res="-9.9000000000000000e+01" rms="0.0000000000000000e+00" purity="4.7421792149543762e-01" nType="-1"/>
          </Node>
          <Node pos="r" depth="2" NCoef="0" IVar="4" Cut="5.4800786972045898e+00" cType="1" res="-9.9000000000000000e+01" rms="0.0000000000000000e+00" purity="4.8091614246368408e-01" nType="0">
            <Node pos="l" depth="3" NCoef="0" IVar="-1" Cut="0.0000000000000000e+00" cType="1" res="-9.9000000000000000e+01" rms="0.0000000000000000e+00" purity="5.0180780887603760e-01" nType="1"/>
            <Node pos="r" depth="3" NCoef="0" IVar="-1" Cut="0.0000000000000000e+00" cType="1" res="-9.9000000000000000e+01" rms="0.0000000000000000e+00" purity="3.4635832905769348e-01" nType="-1"/>
          </Node>
        </Node>
      </Node>
    </BinaryTree>
    <BinaryTree type="DecisionTree" boostWeight="3.3609675193070988e-02" itree="35">
      <Node pos="s" depth="0" NCoef="0" IVar="3" Cut="1.5642702636718750e+03" cType="0" res="-9.9000000000000000e+01" rms="0.0000000000000000e+00" purity="5.0090712308883667e-01" nType="0">
        <Node pos="l" depth="1" NCoef="0" IVar="-1" Cut="0.0000000000000000e+00" cType="1" res="-9.9000000000000000e+01" rms="0.0000000000000000e+00" purity="6.0617452859878540e-01" nType="1"/>
        <Node pos="r" depth="1" NCoef="0" IVar="3" Cut="1.2670291748046875e+03" cType="1" res="-9.9000000000000000e+01" rms="0.0000000000000000e+00" purity="4.9826535582542419e-01" nType="0">
          <Node pos="l" depth="2" NCoef="0" IVar="3" Cut="7.9493994140625000e+02" cType="0" res="-9.9000000000000000e+01" rms="0.0000000000000000e+00" purity="5.0135642290115356e-01" nType="0">
            <Node pos="l" depth="3" NCoef="0" IVar="-1" Cut="0.0000000000000000e+00" cType="1" res="-9.9000000000000000e+01" rms="0.0000000000000000e+00" purity="5.8748096227645874e-01" nType="1"/>
            <Node pos="r" depth="3" NCoef="0" IVar="-1" Cut="0.0000000000000000e+00" cType="1" res="-9.9000000000000000e+01" rms="0.0000000000000000e+00" purity="4.9420419335365295e-01" nType="-1"/>
          </Node>
          <Node pos="r" depth="2" NCoef="0" IVar="-1" Cut="0.0000000000000000e+00" cType="1" res="-9.9000000000000000e+01" rms="0.0000000000000000e+00" purity="4.3164166808128357e-01" nType="-1"/>
        </Node>
      </Node>
    </BinaryTree>
    <BinaryTree type="DecisionTree" boostWeight="1.0211572474926059e-01" itree="36">
      <Node pos="s" depth="0" NCoef="0" IVar="2" Cut="1.2050916290283203e+02" cType="0" res="-9.9000000000000000e+01" rms="0.0000000000000000e+00" purity="5.0770056247711182e-01" nType="0">
        <Node pos="l" depth="1" NCoef="0" IVar="4" Cut="4.7187795639038086e+00" cType="0" res="-9.9000000000000000e+01" rms="0.0000000000000000e+00" purity="5.2810186147689819e-01" nType="0">
          <Node pos="l" depth="2" NCoef="0" IVar="-1" Cut="5.3961091041564941e+00" cType="1" res="-9.9000000000000000e+01" rms="0.0000000000000000e+00" purity="7.2947579622268677e-01" nType="1"/>
          <Node pos="r" depth="2" NCoef="0" IVar="3" Cut="5.2176202392578125e+02" cType="1" res="-9.9000000000000000e+01" rms="0.0000000000000000e+00" purity="5.0821167230606079e-01" nType="0">
            <Node pos="l" depth="3" NCoef="0" IVar="-1" Cut="0.0000000000000000e+00" cType="1" res="-9.9000000000000000e+01" rms="0.0000000000000000e+00" purity="5.5479067564010620e-01" nType="1"/>
            <Node pos="r" depth="3" NCoef="0" IVar="-1" Cut="0.0000000000000000e+00" cType="1" res="-9.9000000000000000e+01" rms="0.0000000000000000e+00" purity="4.1818210482597351e-01" nType="-1"/>
          </Node>
        </Node>
        <Node pos="r" depth="1" NCoef="0" IVar="0" Cut="7.2950439453125000e+01" cType="1" res="-9.9000000000000000e+01" rms="0.0000000000000000e+00" purity="4.9676433205604553e-01" nType="0">
          <Node pos="l" depth="2" NCoef="0" IVar="-1" Cut="0.0000000000000000e+00" cType="1" res="-9.9000000000000000e+01" rms="0.0000000000000000e+00" purity="5.8944344520568848e-01" nType="1"/>
          <Node pos="r" depth="2" NCoef="0" IVar="0" Cut="8.5207733154296875e+01" cType="0" res="-9.9000000000000000e+01" rms="0.0000000000000000e+00" purity="4.8713663220405579e-01" nType="0">
            <Node pos="l" depth="3" NCoef="0" IVar="-1" Cut="0.0000000000000000e+00" cType="1" res="-9.9000000000000000e+01" rms="0.0000000000000000e+00" purity="5.1151436567306519e-01" nType="1"/>
            <Node pos="r" depth="3" NCoef="0" IVar="-1" Cut="0.0000000000000000e+00" cType="1" res="-9.9000000000000000e+01" rms="0.0000000000000000e+00" purity="4.1100546717643738e-01" nType="-1"/>
          </Node>
        </Node>
      </Node>
    </BinaryTree>
    <BinaryTree type="DecisionTree" boostWeight="1.0016994662739787e-01" itree="37">
      <Node pos="s" depth="0" NCoef="0" IVar="2" Cut="1.2050916290283203e+02" cType="0" res="-9.9000000000000000e+01" rms="0.0000000000000000e+00" purity="4.9498927593231201e-01" nType="0">
        <Node pos="l" depth="1" NCoef="0" IVar="4" Cut="4.7187795639038086e+00" cType="0" res="-9.9000000000000000e+01" rms="0.0000000000000000e+00" purity="5.1857495307922363e-01" nType="0">
          <Node pos="l" depth="2" NCoef="0" IVar="-1" Cut="5.3961091041564941e+00" cType="1" res="-9.9000000000000000e+01" rms="0.0000000000000000e+00" purity="7.0885902643203735e-01" nType="1"/>
          <Node pos="r" depth="2" NCoef="0" IVar="1" Cut="4.8795909881591797e+01" cType="1" res="-9.9000000000000000e+01" rms="0.0000000000000000e+00" purity="5.0009948015213013e-01" nType="0">
            <Node pos="l" depth="3" NCoef="0" IVar="-1" Cut="0.0000000000000000e+00" cType="1" res="-9.9000000000000000e+01" rms="0.0000000000000000e+00" purity="5.3115224838256836e-01" nType="1"/>
            <Node pos="r" depth="3" NCoef="0" IVar="-1" Cut="0.0000000000000000e+00" cType="1" res="-9.9000000000000000e+01" rms="0.0000000000000000e+00" purity="4.2527988553047180e-01" nType="-1"/>
          </Node>
        </Node>
        <Node pos="r" depth="1" NCoef="0" IVar="0" Cut="6.9383430480957031e+01" cType="1" res="-9.9000000000000000e+01" rms="0.0000000000000000e+00" purity="4.8240175843238831e-01" nType="0">
          <Node pos="l" depth="2" NCoef="0" IVar="-1" Cut="0.0000000000000000e+00" cType="1" res="-9.9000000000000000e+01" rms="0.0000000000000000e+00" purity="5.7968384027481079e-01" nType="1"/>
          <Node pos="r" depth="2" NCoef="0" IVar="1" Cut="2.1737243652343750e+01" cType="1" res="-9.9000000000000000e+01" rms="0.0000000000000000e+00" purity="4.7502338886260986e-01" nType="0">
            <Node pos="l" depth="3" NCoef="0" IVar="-1" Cut="0.0000000000000000e+00" cType="1" res="-9.9000000000000000e+01" rms="0.0000000000000000e+00" purity="5.7405644655227661e-01" nType="1"/>
            <Node pos="r" depth="3" NCoef="0" IVar="-1" Cut="0.0000000000000000e+00" cType="1" res="-9.9000000000000000e+01" rms="0.0000000000000000e+00" purity="4.6154713630676270e-01" nType="-1"/>
          </Node>
        </Node>
      </Node>
    </BinaryTree>
    <BinaryTree type="DecisionTree" boostWeight="6.0877466257888646e-02" itree="38">
      <Node pos="s" depth="0" NCoef="0" IVar="1" Cut="6.0584808349609375e+01" cType="0" res="-9.9000000000000000e+01" rms="0.0000000000000000e+00" purity="5.0132596492767334e-01" nType="0">
        <Node pos="l" depth="1" NCoef="0" IVar="1" Cut="7.8402381896972656e+01" cType="1" res="-9.9000000000000000e+01" rms="0.0000000000000000e+00" purity="5.5467146635055542e-01" nType="0">
          <Node pos="l" depth="2" NCoef="0" IVar="-1" Cut="7.8289080810546875e+02" cType="0" res="-9.9000000000000000e+01" rms="0.0000000000000000e+00" purity="5.9614121913909912e-01" nType="1"/>
          <Node pos="r" depth="2" NCoef="0" IVar="-1" Cut="0.0000000000000000e+00" cType="1" res="-9.9000000000000000e+01" rms="0.0000000000000000e+00" purity="4.8787596821784973e-01" nType="-1"/>
        </Node>
        <Node pos="r" depth="1" NCoef="0" IVar="4" Cut="2.5320472717285156e+00" cType="0" res="-9.9000000000000000e+01" rms="0.0000000000000000e+00" purity="4.9324712157249451e-01" nType="0">
          <Node pos="l" depth="2" NCoef="0" IVar="1" Cut="3.5125709533691406e+01" cType="1" res="-9.9000000000000000e+01" rms="0.0000000000000000e+00" purity="5.0960838794708252e-01" nType="0">
            <Node pos="l" depth="3" NCoef="0" IVar="-1" Cut="0.0000000000000000e+00" cType="1" res="-9.9000000000000000e+01" rms="0.0000000000000000e+00" purity="5.3317970037460327e-01" nType="1"/>
            <Node pos="r" depth="3" NCoef="0" IVar="-1" Cut="0.0000000000000000e+00" cType="1" res="-9.9000000000000000e+01" rms="0.0000000000000000e+00" purity="4.8539549112319946e-01" nType="-1"/>
          </Node>
          <Node pos="r" depth="2" NCoef="0" IVar="-1" Cut="1.9296872615814209e+00" cType="1" res="-9.9000000000000000e+01" rms="0.0000000000000000e+00" purity="4.7307556867599487e-01" nType="-1"/>
        </Node>
      </Node>
    </BinaryTree>
    <BinaryTree type="DecisionTree" boostWeight="4.4152526093773480e-02" itree="39">
      <Node pos="s" depth="0" NCoef="0" IVar="1" Cut="1.6881298065185547e+01" cType="0" res="-9.9000000000000000e+01" rms="0.0000000000000000e+00" purity="5.0669002532958984e-01" nType="0">
        <Node pos="l" depth="1" NCoef="0" IVar="2" Cut="2.0831282043457031e+02" cType="1" res="-9.9000000000000000e+01" rms="0.0000000000000000e+00" purity="5.1200115680694580e-01" nType="0">
          <Node pos="l" depth="2" NCoef="0" IVar="-1" Cut="8.2027549743652344e+01" cType="1" res="-9.9000000000000000e+01" rms="0.0000000000000000e+00" purity="5.1711195707321167e-01" nType="1"/>
          <Node pos="r" depth="2" NCoef="0" IVar="-1" Cut="0.0000000000000000e+00" cType="1" res="-9.9000000000000000e+01" rms="0.0000000000000000e+00" purity="4.6623009443283081e-01" nType="-1"/>
        </Node>
        <Node pos="r" depth="1" NCoef="0" IVar="-1" Cut="0.0000000000000000e+00" cType="1" res="-9.9000000000000000e+01" rms="0.0000000000000000e+00" purity="4.3162819743156433e-01" nType="-1"/>
      </Node>
    </BinaryTree>
    <BinaryTree type="DecisionTree" boostWeight="5.7242760757547972e-02" itree="40">
      <Node pos="s" depth="0" NCoef="0" IVar="1" Cut="6.0584808349609375e+01" cType="0" res="-9.9000000000000000e+01" rms="0.0000000000000000e+00" purity="4.9918204545974731e-01" nType="0">
        <Node pos="l" depth="1" NCoef="0" IVar="3" Cut="8.1061267089843750e+02" cType="0" res="-9.9000000000000000e+01" rms="0.0000000000000000e+00" purity="5.4216390848159790e-01" nType="0">
          <Node pos="l" depth="2" NCoef="0" IVar="-1" Cut="0.0000000000000000e+00" cType="1" res="-9.9000000000000000e+01" rms="0.0000000000000000e+00" purity="6.5353477001190186e-01" nType="1"/>
          <Node pos="r" depth="2" NCoef="0" IVar="2" Cut="7.8604156494140625e+01" cType="0" res="-9.9000000000000000e+01" rms="0.0000000000000000e+00" purity="5.2399736642837524e-01" nType="0">
            <Node pos="l" depth="3" NCoef="0" IVar="-1" Cut="0.0000000000000000e+00" cType="1" res="-9.9000000000000000e+01" rms="0.0000000000000000e+00" purity="5.5126917362213135e-01" nType="1"/>
            <Node pos="r" depth="3" NCoef="0" IVar="-1" Cut="0.0000000000000000e+00" cType="1" res="-9.9000000000000000e+01" rms="0.0000000000000000e+00" purity="4.8642420768737793e-01" nType="-1"/>
          </Node>
        </Node>
        <Node pos="r" depth="1" NCoef="0" IVar="2" Cut="3.2705497741699219e+01" cType="0" res="-9.9000000000000000e+01" rms="0.0000000000000000e+00" purity="4.9269688129425049e-01" nType="0">
          <Node pos="l" depth="2" NCoef="0" IVar="0" Cut="8.2209350585937500e+01" cType="1" res="-9.9000000000000000e+01" rms="0.0000000000000000e+00" purity="4.9826785922050476e-01" nType="0">
            <Node pos="l" depth="3" NCoef="0" IVar="-1" Cut="0.0000000000000000e+00" cType="1" res="-9.9000000000000000e+01" rms="0.0000000000000000e+00" purity="5.4926240444183350e-01" nType="1"/>
            <Node pos="r" depth="3" NCoef="0" IVar="-1" Cut="0.0000000000000000e+00" cType="1" res="-9.9000000000000000e+01" rms="0.0000000000000000e+00" purity="4.8563647270202637e-01" nType="-1"/>
          </Node>
          <Node pos="r" depth="2" NCoef="0" IVar="-1" Cut="0.0000000000000000e+00" cType="1" res="-9.9000000000000000e+01" rms="0.0000000000000000e+00" purity="4.3779763579368591e-01" nType="-1"/>
        </Node>
      </Node>
    </BinaryTree>
    <BinaryTree type="DecisionTree" boostWeight="6.1721295878735323e-02" itree="41">
      <Node pos="s" depth="0" NCoef="0" IVar="0" Cut="7.7519142150878906e+01" cType="0" res="-9.9000000000000000e+01" rms="0.0000000000000000e+00" purity="5.0662374496459961e-01" nType="0">
        <Node pos="l" depth="1" NCoef="0" IVar="0" Cut="8.3287582397460938e+01" cType="1" res="-9.9000000000000000e+01" rms="0.0000000000000000e+00" purity="5.1324141025543213e-01" nType="0">
          <Node pos="l" depth="2" NCoef="0" IVar="-1" Cut="0.0000000000000000e+00" cType="1" res="-9.9000000000000000e+01" rms="0.0000000000000000e+00" purity="5.8468723297119141e-01" nType="1"/>
          <Node pos="r" depth="2" NCoef="0" IVar="1" Cut="5.0872917175292969e+01" cType="0" res="-9.9000000000000000e+01" rms="0.0000000000000000e+00" purity="5.0513988733291626e-01" nType="0">
            <Node pos="l" depth="3" NCoef="0" IVar="-1" Cut="0.0000000000000000e+00" cType="1" res="-9.9000000000000000e+01" rms="0.0000000000000000e+00" purity="5.4467505216598511e-01" nType="1"/>
            <Node pos="r" depth="3" NCoef="0" IVar="-1" Cut="0.0000000000000000e+00" cType="1" res="-9.9000000000000000e+01" rms="0.0000000000000000e+00" purity="4.9112501740455627e-01" nType="-1"/>
          </Node>
        </Node>
        <Node pos="r" depth="1" NCoef="0" IVar="4" Cut="3.4791302680969238e+00" cType="0" res="-9.9000000000000000e+01" rms="0.0000000000000000e+00" purity="4.6551895141601562e-01" nType="0">
          <Node pos="l" depth="2" NCoef="0" IVar="-1" Cut="0.0000000000000000e+00" cType="1" res="-9.9000000000000000e+01" rms="0.0000000000000000e+00" purity="5.4665225744247437e-01" nType="1"/>
          <Node pos="r" depth="2" NCoef="0" IVar="-1" Cut="0.0000000000000000e+00" cType="1" res="-9.9000000000000000e+01" rms="0.0000000000000000e+00" purity="4.2229729890823364e-01" nType="-1"/>
        </Node>
      </Node>
    </BinaryTree>
    <BinaryTree type="DecisionTree" boostWeight="5.4986304501128035e-02" itree="42">
      <Node pos="s" depth="0" NCoef="0" IVar="0" Cut="7.7519142150878906e+01" cType="0" res="-9.9000000000000000e+01" rms="0.0000000000000000e+00" purity="5.1163178682327271e-01" nType="0">
        <Node pos="l" depth="1" NCoef="0" IVar="4" Cut="6.3155303001403809e+00" cType="1" res="-9.9000000000000000e+01" rms="0.0000000000000000e+00" purity="5.1830124855041504e-01" nType="0">
          <Node pos="l" depth="2" NCoef="0" IVar="-1" Cut="6.5187628173828125e+02" cType="0" res="-9.9000000000000000e+01" rms="0.0000000000000000e+00" purity="5.2232849597930908e-01" nType="1"/>
          <Node pos="r" depth="2" NCoef="0" IVar="-1" Cut="0.0000000000000000e+00" cType="1" res="-9.9000000000000000e+01" rms="0.0000000000000000e+00" purity="4.1992455720901489e-01" nType="-1"/>
        </Node>
        <Node pos="r" depth="1" NCoef="0" IVar="3" Cut="5.2198071289062500e+02" cType="1" res="-9.9000000000000000e+01" rms="0.0000000000000000e+00" purity="4.7009816765785217e-01" nType="0">
          <Node pos="l" depth="2" NCoef="0" IVar="-1" Cut="0.0000000000000000e+00" cType="1" res="-9.9000000000000000e+01" rms="0.0000000000000000e+00" purity="5.1183551549911499e-01" nType="1"/>
          <Node pos="r" depth="2" NCoef="0" IVar="-1" Cut="0.0000000000000000e+00" cType="1" res="-9.9000000000000000e+01" rms="0.0000000000000000e+00" purity="3.9222151041030884e-01" nType="-1"/>
        </Node>
      </Node>
    </BinaryTree>
    <BinaryTree type="DecisionTree" boostWeight="7.8674059541345154e-02" itree="43">
      <Node pos="s" depth="0" NCoef="0" IVar="3" Cut="7.9611614990234375e+02" cType="0" res="-9.9000000000000000e+01" rms="0.0000000000000000e+00" purity="5.0014734268188477e-01" nType="0">
        <Node pos="l" depth="1" NCoef="0" IVar="0" Cut="8.7153457641601562e+01" cType="1" res="-9.9000000000000000e+01" rms="0.0000000000000000e+00" purity="5.4069375991821289e-01" nType="0">
          <Node pos="l" depth="2" NCoef="0" IVar="-1" Cut="4.2363330841064453e+01" cType="0" res="-9.9000000000000000e+01" rms="0.0000000000000000e+00" purity="6.4282798767089844e-01" nType="1"/>
          <Node pos="r" depth="2" NCoef="0" IVar="0" Cut="9.0261428833007812e+01" cType="0" res="-9.9000000000000000e+01" rms="0.0000000000000000e+00" purity="4.9840560555458069e-01" nType="0">
            <Node pos="l" depth="3" NCoef="0" IVar="-1" Cut="0.0000000000000000e+00" cType="1" res="-9.9000000000000000e+01" rms="0.0000000000000000e+00" purity="5.7541882991790771e-01" nType="1"/>
            <Node pos="r" depth="3" NCoef="0" IVar="-1" Cut="0.0000000000000000e+00" cType="1" res="-9.9000000000000000e+01" rms="0.0000000000000000e+00" purity="4.1384881734848022e-01" nType="-1"/>
          </Node>
        </Node>
        <Node pos="r" depth="1" NCoef="0" IVar="4" Cut="4.5905218124389648e+00" cType="1" res="-9.9000000000000000e+01" rms="0.0000000000000000e+00" purity="4.9375185370445251e-01" nType="0">
          <Node pos="l" depth="2" NCoef="0" IVar="2" Cut="1.2631189727783203e+02" cType="1" res="-9.9000000000000000e+01" rms="0.0000000000000000e+00" purity="5.0017100572586060e-01" nType="0">
            <Node pos="l" depth="3" NCoef="0" IVar="-1" Cut="0.0000000000000000e+00" cType="1" res="-9.9000000000000000e+01" rms="0.0000000000000000e+00" purity="5.1812338829040527e-01" nType="1"/>
            <Node pos="r" depth="3" NCoef="0" IVar="-1" Cut="0.0000000000000000e+00" cType="1" res="-9.9000000000000000e+01" rms="0.0000000000000000e+00" purity="4.6289667487144470e-01" nType="-1"/>
          </Node>
          <Node pos="r" depth="2" NCoef="0" IVar="3" Cut="6.4790472412109375e+02" cType="0" res="-9.9000000000000000e+01" rms="0.0000000000000000e+00" purity="4.1491249203681946e-01" nType="0">
            <Node pos="l" depth="3" NCoef="0" IVar="-1" Cut="0.0000000000000000e+00" cType="1" res="-9.9000000000000000e+01" rms="0.0000000000000000e+00" purity="5.2057808637619019e-01" nType="1"/>
            <Node pos="r" depth="3" NCoef="0" IVar="-1" Cut="0.0000000000000000e+00" cType="1" res="-9.9000000000000000e+01" rms="0.0000000000000000e+00" purity="3.6473327875137329e-01" nType="-1"/>
          </Node>
        </Node>
      </Node>
    </BinaryTree>
    <BinaryTree type="DecisionTree" boostWeight="1.0988432734491012e-01" itree="44">
      <Node pos="s" depth="0" NCoef="0" IVar="2" Cut="1.2050916290283203e+02" cType="0" res="-9.9000000000000000e+01" rms="0.0000000000000000e+00" purity="4.9421852827072144e-01" nType="0">
        <Node pos="l" depth="1" NCoef="0" IVar="4" Cut="4.7187795639038086e+00" cType="0" res="-9.9000000000000000e+01" rms="0.0000000000000000e+00" purity="5.2146965265274048e-01" nType="0">
          <Node pos="l" depth="2" NCoef="0" IVar="-1" Cut="5.3961091041564941e+00" cType="1" res="-9.9000000000000000e+01" rms="0.0000000000000000e+00" purity="6.7990958690643311e-01" nType="1"/>
          <Node pos="r" depth="2" NCoef="0" IVar="3" Cut="5.2176202392578125e+02" cType="1" res="-9.9000000000000000e+01" rms="0.0000000000000000e+00" purity="5.0651717185974121e-01" nType="0">
            <Node pos="l" depth="3" NCoef="0" IVar="-1" Cut="0.0000000000000000e+00" cType="1" res="-9.9000000000000000e+01" rms="0.0000000000000000e+00" purity="5.3643465042114258e-01" nType="1"/>
            <Node pos="r" depth="3" NCoef="0" IVar="-1" Cut="0.0000000000000000e+00" cType="1" res="-9.9000000000000000e+01" rms="0.0000000000000000e+00" purity="4.4768765568733215e-01" nType="-1"/>
          </Node>
        </Node>
        <Node pos="r" depth="1" NCoef="0" IVar="2" Cut="5.7773143768310547e+01" cType="1" res="-9.9000000000000000e+01" rms="0.0000000000000000e+00" purity="4.7979596257209778e-01" nType="0">
          <Node pos="l" depth="2" NCoef="0" IVar="2" Cut="2.7892332077026367e+01" cType="0" res="-9.9000000000000000e+01" rms="0.0000000000000000e+00" purity="5.1789563894271851e-01" nType="0">
            <Node pos="l" depth="3" NCoef="0" IVar="-1" Cut="0.0000000000000000e+00" cType="1" res="-9.9000000000000000e+01" rms="0.0000000000000000e+00" purity="5.6481546163558960e-01" nType="1"/>
            <Node pos="r" depth="3" NCoef="0" IVar="-1" Cut="0.0000000000000000e+00" cType="1" res="-9.9000000000000000e+01" rms="0.0000000000000000e+00" purity="4.2272537946701050e-01" nType="-1"/>
          </Node>
          <Node pos="r" depth="2" NCoef="0" IVar="2" Cut="8.7634895324707031e+01" cType="0" res="-9.9000000000000000e+01" rms="0.0000000000000000e+00" purity="4.6145510673522949e-01" nType="0">
            <Node pos="l" depth="3" NCoef="0" IVar="-1" Cut="0.0000000000000000e+00" cType="1" res="-9.9000000000000000e+01" rms="0.0000000000000000e+00" purity="5.1135641336441040e-01" nType="1"/>
            <Node pos="r" depth="3" NCoef="0" IVar="-1" Cut="0.0000000000000000e+00" cType="1" res="-9.9000000000000000e+01" rms="0.0000000000000000e+00" purity="4.2120522260665894e-01" nType="-1"/>
          </Node>
        </Node>
      </Node>
    </BinaryTree>
    <BinaryTree type="DecisionTree" boostWeight="9.4528010150855435e-02" itree="45">
      <Node pos="s" depth="0" NCoef="0" IVar="4" Cut="2.5311315059661865e+00" cType="0" res="-9.9000000000000000e+01" rms="0.0000000000000000e+00" purity="4.8982766270637512e-01" nType="0">
        <Node pos="l" depth="1" NCoef="0" IVar="0" Cut="8.6062042236328125e+01" cType="0" res="-9.9000000000000000e+01" rms="0.0000000000000000e+00" purity="5.0716757774353027e-01" nType="0">
          <Node pos="l" depth="2" NCoef="0" IVar="1" Cut="7.5152641296386719e+01" cType="1" res="-9.9000000000000000e+01" rms="0.0000000000000000e+00" purity="5.2423292398452759e-01" nType="0">
            <Node pos="l" depth="3" NCoef="0" IVar="-1" Cut="0.0000000000000000e+00" cType="1" res="-9.9000000000000000e+01" rms="0.0000000000000000e+00" purity="5.3370052576065063e-01" nType="1"/>
            <Node pos="r" depth="3" NCoef="0" IVar="-1" Cut="0.0000000000000000e+00" cType="1" res="-9.9000000000000000e+01" rms="0.0000000000000000e+00" purity="4.2004153132438660e-01" nType="-1"/>
          </Node>
          <Node pos="r" depth="2" NCoef="0" IVar="2" Cut="8.5821464538574219e+01" cType="0" res="-9.9000000000000000e+01" rms="0.0000000000000000e+00" purity="4.7249397635459900e-01" nType="0">
            <Node pos="l" depth="3" NCoef="0" IVar="-1" Cut="0.0000000000000000e+00" cType="1" res="-9.9000000000000000e+01" rms="0.0000000000000000e+00" purity="5.6782126426696777e-01" nType="1"/>
            <Node pos="r" depth="3" NCoef="0" IVar="-1" Cut="0.0000000000000000e+00" cType="1" res="-9.9000000000000000e+01" rms="0.0000000000000000e+00" purity="3.9264029264450073e-01" nType="-1"/>
          </Node>
        </Node>
        <Node pos="r" depth="1" NCoef="0" IVar="3" Cut="8.1325286865234375e+01" cType="1" res="-9.9000000000000000e+01" rms="0.0000000000000000e+00" purity="4.6885323524475098e-01" nType="0">
          <Node pos="l" depth="2" NCoef="0" IVar="-1" Cut="0.0000000000000000e+00" cType="1" res="-9.9000000000000000e+01" rms="0.0000000000000000e+00" purity="5.1711720228195190e-01" nType="1"/>
          <Node pos="r" depth="2" NCoef="0" IVar="-1" Cut="1.0110730743408203e+02" cType="1" res="-9.9000000000000000e+01" rms="0.0000000000000000e+00" purity="4.5668539404869080e-01" nType="-1"/>
        </Node>
      </Node>
    </BinaryTree>
    <BinaryTree type="DecisionTree" boostWeight="7.1144990910423006e-02" itree="46">
      <Node pos="s" depth="0" NCoef="0" IVar="2" Cut="1.6441099548339844e+02" cType="0" res="-9.9000000000000000e+01" rms="0.0000000000000000e+00" purity="4.8932015895843506e-01" nType="0">
        <Node pos="l" depth="1" NCoef="0" IVar="4" Cut="3.0360140800476074e+00" cType="1" res="-9.9000000000000000e+01" rms="0.0000000000000000e+00" purity="5.1990342140197754e-01" nType="0">
          <Node pos="l" depth="2" NCoef="0" IVar="-1" Cut="0.0000000000000000e+00" cType="1" res="-9.9000000000000000e+01" rms="0.0000000000000000e+00" purity="5.7595121860504150e-01" nType="1"/>
          <Node pos="r" depth="2" NCoef="0" IVar="4" Cut="4.3970742225646973e+00" cType="0" res="-9.9000000000000000e+01" rms="0.0000000000000000e+00" purity="4.6109634637832642e-01" nType="0">
            <Node pos="l" depth="3" NCoef="0" IVar="-1" Cut="0.0000000000000000e+00" cType="1" res="-9.9000000000000000e+01" rms="0.0000000000000000e+00" purity="5.7588189840316772e-01" nType="1"/>
            <Node pos="r" depth="3" NCoef="0" IVar="-1" Cut="0.0000000000000000e+00" cType="1" res="-9.9000000000000000e+01" rms="0.0000000000000000e+00" purity="4.2146790027618408e-01" nType="-1"/>
          </Node>
        </Node>
        <Node pos="r" depth="1" NCoef="0" IVar="0" Cut="7.2950439453125000e+01" cType="1" res="-9.9000000000000000e+01" rms="0.0000000000000000e+00" purity="4.8248326778411865e-01" nType="0">
          <Node pos="l" depth="2" NCoef="0" IVar="-1" Cut="0.0000000000000000e+00" cType="1" res="-9.9000000000000000e+01" rms="0.0000000000000000e+00" purity="5.4980808496475220e-01" nType="1"/>
          <Node pos="r" depth="2" NCoef="0" IVar="-1" Cut="1.3309442138671875e+02" cType="1" res="-9.9000000000000000e+01" rms="0.0000000000000000e+00" purity="4.7600141167640686e-01" nType="-1"/>
        </Node>
      </Node>
    </BinaryTree>
    <BinaryTree type="DecisionTree" boostWeight="6.2609668909473712e-02" itree="47">
      <Node pos="s" depth="0" NCoef="0" IVar="0" Cut="7.7519142150878906e+01" cType="0" res="-9.9000000000000000e+01" rms="0.0000000000000000e+00" purity="5.0040781497955322e-01" nType="0">
        <Node pos="l" depth="1" NCoef="0" IVar="0" Cut="8.1367004394531250e+01" cType="1" res="-9.9000000000000000e+01" rms="0.0000000000000000e+00" purity="5.0734561681747437e-01" nType="0">
          <Node pos="l" depth="2" NCoef="0" IVar="-1" Cut="0.0000000000000000e+00" cType="1" res="-9.9000000000000000e+01" rms="0.0000000000000000e+00" purity="5.9049415588378906e-01" nType="1"/>
          <Node pos="r" depth="2" NCoef="0" IVar="0" Cut="9.0065032958984375e+01" cType="0" res="-9.9000000000000000e+01" rms="0.0000000000000000e+00" purity="5.0266063213348389e-01" nType="0">
            <Node pos="l" depth="3" NCoef="0" IVar="-1" Cut="0.0000000000000000e+00" cType="1" res="-9.9000000000000000e+01" rms="0.0000000000000000e+00" purity="5.2729517221450806e-01" nType="1"/>
            <Node pos="r" depth="3" NCoef="0" IVar="-1" Cut="0.0000000000000000e+00" cType="1" res="-9.9000000000000000e+01" rms="0.0000000000000000e+00" purity="4.8104590177536011e-01" nType="-1"/>
          </Node>
        </Node>
        <Node pos="r" depth="1" NCoef="0" IVar="4" Cut="3.4791302680969238e+00" cType="0" res="-9.9000000000000000e+01" rms="0.0000000000000000e+00" purity="4.5686683058738708e-01" nType="0">
          <Node pos="l" depth="2" NCoef="0" IVar="-1" Cut="0.0000000000000000e+00" cType="1" res="-9.9000000000000000e+01" rms="0.0000000000000000e+00" purity="5.2596402168273926e-01" nType="1"/>
          <Node pos="r" depth="2" NCoef="0" IVar="-1" Cut="0.0000000000000000e+00" cType="1" res="-9.9000000000000000e+01" rms="0.0000000000000000e+00" purity="4.1933432221412659e-01" nType="-1"/>
        </Node>
      </Node>
    </BinaryTree>
    <BinaryTree type="DecisionTree" boostWeight="5.5396325882299140e-02" itree="48">
      <Node pos="s" depth="0" NCoef="0" IVar="0" Cut="7.7519142150878906e+01" cType="0" res="-9.9000000000000000e+01" rms="0.0000000000000000e+00" purity="5.0116103887557983e-01" nType="0">
        <Node pos="l" depth="1" NCoef="0" IVar="0" Cut="9.0969917297363281e+01" cType="1" res="-9.9000000000000000e+01" rms="0.0000000000000000e+00" purity="5.0749063491821289e-01" nType="0">
          <Node pos="l" depth="2" NCoef="0" IVar="-1" Cut="9.0324600219726562e+01" cType="0" res="-9.9000000000000000e+01" rms="0.0000000000000000e+00" purity="5.2274000644683838e-01" nType="1"/>
          <Node pos="r" depth="2" NCoef="0" IVar="4" Cut="3.6811058521270752e+00" cType="1" res="-9.9000000000000000e+01" rms="0.0000000000000000e+00" purity="4.7926926612854004e-01" nType="0">
            <Node pos="l" depth="3" NCoef="0" IVar="-1" Cut="0.0000000000000000e+00" cType="1" res="-9.9000000000000000e+01" rms="0.0000000000000000e+00" purity="5.0887209177017212e-01" nType="1"/>
            <Node pos="r" depth="3" NCoef="0" IVar="-1" Cut="0.0000000000000000e+00" cType="1" res="-9.9000000000000000e+01" rms="0.0000000000000000e+00" purity="4.2997738718986511e-01" nType="-1"/>
          </Node>
        </Node>
        <Node pos="r" depth="1" NCoef="0" IVar="-1" Cut="5.2198071289062500e+02" cType="1" res="-9.9000000000000000e+01" rms="0.0000000000000000e+00" purity="4.6135023236274719e-01" nType="-1"/>
      </Node>
    </BinaryTree>
    <BinaryTree type="DecisionTree" boostWeight="5.8528521217967110e-02" itree="49">
      <Node pos="s" depth="0" NCoef="0" IVar="3" Cut="7.9611614990234375e+02" cType="0" res="-9.9000000000000000e+01" rms="0.0000000000000000e+00" purity="4.9425023794174194e-01" nType="0">
        <Node pos="l" depth="1" NCoef="0" IVar="0" Cut="8.7153457641601562e+01" cType="1" res="-9.9000000000000000e+01" rms="0.0000000000000000e+00" purity="5.2767616510391235e-01" nType="0">
          <Node pos="l" depth="2" NCoef="0" IVar="-1" Cut="4.2363330841064453e+01" cType="0" res="-9.9000000000000000e+01" rms="0.0000000000000000e+00" purity="6.2955176830291748e-01" nType="1"/>
          <Node pos="r" depth="2" NCoef="0" IVar="0" Cut="9.0261428833007812e+01" cType="0" res="-9.9000000000000000e+01" rms="0.0000000000000000e+00" purity="4.8631289601325989e-01" nType="0">
            <Node pos="l" depth="3" NCoef="0" IVar="-1" Cut="0.0000000000000000e+00" cType="1" res="-9.9000000000000000e+01" rms="0.0000000000000000e+00" purity="5.4147803783416748e-01" nType="1"/>
            <Node pos="r" depth="3" NCoef="0" IVar="-1" Cut="0.0000000000000000e+00" cType="1" res="-9.9000000000000000e+01" rms="0.0000000000000000e+00" purity="4.2629006505012512e-01" nType="-1"/>
          </Node>
        </Node>
        <Node pos="r" depth="1" NCoef="0" IVar="2" Cut="1.8263986206054688e+02" cType="0" res="-9.9000000000000000e+01" rms="0.0000000000000000e+00" purity="4.8901405930519104e-01" nType="0">
          <Node pos="l" depth="2" NCoef="0" IVar="-1" Cut="0.0000000000000000e+00" cType="1" res="-9.9000000000000000e+01" rms="0.0000000000000000e+00" purity="5.4689729213714600e-01" nType="1"/>
          <Node pos="r" depth="2" NCoef="0" IVar="-1" Cut="1.2854632568359375e+02" cType="1" res="-9.9000000000000000e+01" rms="0.0000000000000000e+00" purity="4.8162135481834412e-01" nType="-1"/>
        </Node>
      </Node>
    </BinaryTree>
    <BinaryTree type="DecisionTree" boostWeight="2.0952149925601949e-02" itree="50">
      <Node pos="s" depth="0" NCoef="0" IVar="1" Cut="1.6881298065185547e+01" cType="0" res="-9.9000000000000000e+01" rms="0.0000000000000000e+00" purity="5.0340676307678223e-01" nType="0">
        <Node pos="l" depth="1" NCoef="0" IVar="1" Cut="2.1517269134521484e+01" cType="1" res="-9.9000000000000000e+01" rms="0.0000000000000000e+00" purity="5.0680595636367798e-01" nType="0">
          <Node pos="l" depth="2" NCoef="0" IVar="-1" Cut="0.0000000000000000e+00" cType="1" res="-9.9000000000000000e+01" rms="0.0000000000000000e+00" purity="5.6402611732482910e-01" nType="1"/>
          <Node pos="r" depth="2" NCoef="0" IVar="3" Cut="1.5642702636718750e+03" cType="0" res="-9.9000000000000000e+01" rms="0.0000000000000000e+00" purity="5.0186312198638916e-01" nType="0">
            <Node pos="l" depth="3" NCoef="0" IVar="-1" Cut="0.0000000000000000e+00" cType="1" res="-9.9000000000000000e+01" rms="0.0000000000000000e+00" purity="6.1050403118133545e-01" nType="1"/>
            <Node pos="r" depth="3" NCoef="0" IVar="-1" Cut="0.0000000000000000e+00" cType="1" res="-9.9000000000000000e+01" rms="0.0000000000000000e+00" purity="4.9930360913276672e-01" nType="-1"/>
          </Node>
        </Node>
        <Node pos="r" depth="1" NCoef="0" IVar="-1" Cut="0.0000000000000000e+00" cType="1" res="-9.9000000000000000e+01" rms="0.0000000000000000e+00" purity="4.5541265606880188e-01" nType="-1"/>
      </Node>
    </BinaryTree>
    <BinaryTree type="DecisionTree" boostWeight="5.8608233444314088e-02" itree="51">
      <Node pos="s" depth="0" NCoef="0" IVar="1" Cut="1.6881298065185547e+01" cType="0" res="-9.9000000000000000e+01" rms="0.0000000000000000e+00" purity="5.0766116380691528e-01" nType="0">
        <Node pos="l" depth="1" NCoef="0" IVar="4" Cut="5.4745526313781738e+00" cType="1" res="-9.9000000000000000e+01" rms="0.0000000000000000e+00" purity="5.1099079847335815e-01" nType="0">
          <Node pos="l" depth="2" NCoef="0" IVar="3" Cut="3.1369766235351562e+02" cType="0" res="-9.9000000000000000e+01" rms="0.0000000000000000e+00" purity="5.1546388864517212e-01" nType="0">
            <Node pos="l" depth="3" NCoef="0" IVar="-1" Cut="0.0000000000000000e+00" cType="1" res="-9.9000000000000000e+01" rms="0.0000000000000000e+00" purity="5.4502451419830322e-01" nType="1"/>
            <Node pos="r" depth="3" NCoef="0" IVar="-1" Cut="0.0000000000000000e+00" cType="1" res="-9.9000000000000000e+01" rms="0.0000000000000000e+00" purity="4.9529969692230225e-01" nType="-1"/>
          </Node>
          <Node pos="r" depth="2" NCoef="0" IVar="3" Cut="1.3749758300781250e+03" cType="0" res="-9.9000000000000000e+01" rms="0.0000000000000000e+00" purity="4.6238371729850769e-01" nType="0">
            <Node pos="l" depth="3" NCoef="0" IVar="-1" Cut="0.0000000000000000e+00" cType="1" res="-9.9000000000000000e+01" rms="0.0000000000000000e+00" purity="5.9292930364608765e-01" nType="1"/>
            <Node pos="r" depth="3" NCoef="0" IVar="-1" Cut="0.0000000000000000e+00" cType="1" res="-9.9000000000000000e+01" rms="0.0000000000000000e+00" purity="3.7896355986595154e-01" nType="-1"/>
          </Node>
        </Node>
        <Node pos="r" depth="1" NCoef="0" IVar="-1" Cut="0.0000000000000000e+00" cType="1" res="-9.9000000000000000e+01" rms="0.0000000000000000e+00" purity="4.6061372756958008e-01" nType="-1"/>
      </Node>
    </BinaryTree>
    <BinaryTree type="DecisionTree" boostWeight="4.1850935407361040e-02" itree="52">
      <Node pos="s" depth="0" NCoef="0" IVar="2" Cut="2.0831282043457031e+02" cType="1" res="-9.9000000000000000e+01" rms="0.0000000000000000e+00" purity="5.1126974821090698e-01" nType="0">
        <Node pos="l" depth="1" NCoef="0" IVar="3" Cut="7.9611614990234375e+02" cType="0" res="-9.9000000000000000e+01" rms="0.0000000000000000e+00" purity="5.1649427413940430e-01" nType="0">
          <Node pos="l" depth="2" NCoef="0" IVar="2" Cut="1.0565908813476562e+02" cType="0" res="-9.9000000000000000e+01" rms="0.0000000000000000e+00" purity="5.6755578517913818e-01" nType="0">
            <Node pos="l" depth="3" NCoef="0" IVar="-1" Cut="0.0000000000000000e+00" cType="1" res="-9.9000000000000000e+01" rms="0.0000000000000000e+00" purity="7.4931842088699341e-01" nType="1"/>
            <Node pos="r" depth="3" NCoef="0" IVar="-1" Cut="0.0000000000000000e+00" cType="1" res="-9.9000000000000000e+01" rms="0.0000000000000000e+00" purity="4.8175510764122009e-01" nType="-1"/>
          </Node>
          <Node pos="r" depth="2" NCoef="0" IVar="-1" Cut="9.4352485656738281e+01" cType="0" res="-9.9000000000000000e+01" rms="0.0000000000000000e+00" purity="5.1004093885421753e-01" nType="1"/>
        </Node>
        <Node pos="r" depth="1" NCoef="0" IVar="-1" Cut="0.0000000000000000e+00" cType="1" res="-9.9000000000000000e+01" rms="0.0000000000000000e+00" purity="4.6439328789710999e-01" nType="-1"/>
      </Node>
    </BinaryTree>
    <BinaryTree type="DecisionTree" boostWeight="3.9273141130275815e-02" itree="53">
      <Node pos="s" depth="0" NCoef="0" IVar="1" Cut="8.0008590698242188e+01" cType="1" res="-9.9000000000000000e+01" rms="0.0000000000000000e+00" purity="5.0434517860412598e-01" nType="0">
        <Node pos="l" depth="1" NCoef="0" IVar="1" Cut="7.0241004943847656e+01" cType="0" res="-9.9000000000000000e+01" rms="0.0000000000000000e+00" purity="5.0681322813034058e-01" nType="0">
          <Node pos="l" depth="2" NCoef="0" IVar="-1" Cut="0.0000000000000000e+00" cType="1" res="-9.9000000000000000e+01" rms="0.0000000000000000e+00" purity="6.1399108171463013e-01" nType="1"/>
          <Node pos="r" depth="2" NCoef="0" IVar="1" Cut="5.0831859588623047e+01" cType="1" res="-9.9000000000000000e+01" rms="0.0000000000000000e+00" purity="5.0251042842864990e-01" nType="0">
            <Node pos="l" depth="3" NCoef="0" IVar="-1" Cut="0.0000000000000000e+00" cType="1" res="-9.9000000000000000e+01" rms="0.0000000000000000e+00" purity="5.1059240102767944e-01" nType="1"/>
            <Node pos="r" depth="3" NCoef="0" IVar="-1" Cut="0.0000000000000000e+00" cType="1" res="-9.9000000000000000e+01" rms="0.0000000000000000e+00" purity="4.7020104527473450e-01" nType="-1"/>
          </Node>
        </Node>
        <Node pos="r" depth="1" NCoef="0" IVar="-1" Cut="0.0000000000000000e+00" cType="1" res="-9.9000000000000000e+01" rms="0.0000000000000000e+00" purity="4.5150223374366760e-01" nType="-1"/>
      </Node>
    </BinaryTree>
    <BinaryTree type="DecisionTree" boostWeight="2.7657411950754478e-02" itree="54">
      <Node pos="s" depth="0" NCoef="0" IVar="1" Cut="1.6881298065185547e+01" cType="0" res="-9.9000000000000000e+01" rms="0.0000000000000000e+00" purity="4.9901196360588074e-01" nType="0">
        <Node pos="l" depth="1" NCoef="0" IVar="0" Cut="6.6517616271972656e+01" cType="1" res="-9.9000000000000000e+01" rms="0.0000000000000000e+00" purity="5.0198578834533691e-01" nType="0">
          <Node pos="l" depth="2" NCoef="0" IVar="-1" Cut="0.0000000000000000e+00" cType="1" res="-9.9000000000000000e+01" rms="0.0000000000000000e+00" purity="5.7032448053359985e-01" nType="1"/>
